-10
-2
-10
10
-10
-10
0
-10
-10
-10
10
10
10
-10
10
-10
-10
10
-10
10
-10
10
-10
-10
10
10
-10
10
10
-10
-10
-10
-10
-10
10
10
10
10
-10
10
10
-10
-10
10
-10
-10
-10
-10
-10
-10
9
-6
-10
-10
10
-10
10
-10
10
-10
-10
-9
10
-10
-10
-10
10
-10
-10
-10
-10
10
10
-10
-10
10
-10
-10
-10
10
-10
10
5
-2
-10
10
-10
10
10
-10
10
-10
-5
-10
-10
-10
-10
-10
10
-10
10
-10
10
10
-10
-10
-10
10
10
10
6
-10
-10
10
10
10
10
-10
-10
-10
-10
-10
10
-10
-10
10
-9
-10
-10
-10
10
-10
10
-10
-10
-10
-10
-10
-10
10
-10
-10
-10
-6
10
-10
10
-10
-10
-10
-10
-10
10
10
10
10
10
-10
-10
-10
-10
-10
10
-10
10
-10
10
10
10
6
-10
-10
-10
-10
2
-10
-10
-10
-10
-10
-10
-10
-10
10
10
10
-10
-9
-10
10
-10
-10
-10
6
-10
-10
-10
10
-10
-10
-10
10
-10
10
-10
-2
-10
-10
-3
-10
-10
-10
-2
0
10
-10
10
10
-10
10
0
-3
10
-10
-10
-9
-10
10
-10
10
-10
10
-10
-10
-10
10
-10
10
-6
10
-10
-10
-10
10
-10
-10
10
-10
-10
-10
-10
-10
10
-10
0
-10
10
-10
10
-10
0
-10
-10
-10
-9
-10
-10
-10
-10
10
0
-10
-10
-10
10
9
-10
-10
-10
0
-10
-2
-10
-10
-10
-10
-10
-10
-10
10
-10
-10
10
-10
-9
-2
6
-10
-10
-10
-10
-10
-10
-10
10
10
-10
-10
-10
-10
-10
10
10
10
10
4
-10
-10
-10
-10
-10
3
-10
-10
10
-10
10
-10
-10
10
-10
-10
10
-10
5
10
10
10
10
-10
-10
10
-2
10
10
-10
-10
10
-10
-10
10
5
-10
5
-10
10
-10
-10
-10
-10
0
10
-10
10
-10
10
-10
-10
-10
-10
9
-10
-10
-10
-10
-10
10
10
-10
-10
10
-10
-10
10
-10
-10
-10
10
-10
10
-10
10
-10
10
10
10
-10
-10
-10
-10
-10
10
10
-10
-10
-10
-10
-10
10
-10
-2
-10
4
10
-10
-10
-10
-10
-10
10
-10
-10
-10
-10
-10
10
10
10
-10
10
-10
-3
-10
10
-10
10
10
-10
10
-10
-10
10
-10
0
-10
-10
10
-10
10
10
-3
-10
-10
-10
-10
10
2
-10
10
-10
-6
9
-10
10
-10
10
-10
-10
-10
10
10
-10
-10
-10
-10
10
-10
10
10
-10
-10
-5
-10
6
-10
-10
-10
10
-10
-9
-10
10
10
-10
-10
6
-4
-10
-10
-10
-10
10
-10
-10
-10
-6
10
-10
-10
-10
10
10
-5
10
10
10
10
10
0
-10
-10
-10
-10
-10
-10
10
-10
-10
10
-10
10
-10
-10
-10
-10
-10
-10
-10
-10
10
-10
10
10
-10
10
-10
-10
-10
10
10
-10
10
10
-10
-10
-10
-10
10
-10
10
-10
10
5
-10
10
-10
-10
10
-10
-10
-10
10
10
10
10
-10
-10
-10
-10
10
-10
-10
-10
10
-10
-10
-10
-10
-10
-10
-10
-10
-10
10
-6
-10
10
-10
-10
-10
-10
-10
10
-10
-10
10
-10
-10
-10
-10
-10
-10
10
-10
-10
-10
10
10
-10
-10
-10
-10
-10
-10
10
-10
-10
-10
-10
-10
-10
10
-10
10
10
-10
10
10
3
10
-10
-10
-10
-10
-10
10
10
-10
-10
-10
-10
10
10
-10
-10
-10
-10
-10
-10
-10
-10
6
-10
-10
-10
-10
10
10
10
-10
-10
-10
-10
10
-10
-10
-10
-10
10
9
-10
10
-10
-10
-10
-10
0
-10
10
10
10
10
10
-10
10
-10
10
9
10
10
-10
-10
10
10
-10
-10
-10
-10
-10
4
-10
-10
10
-10
-10
-10
-10
10
-10
3
6
-10
10
-10
9
-2
-10
10
-10
10
-10
-10
0
-6
-3
-10
-10
10
10
-10
10
-10
-10
-10
10
10
-10
10
-5
-10
5
-10
-10
-10
-10
-10
-10
10
-10
-10
-10
9
-10
10
-10
-10
-10
10
-10
-10
-10
-10
10
10
-10
10
-9
10
-10
10
10
-10
-10
-10
10
-10
10
10
-10
-10
-10
3
10
6
0
10
-10
-10
-10
10
-10
10
-10
-10
-10
-10
-10
10
10
6
10
-10
-10
-10
10
10
10
-10
-10
10
-10
-10
-10
10
10
-10
10
6
-10
10
10
-10
-10
10
-10
10
-10
10
-10
-10
10
-10
-6
-10
10
10
-10
-10
9
-10
0
-10
10
-10
-10
10
10
-10
10
10
10
10
10
-10
-10
-4
-10
-10
-10
-10
10
-10
-10
-10
-10
-10
10
-10
-10
10
-10
-10
10
10
-10
-10
10
10
10
10
-10
-10
-10
-10
-10
-10
-10
-2
-10
-10
-10
10
-10
-10
10
10
10
-10
5
10
10
-10
-10
-10
10
-10
-10
-10
10
-10
-10
-10
-2
-10
-10
0
-10
10
10
-10
10
-10
-10
10
10
-10
-10
3
-10
3
-10
-10
-10
-3
10
-10
-10
-10
-10
-10
-10
-10
10
-10
10
6
-10
-10
-10
-9
-10
-10
-10
10
-10
10
10
-10
5
9
-10
-4
10
10
10
-10
-10
10
10
-10
-10
-10
-10
10
10
-10
-10
10
-10
-10
-10
-10
-10
-10
-9
-9
-5
10
-10
-10
-10
10
10
-10
-10
10
-10
10
-10
-5
10
-9
10
-10
-10
-10
-10
10
10
-10
10
-10
-10
-10
-10
-10
-10
-10
-10
-10
-3
-10
10
-10
-10
-4
-10
-10
-10
10
-10
-10
-10
10
-5
-10
10
10
-10
-10
-10
-10
-10
-10
-10
10
-10
10
-10
-10
-10
-10
10
-10
-10
10
10
-10
10
-10
-9
-10
10
-10
-10
-10
-10
-10
-10
-10
-10
-10
-10
-10
-10
2
-10
10
10
10
-10
-10
10
10
10
-10
-10
10
10
-10
-10
10
-10
-10
-10
-10
-3
-10
-10
-10
10
-10
-10
10
-10
-6
-9
-10
10
-10
10
10
10
10
-10
10
-10
-10
-10
-10
10
-10
-10
-10
-10
10
-10
10
-10
-10
-10
-10
-10
-10
10
-10
-10
10
-10
-10
-6
-10
10
10
-10
10
0
-10
-10
10
10
10
10
-10
-10
10
10
9
-10
10
-10
-10
10
10
10
-10
-10
-10
-10
-10
-10
10
10
10
10
-10
-10
10
-10
10
-10
-10
-10
-10
-10
10
10
10
-10
-10
-10
-10
-10
-10
-10
10
-10
-10
-10
-10
-10
-10
-10
-10
-10
-10
10
-10
10
10
10
-10
10
-10
-10
-10
-10
-10
10
-10
-10
-10
-10
6
-10
10
-10
-10
-9
-10
-10
-10
10
-10
-9
-2
-10
10
-10
-10
-10
-10
-10
-10
10
2
-10
-10
10
-10
10
-10
-10
-10
-10
-10
10
-10
10
-10
-10
10
2
-10
10
-10
10
10
-10
-10
10
10
10
-10
-10
-10
10
-10
4
-10
10
-10
-10
-10
-10
10
-10
6
-10
-10
10
10
-10
-10
-10
2
10
-10
10
10
-4
-10
10
-10
10
10
10
10
-6
-4
-10
9
-10
10
-10
10
-10
-10
-10
-10
-10
-10
10
10
10
-10
-10
-10
-10
-10
10
-10
-10
10
-6
-10
10
-10
-10
-10
-10
10
-10
-10
10
10
-10
-10
-10
-10
-10
-10
6
-10
-10
-10
-10
-10
-10
-6
-10
-10
-10
-10
-10
10
10
-10
10
-10
10
10
-10
10
-10
-10
10
-10
-10
-10
10
-10
10
10
3
-10
-10
10
-9
-10
-10
-10
10
10
-10
10
-10
-10
10
6
10
5
6
-10
-10
-10
-10
-10
-10
-10
-10
-10
-10
10
10
-10
-10
10
10
10
-10
10
10
10
-10
-10
-10
-10
10
-10
-10
10
-10
-10
10
-10
-10
10
-10
-10
-10
-10
10
-10
10
10
-10
-10
10
-10
-10
10
-10
10
-10
-10
-10
-2
-10
10
-10
10
-10
-10
-10
-10
0
-10
-10
-10
-4
-10
-10
-10
-10
-10
-10
-10
-6
-10
-10
10
-10
-10
-10
-10
-10
-10
-10
-10
-10
10
-10
-10
10
-10
10
-10
10
-10
10
-10
10
-10
-10
-10
-10
-10
10
-10
-10
10
-10
10
-10
-10
10
10
10
0
-10
-10
-10
-4
-10
-10
9
-10
-10
-10
-10
-10
-2
-10
10
-10
-10
-10
-10
-10
-10
-10
-10
-10
-10
-10
-10
-10
10
10
-10
-10
10
-10
-10
-10
-10
10
-10
10
-10
-10
-10
-10
-10
-10
-10
-10
-10
-10
10
-10
-10
-10
-10
-10
-10
-10
-10
10
-10
-10
-10
-10
-10
-6
-10
0
-10
-10
-10
10
-10
-10
-10
-10
-10
-10
-10
-10
10
-10
-10
-10
10
-10
-10
-10
-5
-10
-10
-10
10
-10
-10
-10
-10
-10
-10
-10
-10
10
-10
10
-10
10
-10
-10
-10
-10
10
-10
10
10
-10
-10
-10
10
-10
-10
-10
-10
-10
10
-10
-10
10
-10
-10
-10
-10
-10
0
-10
-10
-10
-10
10
-10
10
-10
10
-10
10
-10
-10
-10
10
-10
-10
-10
10
-10
9
10
-10
10
-10
-10
-10
-10
-10
-10
-10
-10
10
10
-10
-10
-10
-10
-10
-10
-10
-10
-10
10
10
10
10
3
-10
10
-10
-10
-10
-10
-10
-10
-10
-10
-10
10
-10
-10
-10
-10
-10
10
-10
10
-10
-10
-10
10
-10
-10
-10
-10
-10
10
-10
-10
10
-3
10
-10
10
3
-6
-10
-10
-10
-10
10
-10
2
6
-10
-10
10
-10
-10
-10
-10
-10
10
-10
10
-10
-10
-10
-10
-10
-10
-10
-10
10
-10
-10
-10
10
-10
-10
10
-10
10
-10
-10
-10
-10
-10
-10
10
-10
-10
-10
-10
-10
10
-3
-10
10
-10
-10
-10
-10
10
-10
-10
-10
-10
10
-10
10
-10
-10
2
10
-10
-10
-10
-10
-10
10
-10
10
-10
-10
10
-10
-2
-10
5
-10
10
-10
-10
-10
-10
-10
-10
-10
-10
10
-10
10
-10
-10
-10
-10
-10
10
-10
10
10
-10
-10
10
-10
-10
-10
-10
10
-10
-10
-10
-10
-10
10
-10
-10
-10
-10
-2
-10
-10
-10
0
-10
-10
-10
-10
-10
-10
-10
-10
-10
10
-4
10
-10
-10
10
-10
-10
-10
-10
10
-10
-10
-10
-10
-10
-10
10
2
-10
-10
-10
-3
10
-10
-10
10
10
-10
-10
-10
-10
10
10
-10
-10
10
-10
-10
-10
-10
-10
-10
-10
-10
-10
-10
10
-10
-10
-10
10
10
-10
-10
-10
-10
10
-10
10
-10
-10
10
-10
10
-10
-10
-10
10
-10
-10
10
-10
-10
-10
-10
-10
-10
10
6
-10
-10
-10
-10
-10
10
-10
-10
-10
-10
-10
0
-10
10
-10
-10
-10
-10
-10
-10
10
-10
-10
-10
2
-10
-10
2
-10
-10
-10
-10
-10
-10
-10
-10
-10
-10
-10
-10
-10
10
-10
-10
-10
-10
-10
-10
-10
-10
-10
-5
-10
-10
10
-10
-10
-10
-10
-10
-10
-10
-10
-10
-10
-10
-10
-10
-10
-10
10
10
10
-9
-10
-10
-10
10
-10
-10
10
10
-10
-10
10
10
-5
-5
10
-10
-10
-10
-10
10
-10
-10
-10
-10
-10
-10
-10
-10
10
10
-10
-10
10
-10
-10
-10
-5
10
0
10
-10
-10
0
0
-10
-10
0
-10
-10
-10
10
10
-10
10
-10
10
10
5
-10
10
-10
2
-10
-10
-10
10
-10
10
-10
-10
-10
10
10
10
-10
-10
-10
-10
-10
-4
10
-10
-10
-10
10
-10
-10
-10
-2
-10
-10
-10
10
-9
-10
-10
-10
-10
-10
-10
-10
10
-10
10
-10
10
-10
-10
-10
-10
10
9
10
10
-10
-10
-10
10
-10
-10
-10
-10
-10
10
-10
-10
10
10
-10
-10
-10
-10
-2
-10
-10
-10
-10
10
-10
10
10
10
-10
10
-10
-3
-10
10
-10
-10
-10
10
-10
10
10
-10
10
-10
-10
-10
10
-10
-10
-10
-10
10
2
-10
-3
-10
-10
-10
-10
6
-10
10
10
10
10
10
3
-10
10
-10
6
-10
-10
-10
-10
-10
-10
-10
10
10
-10
-10
10
-10
10
-10
10
-10
-10
-10
10
-10
5
-10
-10
-10
10
10
-10
10
0
10
10
10
10
-4
-10
-10
-10
-6
10
-10
0
5
10
-10
10
-10
-10
-10
10
-10
10
-10
10
10
-10
-2
-10
-10
4
-10
-10
10
-10
-10
-10
10
-10
-10
10
-10
10
10
-10
-10
-10
10
-10
10
-10
-10
-10
10
-10
10
2
-10
10
-10
-10
-10
-10
10
10
-10
-10
10
10
-10
10
3
10
4
-4
-10
-10
-10
-10
-10
10
-10
10
-10
-10
10
-10
-2
10
2
2
10
-10
-10
-10
-10
-10
-10
-10
-10
10
-10
10
-10
-10
-10
-10
-10
10
10
10
10
-10
-9
10
10
-10
6
-10
10
-10
-10
-10
-10
-10
10
-10
-10
0
-10
2
-10
4
-10
-4
10
5
-6
-10
-10
5
-10
9
-10
10
-9
10
-10
-10
10
10
-10
-10
-10
10
-10
-10
-10
-10
10
2
10
4
10
-4
-10
4
10
-9
6
10
10
-10
-10
-10
-10
10
10
-10
-10
10
-10
-10
-10
-10
-10
-10
-10
-4
10
-10
10
-10
-10
-10
10
10
-10
10
-10
-10
10
-10
10
-10
-10
10
10
10
-10
6
-10
10
10
-10
10
-10
0
-10
-5
-10
-10
10
0
-10
-10
-10
-10
-10
10
-10
-10
10
-10
-10
0
-10
10
-10
-9
-5
-10
-10
10
10
-10
10
-10
2
-9
-10
-10
-5
-10
-10
-10
-10
-10
-10
-10
3
-10
-10
-10
-10
10
10
-10
-10
-10
-10
-10
-10
-10
-10
-4
-10
-10
10
-10
-10
-9
-10
-10
-10
-10
-10
0
-10
-10
-10
-10
10
-10
10
10
10
6
-5
-10
10
10
-10
-10
10
-10
-10
-10
-10
-10
5
10
-10
-10
10
10
10
-10
10
10
-10
-10
-10
10
-10
10
10
-10
10
10
10
-10
10
-10
-10
-10
-10
10
10
-10
10
-10
-10
-10
-10
-10
-10
-10
10
-10
-10
-10
-10
-10
10
10
-10
-10
-10
10
-10
-10
-10
-10
-10
0
-10
10
10
-10
10
-10
10
-10
10
-10
0
10
-10
10
-10
-10
10
-10
-10
10
6
-10
-10
10
-10
10
-10
10
10
-10
10
-10
10
-10
-10
-10
10
-10
-10
-10
-10
-10
-10
-10
10
10
-9
10
10
10
-10
10
10
-10
-10
-4
-10
-10
-10
-10
-10
-10
-10
-10
6
-10
-10
-10
10
10
10
-10
-10
10
-10
-10
-10
-10
-10
-10
10
-10
-10
-10
-10
-3
-10
-10
10
-10
10
10
-10
-10
-10
10
10
-10
10
-10
10
10
-10
-10
-10
-10
-10
-10
-10
-10
9
10
-6
-10
-10
-10
-10
-10
-10
10
-10
-10
-10
-10
2
-10
-10
-10
-10
-10
-10
-10
-10
-10
-10
10
10
-10
-10
10
-10
10
-10
6
-10
-10
-6
-10
-10
10
-9
-9
-10
-10
10
-10
-10
10
-5
-2
10
-10
10
-10
-10
10
-10
10
-10
10
-10
-10
-10
10
-10
-10
10
10
-10
-10
-10
10
10
-10
9
-10
10
-10
10
-10
10
-10
10
-10
10
10
10
-10
-10
10
10
-10
5
-10
10
-10
-10
-10
-10
-10
-10
-10
-10
-10
-10
-10
-10
10
-10
2
-10
-10
-10
-10
-10
-10
-10
-10
-10
10
10
-10
-10
-3
-10
-4
10
-10
-10
-10
-10
-10
-10
10
-10
-10
10
-10
-10
-10
-10
-10
-10
-10
-10
-10
-10
-10
-10
-10
-9
10
-10
-2
10
10
-10
-10
-10
-10
-10
-10
10
-6
-10
-10
-9
-10
-10
10
-6
-10
-10
-10
-10
-10
-10
10
-10
10
10
-10
-10
-10
-10
-10
-10
10
10
-10
-10
-10
-10
-10
10
-10
10
-10
9
-10
10
-10
0
-10
-10
-10
-10
-10
-10
10
-10
10
10
-10
10
10
10
-10
-10
10
-10
10
0
-10
10
-10
-10
-10
10
10
-10
-10
-10
-10
-10
-10
10
10
-10
-10
-10
10
-3
-10
-10
-10
-10
10
0
-10
-10
-10
-10
-10
10
10
10
-10
-10
2
-10
10
-10
10
-10
-10
10
-6
-10
9
-10
0
-10
10
-10
-2
10
-10
10
-10
-10
-10
-10
-10
-2
10
-10
-10
10
-10
-10
-10
-10
-10
-10
10
10
10
-10
-10
-10
10
10
-10
-10
10
-10
-10
10
-10
-6
-10
9
-10
-10
-10
-10
10
-10
-10
10
-10
10
-9
-10
-10
-10
10
-10
-10
10
-10
-10
-4
-10
-10
-10
-10
10
-10
10
10
-10
-10
10
10
6
10
-10
-10
-10
-10
10
10
10
-10
-10
-10
-10
-10
-10
10
6
-3
5
10
10
10
10
-10
-10
-10
-10
-10
-10
-10
10
10
-10
10
10
-10
-10
-10
2
-10
-10
10
-10
10
10
10
-10
9
-10
10
-10
-10
-10
10
-10
-10
-10
-10
-10
-10
10
10
-10
-10
-10
-10
-10
-10
-10
10
-10
-10
10
-10
-10
10
-10
-10
-10
-10
-10
10
-10
-10
10
-10
3
-10
-10
10
-10
-10
-10
-10
-10
-10
-10
-10
10
-10
-10
10
10
10
10
10
-10
-10
-10
-10
-10
0
-10
-10
-10
10
10
-10
-10
10
6
-10
-10
-6
10
-10
-10
10
10
-10
-10
-10
-10
10
-10
-10
-10
-10
-10
-10
-10
10
-10
-10
-10
-10
-10
-10
10
-10
10
0
-10
-10
-10
-10
10
-10
-10
-10
-10
10
-10
10
10
-10
-10
-10
3
-10
10
-10
-6
-10
-10
-10
-10
-10
-10
-10
10
-5
-10
-10
10
-10
-10
-10
-10
-10
-10
10
10
-10
-10
-10
-10
-10
-10
10
-10
-10
0
-10
-10
-10
-3
5
-10
-10
10
10
-10
-10
-9
-2
10
-10
10
-10
-10
-10
10
-10
-10
-10
10
10
-10
10
-10
-10
10
5
-10
10
-10
10
-10
10
-10
-10
10
-10
-10
10
-10
-10
10
10
-10
-3
-10
-10
-10
10
-10
10
4
-10
-5
-10
-10
-10
-10
-10
10
-10
10
10
-10
-10
-10
10
10
-10
-10
-10
-10
-10
-10
-10
-10
-10
-10
-10
-10
-10
-10
2
10
-10
10
-10
-10
-10
-10
-10
-10
10
-10
-10
10
-10
-10
-10
-10
-10
10
-10
-10
10
10
-10
-10
-10
-10
10
-10
10
-10
10
-10
-10
-10
-10
-10
10
10
-10
-10
-10
-3
-10
-10
10
-3
10
10
-10
-10
-10
10
10
10
-10
-10
-10
-10
-10
-10
-10
-10
-10
10
-10
-10
-10
-10
-10
-10
10
-10
-10
5
10
10
-10
-10
10
10
10
-10
-10
-10
-10
-10
-10
-10
-10
-10
-10
-10
10
-10
10
-10
10
10
-10
10
10
-10
-10
-10
10
-10
-10
-10
-10
10
-10
-10
0
-10
-10
-10
10
-10
10
10
-10
-10
-10
-10
10
-10
-10
-10
-10
10
10
-10
-10
-10
0
-10
10
-10
10
-10
-10
-10
-10
10
-10
-10
0
-10
-10
-10
-10
10
-10
10
10
-10
-10
10
-10
2
10
-10
-10
10
-10
10
-10
-10
-10
-10
-10
10
-10
-10
-10
-10
10
10
4
-10
-10
-10
-10
-10
-10
-6
-10
-10
-10
-10
-10
-10
10
-10
-10
-10
-10
-10
10
-10
-10
-10
-10
10
-10
10
-10
-10
-10
10
-10
10
-10
10
-10
-10
-10
10
10
0
-10
5
-10
-10
10
-10
-10
-10
-10
-10
-10
10
10
10
-10
10
-10
-10
-10
-10
-10
-10
-2
-10
10
10
-10
10
-10
-10
10
-10
10
-10
-10
-10
-10
-10
10
-10
10
10
0
-10
-10
-10
-10
10
-10
-10
-10
-10
10
-10
-10
10
10
10
-10
-10
-10
-10
10
-10
-10
-10
10
-10
-10
-10
-10
10
-10
-10
10
10
-10
-5
10
10
-10
-10
-10
-10
-6
-10
10
-10
10
-10
-10
-10
-10
-10
-10
10
10
10
-10
-10
10
-10
-10
-10
-10
-10
-10
10
-10
-10
10
10
-10
10
10
-10
-10
-10
-10
10
-10
-2
-10
-10
-2
-10
-10
-10
-10
10
-10
-10
-10
-10
-10
10
-10
-10
-10
-10
-10
-10
-10
-10
-10
-10
-10
-10
-10
-10
10
10
-10
-10
-10
-10
10
-10
-10
10
-10
10
10
10
-10
-10
-10
-10
-10
-2
10
-10
10
10
10
10
-10
10
-10
10
10
-10
10
10
10
-10
10
-10
10
-10
-10
10
-10
-10
10
10
-10
10
-10
-10
-10
10
-10
0
-10
10
-10
6
10
-10
10
-10
10
-10
-10
-3
-5
-10
-6
-10
10
10
-10
10
-10
-10
-10
-10
-10
-10
-10
-10
-10
-10
-10
10
-10
-10
-10
-10
-10
-10
-10
-10
10
-10
-10
-10
-10
-10
2
-10
-10
-10
10
10
-10
-10
-10
-10
10
-10
3
10
10
-10
-10
10
9
-10
5
-10
10
-10
-10
-10
2
-10
10
-10
-10
-10
10
-10
10
-10
-10
-10
-10
10
-3
-10
-9
-10
-10
10
-10
10
10
10
-10
10
10
-10
-9
-10
10
9
0
10
10
-10
-10
-10
-10
10
10
-10
-10
-10
-10
-10
-10
10
-10
-10
-10
-10
-10
-10
-10
10
10
2
10
-10
-10
9
-3
-10
-10
10
10
-10
-10
-10
-10
-10
10
-10
-10
-10
-10
10
-10
-10
10
-10
-10
10
10
-10
-10
-10
-10
-5
10
-9
-10
4
-10
10
-10
-10
-10
-10
-10
10
-10
-10
-6
-10
-10
-10
-10
10
-10
10
-10
-10
10
-10
-10
10
-10
-10
-10
10
-10
-10
-10
-10
-10
-10
-10
10
-10
10
-10
-10
-10
-10
-10
10
-10
-10
-10
10
-10
10
10
-10
-10
-10
10
-10
-3
10
-10
10
-10
10
-10
-10
-10
-10
-10
10
4
10
-10
-4
-9
-10
10
-10
-10
6
10
-10
10
0
-10
4
10
-10
10
-10
10
-9
10
10
-10
-3
-10
-10
10
10
-10
-10
10
3
-10
10
10
-10
10
-5
10
-10
10
-10
10
-10
-10
10
10
-10
10
-10
-10
-10
-10
10
-10
10
10
-10
-10
-10
0
-10
10
-9
10
-10
-10
-10
-10
-10
10
-10
-10
2
-10
-10
10
10
-9
-10
-10
4
-10
-10
10
-10
-10
10
-10
-10
-10
-10
-10
-10
-10
-10
-5
-10
-10
-10
-10
10
10
-10
-10
10
-10
-10
-9
4
10
-10
-10
10
-10
10
-10
-10
-10
-10
-10
10
-10
10
10
-5
-10
-10
-10
10
-10
-10
-10
-10
-10
-10
-10
-10
10
-10
-10
-10
-10
10
9
-10
10
10
-10
10
10
-10
-10
-10
-10
10
-10
-10
10
-10
4
-10
-10
10
-10
9
-10
10
-10
10
10
-10
-10
-10
-10
-10
-9
-10
-10
-10
-10
-10
10
10
-9
-10
-10
-10
-10
-10
10
-10
-10
9
-10
-10
-10
-10
-10
10
-10
-10
-10
10
-10
10
-10
-10
-10
-10
-10
10
-10
-10
-10
-10
-10
-10
-10
-10
10
-10
10
-10
-10
-10
-10
-10
-10
-10
-10
10
10
10
-10
10
-10
-10
-10
-10
-10
5
10
-10
-10
-10
-10
-10
-10
-10
10
5
10
-10
-10
10
10
-10
10
-10
10
-10
10
-10
-10
-10
10
-10
3
-2
10
-10
-10
9
-10
0
-10
-10
-10
6
10
10
10
-10
-10
-10
-6
10
0
-10
10
-10
10
-10
6
-10
10
-10
-10
-10
-10
10
-10
9
-10
-10
-10
10
-10
10
-10
-10
-10
10
10
-10
10
-10
-10
-10
10
-10
-10
-10
-10
10
10
-6
-10
-10
-10
-3
-10
-10
-10
-10
10
-10
-10
-10
-2
-10
-10
-10
10
-10
-10
-10
-5
-10
-9
10
10
10
10
-10
2
-10
-10
-10
-10
10
0
-10
-10
-10
-10
10
10
3
-10
10
-10
10
-10
-10
-10
-10
10
10
10
-10
10
-10
-10
-10
-10
10
-10
-10
-10
-10
-9
-6
-10
10
-10
-10
10
10
-10
-10
10
-10
10
-6
10
-10
-10
10
-10
-10
5
-10
10
-10
-10
-10
-10
-10
0
-10
10
10
-10
-10
-10
-10
10
-10
2
10
10
-10
-10
-10
-10
-3
-10
-10
10
-10
-10
-10
-10
-10
-10
10
-10
-10
-6
-10
-10
-10
-6
10
-10
10
-10
-10
-10
-10
10
-10
-10
-10
-10
-10
-10
-10
-10
-10
4
-10
4
-10
-10
10
5
10
-10
-10
-10
-10
10
-10
-10
-10
-10
-10
-10
2
10
-10
-10
-10
10
-10
-2
-10
-3
10
-10
10
-10
-9
-10
-10
10
10
2
10
-10
10
-10
-10
10
-10
-10
-10
-10
-10
10
4
-10
-10
10
-10
10
-10
10
10
10
-10
-10
2
10
10
10
10
-10
-10
-10
10
3
10
10
-10
10
-10
10
-10
-10
-10
10
10
-10
-10
10
-10
10
-10
-10
10
-10
-10
-10
-10
10
-10
-10
-10
-6
-10
10
-10
-5
-10
10
-10
-10
-10
-10
-10
-10
-3
-10
-10
10
-10
10
-10
-10
-10
10
-10
-10
-10
10
10
-10
-10
-10
-10
-10
-10
-10
-10
-10
-10
10
-10
-10
-10
-10
-10
-10
10
-10
-10
10
10
-10
-10
-10
10
-10
10
-10
-10
-10
-10
-10
-10
-10
10
10
-10
-10
-10
-10
-10
10
10
-10
-10
-10
10
10
10
-10
-10
6
-10
-10
-10
10
-10
-10
10
-10
-5
10
-10
-10
-10
-10
10
0
-10
10
10
-10
10
-10
10
-10
10
-10
-10
10
10
-10
-10
-10
10
-10
-10
-10
-10
-10
-10
10
10
-10
10
-10
10
-10
-10
-10
-10
10
-10
-10
5
-10
10
10
-10
10
10
-10
-10
10
10
-10
10
-10
-10
-10
10
10
-10
10
-10
-10
10
10
10
10
10
3
-10
-10
-10
-10
10
10
10
-10
-10
10
-10
10
-10
-10
-10
-10
-10
-10
-10
-10
2
10
-10
-10
-10
-10
-10
10
-10
-10
-10
-10
-10
-10
-10
-10
-10
-10
-10
10
-10
10
10
-10
-10
10
-10
-10
-10
10
-10
-10
10
-10
10
-10
-10
10
0
2
10
-10
-10
-10
-10
10
9
2
-10
10
-10
-10
-10
-10
-10
-10
-10
10
-10
-10
10
-10
10
-10
-10
-10
-10
-10
10
-10
10
-10
-10
10
-10
-10
-10
-10
10
10
-10
-10
10
-10
10
10
-10
-10
10
-10
-3
-10
-10
-10
-10
-10
-10
-10
-10
10
-10
-10
-10
10
-10
-10
-10
3
10
-10
10
10
10
-10
-10
-10
-10
10
10
-10
10
-6
-10
6
-10
-10
10
10
-10
-10
-10
-10
10
-10
-10
10
-10
-10
-10
10
-10
-10
-10
-10
-10
-10
10
-10
10
-10
-10
-3
-10
-10
-10
10
10
10
-10
-10
10
-9
-10
-4
0
10
-9
-10
6
-10
-10
10
-10
-10
-10
-10
-10
10
10
3
-10
-10
10
-10
-10
10
-10
-10
10
10
-10
-10
10
-10
10
-10
-3
-10
-6
10
0
-10
-10
-10
-10
-10
-10
10
0
10
10
-10
-6
10
-10
-10
-10
-4
-10
-10
-10
-10
-10
-10
-10
-10
10
-10
-10
10
-10
10
-10
10
10
-10
-10
-10
-10
-10
-10
-10
-10
10
-10
0
10
-10
-10
-10
10
-10
-10
-10
10
-10
10
3
-10
-10
10
-10
-10
10
6
10
-10
10
-10
6
-10
10
10
10
-10
-10
-10
-10
-10
-10
-10
-10
-2
-10
-10
-10
-10
-10
-10
-10
10
-10
-10
10
-10
10
10
-10
-10
-10
-10
-10
10
10
4
10
10
10
9
0
10
-10
-10
6
10
-10
-10
-9
-10
-10
10
-10
10
10
-10
10
-10
-10
-10
10
-10
-2
-10
-10
-10
-10
-10
10
