0.007273748982697725
0.0027117892168462276
0.013055077753961086
-0.012250717729330063
0.003977496642619371
-0.009094806388020515
0.0031316231470555067
-0.009083948098123074
0.008651617914438248
-0.00962226465344429
-0.007879767566919327
-0.0019612889736890793
-0.004737503826618195
0.009539063088595867
0.00580033240839839
0.005945165175944567
0.004783733747899532
-0.010473992675542831
0.010633171536028385
0.006818410009145737
-0.009182547219097614
0.0018132573459297419
-0.006968333385884762
-0.0024399091489613056
0.009866607375442982
0.006363813299685717
-0.01861708238720894
-0.004143331665545702
0.008554501459002495
-0.01074845902621746
-0.007556253578513861
-0.007130893412977457
-0.014931334182620049
-0.00627757515758276
0.0004920378560200334
0.0027184481732547283
0.003835533745586872
0.0012320290552452207
-0.02020679973065853
-0.014155508019030094
-0.005758889019489288
-0.0010118919890373945
0.00198547774925828
0.0017490461468696594
0.0003613918961491436
0.005537752993404865
-0.015043413266539574
-0.0012197521282359958
-0.0013449540128931403
0.003510345472022891
-0.004402216989547014
0.0017387194093316793
0.0046248058788478374
-0.008600547909736633
-1.8472106603439897e-05
-0.012909162789583206
0.014938244596123695
0.0042019374668598175
0.01703539304435253
-0.006095625460147858
0.016366932541131973
6.45778127363883e-05
-0.004074322059750557
0.017563799396157265
-0.008920353837311268
-0.006211313419044018
-0.007620394229888916
0.0015257177874445915
0.005982827395200729
-0.001661499380134046
-0.005716346204280853
6.136039883131161e-05
-0.003740474581718445
-0.017509130761027336
-0.005777779035270214
0.01483960822224617
-0.022323068231344223
0.00612432649359107
0.0024674057494848967
-0.00735896872356534
-0.008227290585637093
0.00257559260353446
-0.002150011947378516
-0.005756062921136618
-0.005857481155544519
0.01468456257134676
-0.005122683476656675
0.020548701286315918
-0.004605543799698353
-0.01060759648680687
-0.0025097494944930077
0.006456970237195492
0.0018984167836606503
-0.005396802444010973
-0.0035532182082533836
0.0015096586430445313
0.009821154177188873
-0.004411421250551939
-0.007357264403253794
0.004500678274780512
-0.005880550481379032
-0.0038136860821396112
-0.012687252834439278
0.0017209199722856283
0.0005070664919912815
-0.01830235682427883
-0.01953587308526039
0.006925294175744057
-0.003687678137794137
-0.007037285249680281
0.003558711614459753
0.016319453716278076
-0.015478923916816711
-0.0004991834866814315
-0.0011725107906386256
-0.008031087927520275
0.00943636056035757
-0.009583423845469952
0.006054198835045099
0.015785736963152885
0.005317904986441135
-0.023484554141759872
-0.016394099220633507
0.005982066038995981
0.010453909635543823
0.008158368058502674
-0.022954178974032402
-0.0003410788194742054
0.0037531142588704824
-0.013795492239296436
0.01644723303616047
-0.007437128107994795
-0.001751335570588708
-0.010432617738842964
0.016583098098635674
-0.007232155650854111
0.008443525992333889
0.012974824756383896
-0.007012063637375832
0.005551240872591734
-0.015520114451646805
-0.0008882416295818985
0.01873483508825302
0.017747176811099052
0.003994567319750786
0.012895626947283745
0.019027287140488625
0.016302362084388733
-0.010949796997010708
-0.0006494367262348533
0.000729524006601423
0.010173384100198746
0.006155133247375488
0.0009558323072269559
0.004107496701180935
0.0020394211169332266
0.005769289564341307
-0.0038851711433380842
0.00880685169249773
9.356490045320243e-05
-0.016633812338113785
-0.0052590626291930676
-0.007311464753001928
0.009683397598564625
-0.015797793865203857
0.009309995919466019
0.009700832888484001
-0.0058707790449261665
-0.004246601834893227
0.005331876687705517
-0.0032466170378029346
-0.001848363783210516
0.011929729022085667
-0.004825422074645758
-3.765646033571102e-05
-0.0058412570506334305
0.006542401388287544
1.6095878891064785e-05
0.003801192855462432
0.0006722830585204065
-0.0005195540725253522
0.004428867716342211
-0.0014127554604783654
-0.0015979569870978594
-0.0037177454214543104
0.00973507296293974
-0.005327197257429361
0.007779483217746019
0.003428953466936946
-0.010298222303390503
0.0014516760129481554
0.0012829933548346162
-0.010023725219070911
0.036684196442365646
-0.000779385503847152
-0.0156660545617342
-0.023935576900839806
-0.014932072721421719
0.0036440836265683174
0.003009026637300849
-0.006833004765212536
0.004162019118666649
-0.004507953301072121
0.0007360324962064624
-0.017089320346713066
0.014996870420873165
0.011693982407450676
0.0006646307883784175
-0.0024863474536687136
0.002402081387117505
0.020583385601639748
0.01903776079416275
0.0026242458261549473
-0.008940408937633038
-0.004188427701592445
0.0004315747646614909
-0.01474194135516882
-0.010129718109965324
0.003245681058615446
0.002890896750614047
0.009365062229335308
-0.001666006282903254
0.0008336958708241582
-0.01213591918349266
-0.008862257935106754
0.03089481219649315
0.009169861674308777
-0.00838661752641201
0.0025023033376783133
0.0017660990124568343
0.011950448155403137
0.003475002944469452
0.003784273751080036
-0.01644223742187023
-0.00820013415068388
0.03271975368261337
-0.002144427038729191
0.0034383004531264305
-0.007824397645890713
-0.006211583036929369
0.015898674726486206
-0.01864851452410221
-0.002539905020967126
0.0031490414403378963
0.013720361515879631
-0.011170340701937675
0.009445583447813988
-0.014690578915178776
-0.006333515513688326
0.01740814931690693
0.003650638973340392
0.01048603467643261
0.0030513110104948282
-0.011547839269042015
0.008575132116675377
0.007180471438914537
0.018680937588214874
0.011012190021574497
-0.004370944108814001
-0.0069231679663062096
-0.0009717013454064727
-0.0016167296562343836
-0.0003441514272708446
0.01578177511692047
0.0010743483435362577
-0.0003630275896284729
-0.00012617188622243702
-0.001972673460841179
-0.0067127118818461895
0.00835080910474062
0.0008688059169799089
0.01660199649631977
0.007127986289560795
0.004142609890550375
0.0011912917252629995
-0.007083329372107983
-0.005511743947863579
-0.006101325619965792
-0.0011277602752670646
-0.0027454437222331762
0.00453689880669117
0.0019623092375695705
-0.004666450899094343
-0.006706947926431894
0.012201493605971336
0.00798197090625763
-0.012667639181017876
-0.015090706758201122
0.0031452449038624763
0.01342554297298193
-0.005087639205157757
0.015621119178831577
0.006495141424238682
-0.013256081379950047
-0.008785035461187363
-0.00023224906180985272
-0.004300219006836414
0.0034575914032757282
-0.02408776991069317
-0.005952544044703245
-0.008166510611772537
0.0004050033167004585
-0.020567171275615692
0.0004297728883102536
0.01266181655228138
0.0011754014994949102
0.01019273977726698
-0.008930692449212074
0.0017268001101911068
-0.0010570005979388952
0.0017499508103355765
-0.0039018436800688505
-0.01392474863678217
0.004389206878840923
0.01149900071322918
-0.005698333028703928
-0.009347701445221901
-0.005641076248139143
0.008007015101611614
-0.01191296149045229
0.00650053983554244
0.009184624068439007
0.021924061700701714
-0.01183472853153944
0.016549404710531235
-0.004815432708710432
0.01828538440167904
0.01602184772491455
0.010526399128139019
0.0123705780133605
0.004908113274723291
0.00922161340713501
-0.0072111645713448524
-0.012020537629723549
0.004431820474565029
-0.018520548939704895
0.008293568156659603
0.0036231069825589657
0.017582762986421585
-0.011124508455395699
-0.0010176392970606685
0.006480232812464237
-0.0009612615103833377
0.015907883644104004
0.0016953727463260293
0.002626543864607811
0.0049550193361938
0.011175429448485374
-0.004932990297675133
0.016272297129034996
0.007139663677662611
-0.006913822144269943
0.0001428124523954466
0.004158657509833574
0.00479114381596446
-0.006818091496825218
-0.012388008646667004
0.010199092328548431
-0.010114261880517006
-0.007702844683080912
-0.01535061001777649
0.009580478072166443
-0.0006588594405911863
0.006921849679201841
-0.014646768569946289
0.00498607661575079
0.0019790749065577984
0.0007900921045802534
0.017176659777760506
0.00343703618273139
0.00976624246686697
-0.0007923407829366624
-0.0006685536936856806
-0.0028593018651008606
0.0065324739553034306
-0.003926377277821302
0.010438861325383186
0.008446832187473774
0.003632978769019246
0.00514084380120039
0.011793184094130993
0.004301386419683695
-0.0034382306039333344
0.004737337585538626
0.005894083064049482
0.001071781967766583
-0.007448471151292324
-0.015995321795344353
0.013021700084209442
0.004743512254208326
-0.0029956356156617403
-0.015574108809232712
-0.008340776897966862
0.010945573449134827
-0.0006759811076335609
0.0073449029587209225
0.012974568642675877
0.009028246626257896
0.015097894705832005
0.01262035220861435
-0.006751044187694788
-0.0030082021839916706
-0.010316608473658562
0.00035780141479335725
-0.0053049614652991295
0.02127697877585888
-0.003278082236647606
0.0011472516926005483
0.001554097980260849
0.0023206323385238647
0.0052585965022444725
0.0012421149294823408
0.00415271520614624
0.009079600684344769
-0.007028305437415838
0.012159460224211216
0.011811683885753155
0.01945134624838829
0.004429865162819624
0.01201528962701559
-0.004850002937018871
0.0006857175030745566
0.0015697006601840258
0.01585988886654377
-0.01744139939546585
-0.0041344347409904
0.0029128864407539368
0.014974093995988369
0.00436509121209383
-0.003957622684538364
0.028976768255233765
-2.9158583856769837e-05
-0.010167417116463184
-0.003672239603474736
0.00031672633485868573
0.008902058005332947
0.009784894995391369
0.015369799919426441
0.024056188762187958
0.004304785747081041
-0.010731943883001804
-0.00038949839654378593
-0.0013650801265612245
0.0027445738669484854
-0.011514957994222641
-0.0016404837369918823
0.00018351219478063285
0.009415071457624435
-0.01576368696987629
-0.002033565193414688
0.0040234592743217945
0.015270616859197617
0.0007080771028995514
0.014513659290969372
-0.0002692511770874262
-0.013797134160995483
-0.011574985459446907
-0.003116610227152705
-0.011344361118972301
-0.011715160682797432
0.01639765501022339
0.008629592135548592
0.004604104906320572
0.010246498510241508
0.004065576009452343
-0.003892675507813692
0.00966157577931881
0.015113769099116325
-0.0036758186761289835
-0.0040326849557459354
0.006275281310081482
0.002280800137668848
-0.009210585616528988
0.014981471002101898
6.913657853147015e-05
-0.004509903024882078
-0.013552181422710419
-0.0054888431914150715
-0.0011207937495782971
-0.0002934313961304724
0.002380264224484563
-0.0023909658193588257
0.0003999343025498092
-0.004900092724710703
0.02459263801574707
-0.0019433062989264727
0.000927816960029304
-0.011564018204808235
0.013234342448413372
0.0011152465594932437
-0.003316509537398815
0.012270952574908733
-0.027967063710093498
0.0063644698821008205
-0.0004050537827424705
0.006317367777228355
-0.01944856159389019
0.0057516442611813545
-0.007265301886945963
-0.004767312202602625
-0.0008523553260602057
-0.007824753411114216
0.011202430352568626
-0.0115345548838377
0.010388793423771858
-0.012475055642426014
0.005384005140513182
-0.005384497344493866
0.008120772428810596
-0.017210377380251884
0.007745278999209404
0.0016177846118807793
-0.006108857225626707
4.841641384700779e-06
-0.009200193919241428
0.003010571002960205
-0.003150979522615671
0.015745922923088074
0.003125422168523073
0.009530582465231419
0.005749999545514584
0.01243317686021328
-0.009835091419517994
-0.0038425796665251255
0.00464534992352128
0.009363004006445408
-0.010447865352034569
-0.004819643218070269
-0.014586112461984158
0.02616233006119728
0.004321276675909758
-0.002825458301231265
-0.009444459341466427
-0.006728669162839651
0.0006412370130419731
-0.005806152243167162
-0.00781687255948782
0.017227863892912865
0.01828019693493843
-6.887573817948578e-06
-0.0001148674709838815
0.0042266203090548515
0.002365361899137497
-0.003966855350881815
-0.006054406054317951
0.002849352080374956
0.00038530942401848733
0.028385959565639496
-0.01512407511472702
-0.010137355886399746
0.014938955195248127
-0.006094215903431177
0.0027344569098204374
-0.00564799178391695
-0.005673833191394806
0.011222975328564644
0.030367527157068253
0.005948590114712715
-0.007443299517035484
0.012923973612487316
-0.0061769806779921055
-0.0045645395293831825
0.018420079723000526
0.013754361309111118
-0.01344121340662241
-0.03786483034491539
0.01577199622988701
-0.011172273196280003
0.009908925741910934
-0.00599838187918067
-0.0003641767252702266
-0.0026052992325276136
-0.003403225215151906
0.01246868446469307
-0.003294616471976042
0.011420754715800285
-0.012250063009560108
-0.0032290141098201275
0.010219390504062176
-0.014132849872112274
-0.020179372280836105
-0.0015551716787740588
0.01039448194205761
0.0002591301454231143
0.008375984616577625
0.008014836348593235
0.010770395398139954
0.0005668221856467426
0.00615244684740901
0.010500934906303883
-0.009529337286949158
-0.0004122141399420798
0.011304804123938084
-0.004659086000174284
0.0012299963273108006
0.012759599834680557
-0.011673595756292343
0.019246499985456467
0.00539661617949605
-0.0039307489059865475
-0.0011014379560947418
0.010262728668749332
-0.011516351252794266
0.023075738921761513
-0.015721170231699944
0.00417537335306406
-0.011344454251229763
0.002300271764397621
-0.008875428698956966
-0.0062124524265527725
0.0033857272937893867
-0.005457455292344093
-0.015419908799231052
-0.007962130941450596
-0.003952936269342899
-0.022215990349650383
0.01859590969979763
-0.00974284764379263
-0.003056521061807871
-0.002652806229889393
-0.014841957949101925
0.0030229699332267046
-0.00941597018390894
-0.0037800041027367115
0.0021665040403604507
-0.018649917095899582
0.0021834392100572586
0.0005350631545297801
-0.018586916849017143
-0.0028514002915471792
-0.005309147294610739
0.011196536011993885
-0.014495459385216236
0.009646006859838963
0.01844068430364132
0.012359753251075745
0.0024492975790053606
-0.0056755319237709045
0.014541257172822952
0.0025609752628952265
-0.0011474761413410306
-0.002628535032272339
0.0035550459288060665
-0.0018782704137265682
-0.014050247147679329
-0.0036087105982005596
0.005277374293655157
0.009532383643090725
-0.006829496007412672
0.015801353380084038
-0.011718475259840488
0.005441167391836643
0.011861598119139671
-0.008825979195535183
-0.004805912729352713
0.0014797571348026395
0.026063231751322746
-0.00036485851160250604
0.0023643167223781347
0.005066661164164543
0.0022948579862713814
0.011573280207812786
-0.005112754181027412
-0.0036955885589122772
0.014919351786375046
0.01331461314111948
0.005939066875725985
0.0032957708463072777
0.010118749924004078
0.01163315400481224
0.00722184544429183
-0.016138846054673195
0.000816571933683008
-0.01682109758257866
0.007534526288509369
0.013480915687978268
-0.004093511495739222
-0.0057446518912911415
-0.007124673575162888
0.004618364851921797
0.0010416272561997175
0.009214360266923904
0.00364850927144289
-0.007491072174161673
-0.001234844676218927
-0.0030531713273376226
-0.011950843036174774
0.003112776903435588
0.004170367028564215
0.00961144920438528
-0.03315544128417969
0.00170841661747545
0.007735614664852619
0.019313517957925797
0.014142968691885471
-0.005109554622322321
0.0027996813878417015
-0.0037854004185646772
-0.00734685268253088
-0.009369155392050743
-0.019846975803375244
-0.00020049253362230957
0.0021044020541012287
0.013326098211109638
0.0008799218921922147
-0.0008633428369648755
-0.005361340939998627
-0.00200822320766747
0.013343595899641514
-0.00353554030880332
0.0018112092511728406
0.012619372457265854
0.01363602839410305
0.0018660466885194182
-0.00874529592692852
-0.0031178873032331467
-0.0016328669153153896
-0.0002974607632495463
0.002219002926722169
-0.005878199823200703
-0.0006512408726848662
0.0015698140487074852
0.0041978610679507256
0.014925101771950722
-0.01390757691115141
-0.001985036302357912
0.0019767177291214466
-0.0004885119269602001
-0.01696912758052349
-0.00527033070102334
-0.019168496131896973
-0.01753448136150837
0.001428453833796084
0.004405378829687834
-0.0134035749360919
0.0033673858270049095
0.002130785258486867
0.0029777868185192347
-0.001115543651394546
0.0024934050161391497
0.01375455129891634
-0.0012592172715812922
-0.006643555127084255
0.00571460509672761
0.005364799872040749
-0.008943862281739712
0.010873379185795784
0.006115420255810022
-0.009597145952284336
0.0027846992015838623
-0.012469478882849216
0.006657277699559927
0.02490805648267269
0.0013909153640270233
-0.0013610617024824023
-0.011260269209742546
-0.001105031231418252
0.0009628050611354411
-0.009067590348422527
0.0061637782491743565
0.009761959314346313
0.0056245834566652775
5.564862658502534e-05
0.0075472514145076275
-0.011627099476754665
-0.0033907084725797176
-0.008706680499017239
0.0009661891963332891
0.0038446311373263597
-0.0019985055550932884
0.00832334067672491
0.010090863332152367
0.006897443439811468
-0.009033451788127422
0.004987252410501242
0.006281293462961912
0.010840889066457748
0.0119764544069767
0.002857788698747754
-0.004890976008027792
-0.008478858508169651
-0.002487841062247753
0.0015574009157717228
-0.0040657734498381615
-0.025975996628403664
-0.0025259547401219606
-0.009329739026725292
-0.005383368115872145
-0.01652706041932106
0.0018366527510806918
0.017657743766903877
-0.009523589164018631
0.012684200890362263
0.006981386803090572
0.013146353885531425
0.009251264855265617
0.009143134579062462
0.00918462686240673
-0.009295708499848843
-0.010021639056503773
-0.0033100012224167585
0.02102532982826233
1.2483211321523413e-05
-0.003428632626309991
0.0012943980982527137
-0.010507466271519661
-0.013804244808852673
0.0007310525979846716
-0.0028683440759778023
0.015149111859500408
0.0030946668703109026
-9.366653830511495e-05
-0.007180945482105017
0.01444820873439312
-0.011789817363023758
0.005020516458898783
0.011902239173650742
0.0004057620244566351
0.018076201900839806
0.005716415587812662
0.012564903125166893
0.009927577339112759
-0.008139481768012047
0.0032968982122838497
-0.013542956672608852
0.004781751427799463
-0.003992850426584482
-0.01437972392886877
-0.01497956644743681
-0.012599613517522812
-0.013018427416682243
0.013278953731060028
-0.018257897347211838
-0.010106350295245647
0.014218717813491821
0.01877664402127266
0.00536202359944582
0.01615252159535885
-0.0009604430524632335
-0.009570187889039516
0.006774147506803274
-0.0060404157266020775
0.016892708837985992
0.027066821232438087
-0.0016147834248840809
-0.002372111426666379
0.0007304720929823816
0.007129411678761244
-0.008109505288302898
0.004321128595620394
0.0004773133550770581
0.005134493578225374
0.0001296520058531314
0.00614694831892848
-0.004053729586303234
0.017519159242510796
0.01299500185996294
0.011672105640172958
-0.0071660601533949375
-0.0018030726350843906
-0.00798648502677679
0.007240885868668556
0.009066510014235973
-0.006286513060331345
0.014177735894918442
-0.016611119732260704
-0.00218595121987164
-0.010112459771335125
-0.003783325431868434
0.011562897823750973
0.003857507137581706
0.002537097781896591
0.01119869202375412
0.00101937516592443
0.007913801819086075
-0.007658590096980333
-0.0025097131729125977
-0.007092095445841551
0.004652024246752262
-0.0059983269311487675
-0.002232624450698495
-0.0012544967466965318
0.011514986865222454
0.009484397247433662
0.010946325026452541
0.0049974797293543816
0.001297354232519865
-0.0021999701857566833
0.02123956009745598
-0.004818151704967022
0.008274877443909645
-0.0005815382464788854
-0.0012866377364844084
-0.010432567447423935
0.024326885119080544
-0.00666548777371645
-0.0039840382523834705
0.006943671032786369
-0.0064713661558926105
0.00422657560557127
0.0011575351236388087
-0.012924394570291042
0.0012720964150503278
0.011125576682388783
-0.0011709025129675865
-0.007603565696626902
-0.0034992662258446217
-0.013799520209431648
0.005664379335939884
0.007189115043729544
0.005726346746087074
-0.005314674228429794
0.0074939364567399025
0.013767710886895657
-5.766640356341668e-07
0.0005858569056726992
-0.005727402400225401
-0.006837591528892517
-0.013126500882208347
0.0037391281221061945
-0.007418541703373194
0.0039463043212890625
-0.0035888482816517353
-0.0030123486649245024
-0.015750329941511154
-0.010393057949841022
-0.009326502680778503
0.010349023155868053
-0.026721235364675522
-0.007746711373329163
0.005026838276535273
-0.0031624336261302233
0.012174014933407307
0.013354361057281494
0.0031393992248922586
-0.013749225996434689
-0.015700343996286392
0.015563437715172768
-0.010055767372250557
-0.004047908820211887
-0.00540078803896904
0.009751702658832073
-0.012771285139024258
0.014766176231205463
0.003709904383867979
0.003718339605256915
0.003894986119121313
0.0016562329838052392
0.0028198363725095987
-0.007836535573005676
-0.004491007886826992
-0.03372179716825485
-0.017352210357785225
-0.0033478057011961937
-0.0039037226233631372
2.742964898061473e-05
-0.009474637918174267
0.003061102470383048
-0.0036876488011330366
-0.0034630517475306988
-0.008112202398478985
-0.018848001956939697
-0.0061317021027207375
0.0031900086905807257
-0.014998878352344036
-0.008545906282961369
0.00023263934417627752
0.001677767257206142
-0.00877311173826456
0.004888501483947039
0.015113981440663338
0.0014531492488458753
0.0045554921962320805
-0.021789614111185074
0.017634956166148186
0.016040682792663574
0.002768013160675764
-0.0017492321785539389
-0.0065774512477219105
-0.0042108274064958096
0.019787924364209175
-0.0018236892065033317
-0.010169876739382744
-0.009377979673445225
0.0028458780143409967
-0.0088829156011343
0.002914901589974761
0.0007763071334920824
-0.01506772916764021
-0.0037221212405711412
0.021132834255695343
0.009877155534923077
-0.003688306314870715
-0.00896560400724411
0.00046517368173226714
-0.014004338532686234
0.006397371180355549
0.008886492811143398
0.010510420426726341
-0.005483272485435009
-0.0029584963340312243
0.012265946716070175
0.003727117320522666
0.00017737032612785697
-0.013257449492812157
-0.002911156974732876
-0.0016969646094366908
-0.010591039434075356
-0.004451087210327387
0.024369746446609497
0.01161949336528778
0.019310355186462402
-0.0184573233127594
-0.010402780957520008
0.019428443163633347
-0.011393245309591293
-0.007458250503987074
0.011685226112604141
0.011733392253518105
-0.0031583448871970177
-0.010826511308550835
0.003990075085312128
-0.015429329127073288
-0.009956964291632175
0.00145633053034544
0.007786255795508623
0.005471034441143274
-0.009717644192278385
0.0003453113022260368
0.004899611230939627
0.0033950565848499537
-0.00423194607719779
0.003730121534317732
0.0015017924597486854
0.006395235657691956
-0.004029181785881519
0.008193577639758587
-0.007407514378428459
0.00417392048984766
-0.009510464034974575
-0.0015791048062965274
0.0007890237611718476
-0.009834323078393936
0.003335607470944524
-0.015833348035812378
-0.008348511531949043
0.009411506354808807
-0.01092067826539278
0.00779713923111558
-0.004304611589759588
0.005380438640713692
0.03693282604217529
0.0036319654900580645
0.0003176216268911958
0.002948877401649952
-0.008058118633925915
0.0017136771930381656
-0.015993846580386162
-0.012440696358680725
0.012762194499373436
-0.013311328366398811
-0.005507351830601692
0.0211353600025177
-0.0138590382412076
0.005148441065102816
0.006258280947804451
-0.01246001198887825
-0.018406176939606667
0.0017118350369855762
-0.011179089546203613
0.003713442711159587
-0.026253841817378998
0.011758056469261646
0.0040532867424190044
0.0007883227663114667
0.01312173530459404
-0.009968657046556473
0.008552506566047668
-0.0055543649941682816
-0.009806366637349129
0.014623469673097134
-0.0031629472505301237
0.006898646708577871
0.007547915913164616
-0.000740731367841363
-0.0005096313543617725
0.008903215639293194
0.013518944382667542
0.013506718911230564
0.0035937463399022818
0.002107038861140609
-0.020623471587896347
-0.012385568581521511
0.0011154751991853118
-0.0047479234635829926
-0.0018313205800950527
-0.0020621283911168575
-0.009068398736417294
0.016299186274409294
-0.0005037767696194351
0.022410353645682335
0.008456100709736347
0.0050454349257051945
-0.005250084213912487
0.004067789297550917
-0.006348214112222195
-0.013299303129315376
0.011239643208682537
-0.010393152944743633
0.0059427968226373196
-0.025344230234622955
0.007435061037540436
0.005787393543869257
0.006862133741378784
0.004111418500542641
-0.008067809045314789
-0.0012931820238009095
0.0008479212992824614
0.005979293957352638
-0.005797654390335083
0.01602107286453247
0.026523303240537643
0.010488546453416348
-0.004837333224713802
-0.002130962908267975
0.005064251832664013
-0.01819354109466076
-0.008095973171293736
-0.006915738340467215
-0.012875374406576157
0.006438431795686483
0.010767444968223572
-0.014849403873085976
0.0010927739785984159
-0.012389350682497025
-0.0018831425113603473
-0.004552521742880344
0.008375449106097221
-0.00274186534807086
-0.0023924761917442083
-0.01188216544687748
-0.013611510396003723
0.010038326494395733
0.008911757729947567
0.016173694282770157
0.002723665675148368
0.0020165052264928818
-0.015686385333538055
-0.008306123316287994
-0.020026009529829025
-0.011138600297272205
0.003744018031284213
0.013055045157670975
-0.012733832001686096
0.01368758175522089
0.008858931250870228
0.008522456511855125
0.023693963885307312
-0.0057825855910778046
-0.014351721853017807
-0.004086481407284737
-0.006256265100091696
0.0020032261963933706
0.00473826052621007
-0.019261708483099937
0.002474024426192045
0.009091212414205074
0.006602574605494738
-0.013281738385558128
-0.01614171639084816
-0.012615028768777847
0.009621857665479183
0.01388197485357523
0.001148591167293489
-0.011331490240991116
0.006299399770796299
0.030213093385100365
0.006820067763328552
0.004283187445253134
0.005543904844671488
-0.0048930710181593895
-0.02253071963787079
-0.007919232361018658
-0.012707995250821114
-0.008377385325729847
0.002686514984816313
0.002910050330683589
-0.003632140113040805
-0.006119185592979193
0.009928056038916111
0.0060585117898881435
-0.013735312037169933
-0.00939860101789236
0.013898559845983982
-0.007473863661289215
0.0020111436024308205
-0.02277134545147419
0.004595540463924408
0.0055235205218195915
-0.005377302877604961
-0.0029038405045866966
-0.009055866859853268
0.0036355385091155767
-0.003380820620805025
0.0015516041312366724
-0.006145188584923744
0.008894041180610657
-0.016508910804986954
5.163981404621154e-05
-0.009218149818480015
-0.00039190988172776997
-0.0037289320025593042
-0.003938053734600544
-0.008307550102472305
0.0032082621473819017
0.012129402719438076
0.000843683781567961
-0.018684562295675278
0.013571756891906261
0.0030857520177960396
-0.0032475253101438284
0.0030745554249733686
0.0031523576471954584
0.0035120248794555664
0.0010811551474034786
-0.015089597553014755
0.006392313167452812
-0.022142911329865456
0.01650928519666195
-0.0033269114792346954
0.0042117564007639885
-0.004729830659925938
-0.002151216147467494
0.01305451150983572
-0.010095108300447464
0.013771463185548782
0.01440640538930893
-0.0007945637917146087
0.004499147646129131
0.008470840752124786
0.0017540858825668693
-0.013989735394716263
-0.019984092563390732
-0.001824325998313725
-0.034519072622060776
0.003927646670490503
-0.011547022499144077
-0.014643601141870022
0.011352003552019596
0.0014185506151989102
-0.005307478830218315
0.018446480855345726
-0.00910594779998064
-0.008707649074494839
0.003813781077042222
-0.009446877986192703
0.009428572840988636
0.020179729908704758
0.004710435401648283
-0.01623011939227581
-0.009852332063019276
0.0030461701098829508
0.006054018624126911
0.0014909745659679174
0.011989139020442963
0.006109910551458597
0.0061074974946677685
0.001899687573313713
0.00939570926129818
-0.005059300921857357
0.012857561931014061
-0.02133972756564617
0.0014743298524990678
0.0047959694638848305
-0.021321987733244896
0.0028612276073545218
0.0028647154103964567
-0.0029692130628973246
-0.0024962499737739563
0.0062030586414039135
0.012456601485610008
0.014310577884316444
0.006813519634306431
0.012637962587177753
-0.006409243680536747
0.0033639627508819103
-0.00130989751778543
0.00025077874306589365
0.007885395549237728
0.0014970029005780816
-0.010398435406386852
0.010778053663671017
0.011295869015157223
-0.0008842169190756977
0.008783528581261635
-0.001132333418354392
0.010724153369665146
1.4523527170240413e-05
0.0033298912458121777
-0.009026763029396534
-0.006887807510793209
0.013574941083788872
0.015152963809669018
0.003916390240192413
-0.013276681303977966
-0.0007970127044245601
0.016857098788022995
0.011442105285823345
0.007687365636229515
-0.0016909728292375803
-0.01944848708808422
-0.011115403845906258
-0.0020570976193994284
0.022878507152199745
-0.01114833913743496
-0.005765252746641636
0.00449666241183877
-0.0007296378607861698
0.016952015459537506
-0.005962568800896406
0.0015588870737701654
-0.0032284369226545095
0.02487168461084366
0.011618496850132942
-0.004101634956896305
0.010938318446278572
-0.0008903223206289113
0.004030893556773663
-0.012234246358275414
0.00590143958106637
-0.014066445641219616
0.00792264100164175
-0.010571315884590149
0.0003901347517967224
-0.007147783413529396
-0.0077958498150110245
0.01302589662373066
-0.008588369935750961
-0.006150293163955212
0.005823146551847458
0.0018908197525888681
0.005517262499779463
0.00020583409059327096
-0.020559033378958702
0.014498945325613022
-0.004240532871335745
0.018095189705491066
-0.0064188274554908276
-0.001286289538256824
0.005396738648414612
-0.014063037000596523
0.016308393329381943
0.0005792608135379851
-0.004838037304580212
-0.0009580021724104881
0.0036078989505767822
0.0018143915804103017
0.0009178459295071661
-0.00202559819445014
0.015710486099123955
0.004647982306778431
0.009219936095178127
0.009274142794311047
-0.004497650545090437
0.002905106171965599
-0.0010210451437160373
0.004466149490326643
0.004191553685814142
0.00017429632134735584
0.010339049622416496
-0.0181327685713768
-0.00019012924167327583
0.004464913159608841
-0.005228304769843817
0.00768762081861496
-0.014934577979147434
0.0011054078349843621
-0.0006782248383387923
0.018890980631113052
-0.012366986833512783
0.003102655755355954
-0.00870350282639265
-0.004895225167274475
-0.012336608953773975
-0.009940809570252895
0.00016975769540295005
-0.005801951978355646
0.007410965394228697
0.006787127815186977
-0.0012918361462652683
0.00999157503247261
0.0035527243744581938
-0.00434492202475667
0.013706364668905735
0.016793042421340942
0.006678460631519556
-0.012183267623186111
0.009412774816155434
-0.007414258550852537
-0.005255719181150198
-0.005236001685261726
-0.008733193390071392
-0.009279672056436539
-0.0057271444238722324
-0.011470838449895382
0.020444191992282867
0.0009683874086476862
0.0014439859660342336
-0.0002257736341562122
0.001284189522266388
-0.0002872034383472055
0.010407580062747002
-0.005955726373940706
-0.010467990301549435
-0.003193843876942992
0.007300932426005602
-0.004592453595250845
-0.00010593794286251068
0.015678957104682922
0.011468236334621906
0.032309990376234055
-0.010224316269159317
0.02199580706655979
-0.002828344702720642
0.002007991774007678
0.010492818430066109
0.0006407856126315892
0.006460923235863447
-0.014287986792623997
0.006277291104197502
0.0039274501614272594
-0.017893493175506592
0.00999602023512125
0.0057527488097548485
0.010521753691136837
0.012176892720162868
-0.001825545565225184
0.0034241261892020702
-0.016942040994763374
0.017560500651597977
0.00721483351662755
-0.01726125366985798
0.010648434050381184
-0.0014901375398039818
0.004921279847621918
0.0006298375083133578
-0.0005075734225101769
0.015683310106396675
-0.017505953088402748
-0.01597200147807598
0.002950863214209676
0.01830722577869892
0.004315161146223545
-0.0023522188421338797
0.004370118957012892
-0.00036327241105027497
0.010967652313411236
-0.01427039597183466
0.0051782564260065556
-0.007985973730683327
-0.0063431765884160995
0.006681540049612522
-0.0007211971096694469
0.011849945411086082
0.006438219454139471
-0.00019508243713062257
0.00769832544028759
-0.011359386146068573
0.0027500067371875048
0.0030107060447335243
-0.016612570732831955
-8.918701496440917e-05
0.012689224444329739
0.001750001683831215
0.000409651460358873
-0.0031617479398846626
0.009537112899124622
-0.004027665592730045
0.020724406465888023
-0.006349232047796249
0.006415452808141708
0.0183052159845829
-0.0023918922524899244
-0.009658170863986015
0.014601388946175575
-0.007974048145115376
0.0006309978780336678
-0.006265061907470226
6.792927160859108e-05
-0.0031329579651355743
-0.01977294683456421
0.01044356357306242
0.0028482209891080856
-0.008944638073444366
-0.0008657214348204434
-0.011220713146030903
-0.011300651356577873
0.004889043979346752
0.004218159709125757
-0.0026560393162071705
0.0038090276066213846
0.012348473072052002
0.0002781654184218496
0.010281911119818687
0.0018887835321947932
-0.0037190711591392756
-0.012159598991274834
-0.005798913072794676
-0.01265162043273449
0.0005736711318604648
0.002045451197773218
0.011418197304010391
0.0035202850122004747
-0.014633391983807087
0.005782062187790871
0.009792406111955643
0.017608141526579857
-0.0051689231768250465
-0.0019133210880681872
-0.005417846143245697
0.004140025470405817
-0.0003150251868646592
-0.0007445653900504112
0.012240535579621792
-0.01614702306687832
-0.00012072721438016742
0.015014070086181164
0.0004276434483472258
0.012163585051894188
0.0019408194348216057
-0.013654302805662155
0.004470737650990486
-0.0012487928615882993
-0.0015730472514405847
-2.9013917810516432e-05
0.010016062296926975
0.004705039784312248
0.01576307788491249
-0.006390020251274109
-0.002970897825434804
-0.0014683535555377603
-0.007664191070944071
-0.01220805011689663
0.0016382188769057393
0.0008184422622434795
0.003895736765116453
-0.0013132914900779724
0.0068206158466637135
0.006960137281566858
-0.0036948181223124266
0.0005792517913505435
0.00018077270942740142
-0.0066860029473900795
0.010908464901149273
-0.0030431284103542566
-0.0033047604374587536
0.005420615430921316
0.0020553821232169867
0.015562398359179497
0.0016626965953037143
-0.00221624574624002
0.0061730253510177135
-0.003803923027589917
-0.00473939161747694
0.005334701854735613
0.01633315533399582
-0.00028416115674190223
0.011634844355285168
-0.010304523631930351
-0.0016280985437333584
0.005606940481811762
-0.0023202288430184126
-0.011431570164859295
0.002030937233939767
0.011704804375767708
0.00015424164303112775
-0.0012792303459718823
-0.006811485160142183
0.0033330682199448347
-0.0016127820126712322
7.64449214329943e-05
-0.014040893875062466
-0.0005770954885520041
0.005822757724672556
-0.011349123902618885
0.017878711223602295
-0.014002809301018715
-0.007109508384019136
-0.0038564656861126423
0.012829278595745564
0.0001938951900228858
-0.0073371510952711105
0.007926980033516884
0.012337404303252697
-0.016195209696888924
0.0004778722650371492
0.0028502061031758785
0.018919283524155617
0.0038331453688442707
-0.0031621630769222975
0.0003049460065085441
0.005985066294670105
0.004666435997933149
0.0005664232303388417
0.0072163427248597145
0.018710017204284668
0.015901247039437294
-0.005592476576566696
-0.005972735118120909
-0.01581515185534954
-0.0013137073256075382
0.002554600825533271
-0.0032756514847278595
0.03370156139135361
0.0234723761677742
0.014027106575667858
-0.004001961555331945
0.007045026868581772
-0.0009144720388576388
0.004784190095961094
0.015444403514266014
-0.0005017250077798963
0.0026919490192085505
-0.017942650243639946
-0.012508146464824677
0.003977461252361536
-0.0008854097686707973
-0.020212385803461075
-0.02980363927781582
0.010168313980102539
0.011619463562965393
0.017397062852978706
0.004551157355308533
-0.021721864119172096
0.0012054652906954288
0.004759925417602062
-0.0021940579172223806
-0.01875884458422661
-0.009302526712417603
-0.0026199081912636757
-0.0029610723722726107
-0.013949071057140827
0.019969960674643517
0.012825451791286469
0.011970235034823418
0.024669626727700233
-0.0042963470332324505
0.0033368906006217003
0.004714596550911665
-0.003167243441566825
-0.01138800848275423
-0.00011375384201528504
0.002556414809077978
-0.006051771342754364
-0.0022009536623954773
-0.0063631609082221985
0.001200447091832757
-0.0018797655357047915
0.011329167522490025
-0.006356663070619106
-0.0005380264483392239
0.0025424736086279154
0.0040458193980157375
0.015690049156546593
-0.01071961596608162
-0.0013933494919911027
0.015069927088916302
-0.007949684746563435
0.0016496889293193817
0.013635258190333843
-0.00017620617290958762
0.015723666176199913
-0.004495071712881327
-0.017291730269789696
0.005677591543644667
0.003312000771984458
-0.007029595784842968
0.0032955328933894634
0.007343405392020941
-0.01151144690811634
0.00712781073525548
-0.002885847818106413
0.021911943331360817
-0.0010690888157114387
0.008176758885383606
0.007330035790801048
0.0059003750793635845
-0.008125423453748226
-0.005537732038646936
-0.007365058641880751
-0.0104784881696105
-0.011239354498684406
-0.015450559556484222
0.0028059857431799173
0.0039291963912546635
-0.005885155871510506
-0.005900018848478794
0.0006340515683405101
0.01392348948866129
0.01309848390519619
0.002175947418436408
0.015043801628053188
-0.0014017191715538502
0.0006519707385450602
0.010957500897347927
-0.0021408500615507364
-0.0062617044895887375
0.008676477707922459
0.017025070264935493
0.008341471664607525
0.0217055082321167
0.005839368794113398
0.008421076461672783
0.00598705280572176
0.005281965248286724
-0.008108544163405895
-0.004934328608214855
-0.006619259715080261
-0.001197432866320014
-0.0032521223183721304
0.007238592486828566
0.013392665423452854
-0.013641421683132648
-0.004762451164424419
-0.008217732422053814
-0.00886455550789833
-0.0022363364696502686
-0.013060685247182846
-0.022786060348153114
-0.015621628612279892
-0.011923973448574543
0.005372330546379089
-0.010102554224431515
-0.0024927081540226936
-0.004688797052949667
0.008529935963451862
-0.0025665888097137213
-0.0009578444878570735
0.0013407304650172591
-0.0070626321248710155
-0.004211315419524908
-0.0007355926791206002
0.010130531154572964
0.017440523952245712
-0.005253160372376442
0.01581590622663498
-0.02012925036251545
0.012698820792138577
0.0013659741962328553
0.030653394758701324
0.0056171356700360775
-0.013360369019210339
0.004431150387972593
0.0020455631893128157
0.002376642543822527
-0.017197487875819206
-0.008009129203855991
-0.007055557798594236
-0.005630550906062126
-0.001951060607098043
-0.011901223100721836
-1.0968340575345792e-05
-0.009247759357094765
0.011066640727221966
0.009557804092764854
0.01879366859793663
0.006119458936154842
-0.003982120659202337
-0.016142239794135094
-0.015123373828828335
-0.0008621941087767482
-0.0006543982890434563
-0.01893276907503605
0.02874036505818367
-0.02710614539682865
-0.007709599565714598
-0.011955578811466694
0.009037650190293789
0.025198442861437798
-0.007186415139585733
0.00939077790826559
0.002962188096717
0.0021276455372571945
0.0016952300211414695
-0.007158843334764242
-0.0041324603371322155
0.00019886989321094006
-0.00022101166541688144
-0.0003282614634372294
0.005700454581528902
0.0042219446040689945
0.013019259087741375
0.0007590739405713975
-0.01030717696994543
0.010493463836610317
-0.01235615462064743
-0.003996181767433882
0.00981777161359787
0.004159563686698675
0.01329637411981821
0.0045133051462471485
0.011275604367256165
0.0015792982885614038
0.0030566114000976086
0.0040190680883824825
-0.011948714032769203
0.019358625635504723
0.021406913176178932
0.0031517946626991034
0.001112108351662755
-0.025251738727092743
-0.0020839388016611338
0.011258772574365139
-0.00862472876906395
0.007296425756067038
0.0009503266774117947
0.005601464305073023
-0.01433878019452095
0.007386593613773584
-0.005132598336786032
-0.001032440923154354
0.012854405678808689
-0.001982533372938633
-0.0026439556386321783
-0.0075975689105689526
-0.00047913851449266076
-0.01997416652739048
0.007903430610895157
0.009007387794554234
-0.01735074631869793
0.0031859809532761574
-0.01139680203050375
-0.0026956789661198854
-0.0037539394106715918
-0.0034158965572714806
-0.0008408222929574549
0.005488446913659573
-0.010049102827906609
0.004029249306768179
0.008622064255177975
0.0006174258887767792
-0.0012867888435721397
-0.002457123715430498
0.006836188491433859
0.005203666165471077
0.0039098020642995834
-0.0036563777830451727
0.0037461640313267708
-0.029689688235521317
-0.012090845964848995
-0.005596572533249855
-0.00643426226451993
-0.019776877015829086
0.003942830953747034
0.008771391585469246
-0.016870690509676933
-0.011513663455843925
0.015034954994916916
0.001202477840706706
-0.012761274352669716
0.002449591178447008
-0.001350998878479004
-0.0010541622759774327
-0.012380056083202362
-0.0036341622471809387
-0.00933349970728159
0.006897701881825924
-0.008314146660268307
-0.008747009560465813
-0.007115670945495367
0.0055642700754106045
0.007104071322828531
-0.004636785481125116
0.00013163591211196035
0.0077653503976762295
0.018789071589708328
-0.009754818864166737
-0.0141594922170043
0.008557446300983429
-0.011627959087491035
-0.012190449051558971
0.02533651702105999
0.018480714410543442
0.0007658835384063423
0.00543108768761158
-0.0015548805240541697
-0.007636834401637316
-0.012405273504555225
-0.006432405672967434
-0.009851113893091679
-0.012672646902501583
-0.011907999403774738
0.004887719638645649
-0.010738048702478409
0.003818969940766692
-0.000261526060057804
0.022964442148804665
0.00107937166467309
-0.006346366833895445
-0.007266984321177006
0.007346270140260458
-0.01032260898500681
-0.006366311106830835
-0.01271140668541193
-0.013602607883512974
0.00442905630916357
-0.004643680527806282
0.01747257634997368
-0.002809729892760515
0.011252760887145996
0.012021692469716072
-0.005932459142059088
-0.002462023636326194
-0.0051124184392392635
0.009733474813401699
0.0100514255464077
0.00468127615749836
-0.01669975183904171
0.0038354219868779182
0.00972405169159174
0.0039382451213896275
0.013115832582116127
0.02387346513569355
-0.007999506779015064
-0.00608827406540513
-0.003104445757344365
-0.0023975172080099583
-0.017447415739297867
-0.002112027257680893
-0.012156588025391102
0.0051975068636238575
0.011824771761894226
0.006920775398612022
-0.0021416645031422377
-0.012490703724324703
-0.005773598328232765
0.02141164429485798
-0.006083386950194836
-0.005818624515086412
-0.0023477263748645782
0.010312509723007679
-0.016846144571900368
-0.004250824451446533
-0.0028768377378582954
-0.005199086386710405
0.0032127946615219116
-0.0021831949707120657
0.002419366966933012
-0.004160342272371054
-0.005714323837310076
-0.005748795345425606
-0.005178323481231928
0.0014417825732380152
-0.027654418721795082
0.01851586438715458
-0.011260698549449444
0.013876558281481266
0.019052114337682724
0.0006123962230049074
0.005140514113008976
-0.020174607634544373
0.005882991012185812
0.0067442539148032665
0.003962129354476929
-0.0044219233095645905
0.005095092114061117
0.011300629936158657
0.00220295088365674
-0.0035627384204417467
0.0067808981984853745
0.0035441953223198652
-0.009747222065925598
-0.022468097507953644
-0.018463874235749245
0.015229064039885998
0.005892687942832708
-0.01822776533663273
0.006689511239528656
-0.008261829614639282
0.0008425053092651069
-0.006516880355775356
-0.0025341243017464876
0.005079612601548433
0.0011916299117729068
0.007894494570791721
-0.004332419019192457
-0.00038936513010412455
0.014430336654186249
0.013205950148403645
-0.015119567513465881
0.00412837415933609
0.006503982003778219
0.00906640850007534
-0.0008913442143239081
-0.019432323053479195
-0.00016044652147684246
-0.001549254171550274
-0.010221329517662525
0.016157682985067368
0.011940130032598972
0.01861042156815529
-0.00784398429095745
0.0035691808443516493
-0.014833595603704453
-0.006897209212183952
0.013868089765310287
-0.01195615530014038
0.013531636446714401
0.017493633553385735
-0.007850280031561852
0.006947177462279797
0.010710103437304497
0.009584147483110428
-3.579285476007499e-05
0.0003738360828720033
0.009931391105055809
0.003545084735378623
0.0006434723036363721
0.008941889740526676
-0.007166420575231314
0.003920803312212229
-0.008071891032159328
0.002312233205884695
0.0003570171829778701
0.010180845856666565
0.0011566608445718884
0.010329320095479488
0.01597626693546772
0.0012603611685335636
-0.0006788179744035006
0.010465065017342567
0.007775752805173397
0.0021926218178123236
0.004797507543116808
-0.012605201452970505
-0.009151527658104897
0.006974870804697275
-0.004981501493602991
0.008682707324624062
-0.004023788031190634
-0.009363253600895405
-0.005165368318557739
0.000156791225890629
-0.001256288611330092
-0.005489184521138668
0.010019449517130852
-0.013425164856016636
-0.005681557580828667
0.003947490826249123
0.007536874618381262
0.0026782816275954247
-0.0004708353371825069
0.012927703559398651
0.002456884365528822
-0.000600937579292804
0.004983786027878523
0.0028637044597417116
-0.01627800613641739
0.005396455526351929
0.0011056957300752401
0.008410586975514889
0.012811590917408466
-0.024485135450959206
0.0052514332346618176
0.0003975756117142737
0.0010562852257862687
-0.012890217825770378
0.010904810391366482
-0.00555406091734767
-0.004992205183953047
-0.015098531730473042
0.023682450875639915
0.011703104712069035
-0.0033462061546742916
0.006867871154099703
-0.01705046184360981
0.0025353601668030024
-0.006630408111959696
0.005379664245992899
0.017326585948467255
0.011653556488454342
-0.0035961729008704424
-0.004749018233269453
0.022395553067326546
0.005881268996745348
-0.0027190803084522486
-0.01043862197548151
-0.00489434041082859
-0.001808283617720008
-0.017310213297605515
-0.006447320803999901
-0.005225959699600935
-0.0059060463681817055
-0.0018842493882402778
0.007818757556378841
0.013261066749691963
-0.006519088987261057
-0.013172987848520279
0.004824120085686445
0.01085043977946043
-0.019222727045416832
0.027413899078965187
-0.012740817852318287
-0.008530674502253532
0.0069211130030453205
0.01404951885342598
0.0010114115430042148
-0.0065360222943127155
0.006908062379807234
-0.0006882610614411533
0.0013559559592977166
0.002053640317171812
-0.004611956886947155
0.0043708826415240765
0.024482712149620056
0.004605668596923351
0.004085706081241369
-0.02717204950749874
0.0031790381763130426
0.0009282958344556391
-0.006647665984928608
0.008597667329013348
0.009886781685054302
0.01464436948299408
0.0017326261149719357
-0.0224861241877079
-0.014144961722195148
0.009984481148421764
-0.03179335221648216
0.003905955236405134
-0.012241671793162823
-0.007017889991402626
-0.012784487567842007
-0.0034710438922047615
0.0019177519716322422
-0.019644221290946007
-0.002160806441679597
0.004865054041147232
-0.00921813677996397
0.007862286642193794
-0.014413676224648952
-0.01251254789531231
0.0021804377902299166
0.001784442807547748
-0.005414537154138088
0.003022650955244899
-0.00806677620857954
0.01365754660218954
0.0037641178350895643
0.013097529299557209
-0.0036977322306483984
0.010666304267942905
-0.002787923440337181
0.00788684468716383
-0.02087324485182762
-0.0014880463713780046
-0.0021514990366995335
-0.002855359809473157
-0.026893123984336853
-0.022174544632434845
-0.010864151641726494
0.0009581941994838417
0.011632384732365608
0.006941613275557756
0.018629292026162148
-0.0011607416672632098
0.005523356143385172
-0.0052942270413041115
-0.004524964839220047
0.014153980650007725
-0.0003184500674251467
0.0032376509625464678
-0.003193462733179331
-0.011567601934075356
0.016729893162846565
0.019161134958267212
-0.011867528781294823
-0.013951708562672138
0.01569734700024128
0.00810212455689907
0.00690742302685976
-0.0021029256749898195
-0.00034967795363627374
-0.0156706552952528
-0.005753096658736467
0.01666831038892269
-0.010921276174485683
-0.012465409934520721
-0.008091805502772331
-0.002402188489213586
-0.011810511350631714
0.019677409902215004
0.00305137038230896
0.007481507956981659
0.021071135997772217
0.005789516493678093
-0.007477609906345606
-0.00459052249789238
0.004232263658195734
-0.015180724672973156
0.0016802438767626882
0.000798670866061002
-0.003594715613871813
-0.00669015571475029
0.005600186996161938
-0.0015803457936272025
0.0033339778892695904
0.009008711203932762
-0.006868286523967981
-0.0015541078755632043
-0.019448837265372276
0.0024868410546332598
0.01576640084385872
-0.005750227253884077
0.0068929619155824184
-0.0027762344107031822
-0.006171529646962881
-0.011318339966237545
-0.013988275080919266
-0.005025905091315508
-0.0060186260379850864
-0.013513008132576942
0.013466515578329563
-0.0009168709511868656
-0.006989274639636278
-0.01054459810256958
-0.00036192432162351906
0.01101323589682579
-0.01336039137095213
-0.008499663323163986
0.01660902239382267
0.0018990759272128344
0.009579954668879509
0.008547114208340645
0.009284591302275658
-0.003888597944751382
0.015141415409743786
0.005570890381932259
0.012144982814788818
-0.012423478066921234
0.0017738881288096309
0.008326004259288311
-0.004551407415419817
0.007151027210056782
0.007302271667867899
-0.004262546077370644
0.006535547319799662
-0.013357470743358135
-0.016626782715320587
-0.005358717869967222
-0.0035309744998812675
0.01025361381471157
0.007672416511923075
-0.0051819640211761
-0.012325908988714218
0.0030438676476478577
0.00050615199143067
0.018229151144623756
0.017898429185152054
-0.0037048866506665945
0.0015635144663974643
0.0039893025532364845
-0.009769686497747898
-0.007467345800250769
0.014045428484678268
-0.01098049245774746
-0.012181160971522331
-0.00932417530566454
-0.024405064061284065
0.012997993268072605
-0.0011704915668815374
-0.016430025920271873
-0.0028081508353352547
0.006719717290252447
0.007982870563864708
0.013061856850981712
-0.002476994413882494
0.004801476374268532
-0.02387969009578228
0.002447981620207429
0.01434999331831932
-0.021477501839399338
0.0162479430437088
0.0008197680581361055
-0.010781515389680862
-0.01919219270348549
0.012784451246261597
0.0043801069259643555
0.0024384099524468184
-0.011762449517846107
-0.0005102003342472017
0.0005178510909900069
-0.01880289427936077
-0.0014770212583243847
0.01945536583662033
-0.01077062077820301
0.013422646559774876
-0.008875487372279167
0.010014777071774006
0.002813396044075489
-0.004129317123442888
-0.009381790645420551
-0.0003172531141899526
0.009994849562644958
0.017158333212137222
-0.004139864817261696
0.008932477794587612
0.021951036527752876
0.001220480538904667
0.005321239121258259
0.004278970416635275
-0.0024110879749059677
-0.019541295245289803
0.010045012459158897
-0.0026754981372505426
0.005598730873316526
-0.0037429833319038153
0.006943534594029188
0.0005780042847618461
0.007535297889262438
0.015153421089053154
-0.01729629561305046
-0.028243467211723328
0.002822581445798278
-0.00857133511453867
0.009550695307552814
0.009203780442476273
0.003759964369237423
-0.0027378792874515057
-0.009013643488287926
-0.0045133535750210285
0.016966290771961212
0.0054237754084169865
-0.01802755519747734
-0.009012196213006973
0.0035494498442858458
0.009298481047153473
0.0010243323631584644
-0.012056684121489525
-0.01155763678252697
0.004857846535742283
-0.0257856622338295
0.021278318017721176
-0.01296065654605627
-0.007276685442775488
-0.01043426152318716
0.0017887672875076532
0.00019458714814390987
-0.008974206633865833
0.004203039221465588
0.0017683242913335562
0.02066018059849739
-0.0001059229762176983
-0.012573154643177986
0.0033789509907364845
0.0035023405216634274
0.013637968339025974
0.00934252142906189
0.00492978235706687
0.007286774925887585
-0.0005307103274390101
0.02856738492846489
0.018698789179325104
0.02238665707409382
0.0006011399091221392
0.00561678409576416
0.008640291169285774
-0.0024458961561322212
-0.0010087862610816956
0.0020718553569167852
-0.006022719666361809
0.004695073701441288
-0.014515762217342854
0.002742333337664604
0.012774375267326832
0.00047486985567957163
0.0005573740927502513
-0.017569243907928467
-0.005422655027359724
-0.011238700710237026
0.00036567094502970576
-0.005303472746163607
-0.0019753212109208107
-0.0034621059894561768
0.01870281621813774
-0.025757305324077606
0.006174113601446152
-0.013592972420156002
0.018720796331763268
-0.004445347469300032
-0.005893332418054342
-0.007614511530846357
0.007603226695209742
0.009580262005329132
-0.0019916100427508354
0.01640133745968342
0.004850773606449366
0.004282142501324415
0.003413572208955884
0.005733792670071125
-0.008517195470631123
0.007474243640899658
0.009020142257213593
8.091045310720801e-05
-0.008230647072196007
0.02078239619731903
0.002529299817979336
-0.01551161240786314
0.0036220308393239975
0.011983091942965984
0.0065048751421272755
0.002397783100605011
0.0035036099143326283
0.006286825984716415
-0.004803617484867573
0.004086799453943968
0.011203182861208916
0.0036569631192833185
0.015767216682434082
0.011803321540355682
0.005942908581346273
0.011730190366506577
0.004896299447864294
-0.004663493949919939
-0.0037168790586292744
0.015959326177835464
0.002130674896761775
-0.0030649409163743258
-0.011699429713189602
0.006786796264350414
-0.0035134712234139442
-0.009210631251335144
0.004181636497378349
-0.004460614640265703
-0.009438990615308285
-0.003825007937848568
0.010618522763252258
-0.0015959443990141153
0.021823972463607788
-0.0019251987105235457
-0.016376029700040817
-0.0023991733323782682
0.004958915524184704
-0.00433369679376483
0.011485003866255283
0.0004785354249179363
0.01809178665280342
0.009163751266896725
0.005525998771190643
0.0013657108647748828
-0.010050189681351185
0.0005754962330684066
0.005764800123870373
-0.010126851499080658
0.0012446993496268988
-0.008471244014799595
-0.0005622045719064772
-0.007326888386160135
-0.004497305955737829
-0.0008973394287750125
-0.006588348187506199
-0.005766773596405983
-0.01823287084698677
-0.002448870101943612
-0.013966690748929977
0.0008780667558312416
0.007688880432397127
-0.0022900807671248913
0.005721472203731537
-0.009666378609836102
0.00830791238695383
-0.012732865288853645
0.012621845118701458
0.009333079680800438
0.009180945344269276
-0.01956956461071968
0.00507934158667922
-0.0071260277181863785
-0.006602700334042311
-0.005147580988705158
-0.010449502617120743
-0.010650278069078922
0.0013134253676980734
-0.002599859144538641
0.0029260783921927214
-0.012876293621957302
-0.004635228775441647
-0.005207282956689596
0.005235301796346903
0.004633445292711258
-0.005449568387120962
0.010936942882835865
-0.011977097950875759
0.00269940122961998
-0.02374589815735817
-0.010021766647696495
-0.008095144294202328
0.0031156667973846197
-0.003229000838473439
0.013266872614622116
-0.007629819214344025
-0.001773721887730062
-0.012309427373111248
-0.014506193809211254
0.0024503483437001705
-0.012091096490621567
0.009288964793086052
-0.013911640271544456
0.003009574022144079
-0.01059682946652174
0.0033854180946946144
-0.005958030465990305
-0.004428989719599485
0.002441460732370615
0.009284640662372112
-0.011885913088917732
-0.0027960985898971558
-0.005499116610735655
-0.02201114408671856
-0.008788242936134338
0.0026114284992218018
0.02063083089888096
0.002793508116155863
-0.021590137854218483
0.004693455528467894
-0.002150152577087283
0.009627018123865128
0.008922463282942772
0.007226860150694847
-0.009897170588374138
-0.0031117277685552835
-0.0010019529145210981
-0.013914219103753567
-0.005387228447943926
-0.013495978899300098
-0.005265789572149515
0.00293255178257823
-0.003084662603214383
0.011314764618873596
0.004060090985149145
0.00315263494849205
-0.012571054510772228
-0.0012866855831816792
0.019084716215729713
0.008702997118234634
-0.008279318921267986
0.001042985008098185
0.012503049336373806
0.01179807074368
-0.0060174185782670975
0.009741238318383694
-0.014877417124807835
0.009376363828778267
-0.013742567040026188
0.005245187319815159
0.011112090200185776
-0.003987479489296675
0.0022967837285250425
0.01654721610248089
0.020496198907494545
-0.003890239866450429
-0.007005862891674042
-0.021096743643283844
0.01042825449258089
0.003793115261942148
-0.01819440722465515
-0.004380407743155956
-0.003593508619815111
-0.0028418295551091433
0.009507421404123306
0.008737740106880665
0.003522387705743313
-0.0034710702020674944
0.0062654041685163975
0.02409975230693817
0.012142544612288475
-0.011986644938588142
0.009034916758537292
-0.005707185249775648
0.0026233552489429712
0.0009858849225565791
0.0032978649251163006
0.002746834186837077
-0.0068950834684073925
-0.00672858627513051
0.010075327940285206
0.002260250272229314
0.003775531891733408
-0.0031890671234577894
-0.008761805482208729
0.0046234531328082085
-0.006763846147805452
0.0031609353609383106
-0.001905871438793838
0.00420581316575408
-0.018872328102588654
0.016293790191411972
0.01291637122631073
0.019765404984354973
7.7233744377736e-05
-0.00130398478358984
-0.008043630979955196
0.015350023284554482
0.002232504775747657
0.008616798557341099
-0.004672364331781864
-0.00546963419765234
0.0012904383474960923
0.017398087307810783
-0.0019046925008296967
-0.009120351634919643
-0.0004770051164086908
0.025604786351323128
0.003599064191803336
0.011169521138072014
0.005944657605141401
0.0020082516130059958
-0.0002700182085391134
0.013853783719241619
-0.004325081594288349
0.005719596985727549
0.0044468906708061695
0.027261801064014435
-0.004539714194834232
-0.019367966800928116
0.010420309379696846
0.0023423561360687017
0.006170755717903376
-0.00036646908847615123
-0.01102595217525959
-0.015877673402428627
-0.00447893375530839
0.003341888077557087
-0.012859508395195007
0.008333810605108738
0.005189136136323214
-0.01284172385931015
-0.02795528993010521
-0.009822900407016277
-0.021853024140000343
0.002272765850648284
-0.017325537279248238
0.005133397877216339
0.011954918503761292
0.0102609284222126
-0.013179372996091843
0.01105849165469408
0.013171466067433357
-0.0004737012495752424
-0.016547027975320816
0.0014822512166574597
0.001135099446401
-0.003851749701425433
0.0035779541358351707
-0.00019571377197280526
-0.004485867917537689
-0.008798896335065365
0.0008529748301953077
0.008656889200210571
-0.0001094095132430084
-0.001190519193187356
0.0032126866281032562
0.0014414847828447819
0.007438124623149633
-0.020428864285349846
0.0025758135598152876
-0.007970324717462063
-0.023898279294371605
-0.009443191811442375
-0.0069184196181595325
-0.011979179456830025
0.014983628876507282
0.007839205674827099
0.0035004084929823875
-0.007686196360737085
0.002246062969788909
0.0033474552910774946
-0.010937490500509739
0.009883588179945946
0.0053772334940731525
-0.01639818213880062
-0.009441779926419258
0.015149105340242386
-0.014230038039386272
0.0038516882341355085
0.021500296890735626
-0.008089166134595871
0.005979372654110193
-0.005264417268335819
0.0002634828560985625
-0.0034967910032719374
0.01472194492816925
-0.018874946981668472
-0.008409152738749981
0.0018896990222856402
-0.0031684408895671368
-0.005470374133437872
-0.0025405711494386196
-0.004301120992749929
-0.005462728440761566
0.0015336999204009771
-0.00316065177321434
-0.0047946954146027565
-0.011481779627501965
-0.005357012618333101
-0.021805383265018463
-0.0006006924086250365
0.011387639679014683
-0.019006237387657166
-0.026191934943199158
0.004753857851028442
-0.007305991370230913
-0.0005072856438346207
0.007761771325021982
-0.020866818726062775
0.021851088851690292
0.009077968075871468
-0.00452383141964674
-0.022823385894298553
0.021827515214681625
-0.004015611484646797
-0.012726742774248123
-0.009215110912919044
0.0014948060270398855
-0.015224002301692963
0.013962222263216972
0.00690753199160099
-0.0025237631052732468
-0.005057337693870068
0.0026030202861875296
-0.0032762493938207626
-0.006878505926579237
-0.01421891525387764
0.01959417574107647
0.021583685651421547
0.004254312254488468
0.0036792431492358446
-0.0078499186784029
0.0009567150264047086
-0.006911115720868111
-0.020578663796186447
-0.009524406865239143
0.003736427752301097
0.01061137206852436
0.00808667205274105
-0.0032456594053655863
-0.0018049293430522084
-0.01209596823900938
-0.0007614247151650488
-0.0002833479375112802
0.013562080450356007
0.0031746281310915947
-0.0025698228273540735
0.006263008341193199
-0.003928149119019508
0.0056357006542384624
0.005830814596265554
-0.007331706117838621
-0.008638909086585045
-0.009533294476568699
-0.010767186991870403
-0.006357063073664904
0.01456543616950512
0.020115187391638756
-0.003769185394048691
-0.005628620740026236
0.01287964079529047
0.016288459300994873
-0.003715681377798319
0.005514474585652351
0.0001639586698729545
-0.00271854130551219
-0.004113295581191778
0.015414941124618053
0.01833193562924862
0.0033395900391042233
-0.007050222717225552
0.00553541537374258
-0.01202478539198637
-0.001181896310299635
0.005966221448034048
0.0037078496534377337
-0.0028364944737404585
0.01308190356940031
-0.011047185398638248
-0.005831215996295214
0.008521322160959244
0.004760225769132376
-0.013233563862740993
0.0034191119484603405
0.012899201363325119
0.008300001733005047
0.0020214610267430544
-0.005902392324060202
0.0189776923507452
0.003915858455002308
0.019712213426828384
-0.007488160394132137
-0.006339753046631813
-0.0007022161735221744
0.000495818501804024
0.004074614029377699
-0.009008395485579967
0.007762701250612736
-0.016545303165912628
-5.373408566811122e-05
-0.009089739061892033
-0.0039511448703706264
0.01066681556403637
0.01726611889898777
-0.0046541765332221985
-0.008805169723927975
0.0064325532875955105
-0.00633993512019515
-0.004274456296116114
0.012780214659869671
-0.0052720638923347
0.008142717182636261
-0.01000062096863985
-0.01869231089949608
-0.006551352795213461
-0.006051312666386366
-0.0047216871753335
0.009954982437193394
-0.0009400531998835504
0.012265286408364773
0.004994930699467659
0.004629825241863728
-0.00935753807425499
-0.004600814078003168
0.0049210465513169765
-0.014830349013209343
-0.019022133201360703
-0.0023639164865016937
0.009492279961705208
-0.0015336821088567376
-0.008467460982501507
0.004679450299590826
-0.010611608624458313
0.003826885251328349
0.012588392943143845
0.0027609546668827534
-0.0060311877168715
0.009478394873440266
-0.012632046826183796
-0.014249211177229881
0.0032910602167248726
-0.02630128525197506
-0.0007533205207437277
-0.011004692874848843
-0.005762382410466671
0.014961166307330132
-0.011275927536189556
-0.014286494813859463
-0.017402948811650276
0.004269645549356937
0.0012450669892132282
-2.7156551368534565e-05
-0.0015856347745284438
-0.011889432556927204
0.018675489351153374
0.02088455855846405
0.006682227831333876
-0.003438246436417103
0.013276633806526661
-0.005934820510447025
-0.007068661507219076
-0.013093804940581322
-9.654661698732525e-05
0.006124892272055149
0.00239773141220212
0.005582334939390421
0.010387837886810303
-0.0011938312090933323
0.00016877887537702918
0.009612923488020897
0.001973331905901432
-0.004970872309058905
-0.0007600412354804575
-0.009278729557991028
-0.0007229620823636651
-0.008827375248074532
-0.0034393491223454475
0.005431680008769035
0.0005171888624317944
0.011839545331895351
-0.000822580826934427
0.012780742719769478
0.005868639796972275
0.007765315473079681
-0.013250821270048618
0.01698475517332554
-0.01724337972700596
0.004148941952735186
0.02117040380835533
0.0021318888757377863
-0.041448917239904404
0.0006964630447328091
-0.00394596578553319
0.005791375879198313
-0.0023612119257450104
0.001841936493292451
0.002537440275773406
0.029920432716608047
-0.0006011201767250896
0.00459101889282465
-0.01105110626667738
0.0054261391051113605
0.0009138815803453326
-0.002658294280990958
-0.0018478009151294827
-0.008836571127176285
-0.012177999131381512
-0.01677897572517395
-0.017408480867743492
-0.005212290212512016
-0.009672213345766068
0.002843390451744199
0.024245483800768852
0.015458262525498867
-0.007443814538419247
0.026341799646615982
-0.008413788862526417
-0.00378525722771883
-0.002935486612841487
-0.011145305819809437
-0.00512993149459362
-0.013088256120681763
-0.0197390578687191
0.0028610327281057835
0.006598088424652815
-0.006448501721024513
0.0011645136401057243
-0.01949545554816723
0.0016137214843183756
0.00463530607521534
0.007780699525028467
-0.00587122468277812
-0.0017859938088804483
-0.0034339369740337133
-0.006865350529551506
0.0063788569532334805
0.0032088160514831543
-0.00779516389593482
-0.003035124856978655
-0.009819785133004189
0.0010406150249764323
-0.002409090520814061
0.0040475851856172085
0.011423836462199688
-0.00401258235797286
0.009491952136158943
0.013847453519701958
-0.002255215309560299
0.004710399080067873
0.002675823401659727
0.004620708525180817
0.00010007217497332022
0.0023918997030705214
0.006609688978642225
-0.02454894781112671
-0.004171562381088734
0.004932198207825422
0.0059885671362280846
0.010783382691442966
-0.008914750069379807
0.0008738124743103981
0.0007326414925046265
0.013003691099584103
0.0011320284102112055
0.0037229289300739765
-0.0001289136562263593
0.021766116842627525
-0.0048983655869960785
-0.004022353328764439
-0.0017088297754526138
0.007904299534857273
-0.007483689580112696
-0.003933010157197714
0.0003530984395183623
-0.003976027015596628
0.01859634555876255
0.008254576474428177
0.0018970563542097807
-0.005310373846441507
-0.006503656506538391
-0.021459192037582397
0.007652810774743557
-0.008883362635970116
-0.027092739939689636
0.0032889663707464933
0.0008820829098112881
-0.020492084324359894
-0.009688150137662888
-0.006082895677536726
0.0002318728220416233
-0.01680801995098591
-0.015816757455468178
-0.0008593270904384553
0.009179971180856228
0.008970240131020546
-0.006860846187919378
-0.015661878511309624
-0.0032778573222458363
0.001800161087885499
-0.007481878623366356
-0.0019873958081007004
-0.0010615604696795344
0.010216948576271534
0.004635747987776995
0.007782036438584328
-0.008186220191419125
0.01077310275286436
-0.009300008416175842
-0.0036199702881276608
0.01036913599818945
-0.016288140788674355
0.010746000334620476
-0.010142335668206215
-0.011074773035943508
-0.002923717023804784
0.003950479906052351
-0.003594306530430913
-0.009222704917192459
0.0015416081296280026
0.008315417915582657
-0.014646045863628387
0.012933140620589256
0.0030757745262235403
-0.010229114443063736
0.007395023480057716
0.00300583872012794
-0.0069639673456549644
0.011787855066359043
0.002040172228589654
-0.006868770346045494
0.004396399948745966
0.011495907790958881
-0.009549510665237904
-0.0028783322777599096
-0.00962738785892725
0.0035578906536102295
0.0005019651143811643
0.00587081303820014
0.001391495461575687
0.011037155985832214
0.0027157547883689404
0.0116394879296422
0.010223625227808952
0.008423606865108013
-0.014928363263607025
0.0010687886970117688
0.01290290430188179
-0.0037326239980757236
-0.0005074854125268757
-0.0030334442853927612
0.015063788741827011
-0.0038839594926685095
-0.0034551986027508974
-0.0010438434546813369
-0.009082925505936146
-0.001183598069474101
-0.008227434009313583
0.008987915702164173
0.001612972468137741
0.012725102715194225
-0.015304737724363804
0.009868016466498375
-0.0023273001424968243
0.013474338687956333
-0.006216334644705057
-0.022006455808877945
-0.0011637387797236443
0.006863385904580355
0.0042961458675563335
0.022041499614715576
-0.005670530721545219
-0.006151698064059019
-0.0041626328602433205
-0.022241439670324326
0.003323598997667432
0.004452910274267197
-0.00493263965472579
0.004359574988484383
0.0014783883234485984
0.021198924630880356
-0.012555991299450397
0.010291483253240585
-0.02025359310209751
-0.003940771799534559
0.004997746087610722
0.005781129002571106
0.008961045183241367
0.002496568253263831
-0.002943067578598857
-0.016616277396678925
-0.014833561144769192
-0.01092579960823059
-0.005375741049647331
0.0035010715946555138
0.02495489828288555
-0.009734779596328735
0.00893331691622734
0.004066514316946268
-0.011221770197153091
-0.0101011972874403
0.006466966588050127
-0.010522529482841492
-0.005302237346768379
0.01946081593632698
-0.013279135338962078
0.022012237459421158
-0.01721981354057789
0.00856063887476921
0.00028120505157858133
0.008475081995129585
0.010431751608848572
-0.013665761798620224
-0.0007453890866599977
0.0025839917361736298
0.005846385844051838
-0.008428532630205154
-0.007315186318010092
0.006073871161788702
0.014665382914245129
0.015000909566879272
-0.002840518020093441
0.0032830005511641502
0.00433239946141839
0.01031145453453064
-0.004223942756652832
-0.00517126452177763
0.003889090148732066
0.004131691064685583
0.007467000279575586
0.0029273086693137884
-0.009994461201131344
-0.0025333589874207973
0.008307745680212975
0.006959020160138607
-0.004276226740330458
-0.005432309582829475
0.002149959560483694
0.0007908964180387557
-0.0018353847553953528
0.0021582990884780884
0.009688695892691612
0.005967083387076855
0.0023478155490010977
-0.001585193444043398
-0.0006419757846742868
-0.008733415976166725
-0.0042699044570326805
-0.015405386686325073
-0.0006530771497637033
0.009130638092756271
-0.005457844585180283
0.0051881722174584866
-0.008217137306928635
-0.00242770672775805
-0.012480957433581352
-0.013658557087182999
-0.004954088479280472
0.0009300143574364483
0.013666072860360146
-0.008244622498750687
0.009766957722604275
-0.009247928857803345
-0.01292329654097557
0.0067511252127587795
0.002694687806069851
0.011066540144383907
-0.006700592581182718
0.005361772608011961
-0.0038663034792989492
-0.004309502430260181
0.020055823028087616
0.006943996530026197
0.0001983885740628466
0.018049005419015884
0.004667812027037144
0.0017866553971543908
-0.004097083583474159
0.005337053444236517
0.007711692713201046
-0.02088947966694832
-0.009135134518146515
-0.013129659928381443
0.003448577132076025
-0.010852345265448093
0.0026683402247726917
0.009213319979608059
0.0009845102904364467
-0.004307664930820465
-0.008621358312666416
-0.0078091975301504135
-0.00740363635122776
0.00429016537964344
0.003962885122746229
0.002506192773580551
0.005610700696706772
-0.011927997693419456
0.004108956549316645
-0.01651023142039776
-0.003367093624547124
-0.0046178740449249744
0.00037202201201580465
-0.005152547731995583
-0.010113372467458248
-0.006665665190666914
0.005942067597061396
-0.012362941168248653
-0.008732542395591736
0.014164431020617485
0.019366024062037468
0.0001548472500871867
-0.003662342671304941
-0.01146046631038189
0.0021666770335286856
0.0046877325512468815
-0.004801838658750057
-0.004177143331617117
-0.008958439342677593
-6.0565587773453444e-05
-0.00887968484312296
-0.005461901426315308
0.004621082916855812
-0.013373257592320442
-0.008503969758749008
0.00819663517177105
0.0002201073948526755
-0.007069200277328491
0.005802663508802652
-0.011972199194133282
0.0003444311732891947
0.004140859004110098
-0.009197793900966644
-0.0004809326201211661
0.007150318007916212
-0.000447547878138721
-0.010616723448038101
0.0008261867915280163
0.022484689950942993
-0.0009946728823706508
0.0020120840054005384
0.0006507369107566774
0.0022242639679461718
-0.004081347957253456
0.013649318367242813
0.004401689860969782
-0.007137108128517866
0.005104795563966036
-0.015854425728321075
-0.0090980539098382
0.005582998041063547
-0.0032211048528552055
-0.021254515275359154
-0.01511591486632824
-0.004425472114235163
-0.010635790415108204
0.0030835731886327267
-0.002161572454497218
-0.0034983318764716387
-0.008026563562452793
0.011281006969511509
0.017960377037525177
-0.013822590000927448
-0.011903849430382252
0.0018949705408886075
-0.002843942493200302
-0.007394460961222649
-0.0023243373725563288
-0.022285345941781998
-0.00912174116820097
0.018179532140493393
-0.0014228631043806672
0.010816512629389763
0.001220474485307932
0.0005075407098047435
-0.015348176471889019
-0.006310443859547377
0.00653380062431097
0.013140185736119747
0.007786690257489681
0.010783341713249683
-0.009688091464340687
0.011892001144587994
-0.00788105372339487
-0.0009192939032800496
0.005111686885356903
0.0049204700626432896
0.010924420319497585
0.0022450590040534735
-0.0053626480512320995
0.002890634583309293
0.002247578464448452
0.0027963202446699142
0.00985971000045538
0.006060681771486998
0.01484510488808155
0.003519251476973295
-0.01578511856496334
-0.010247932747006416
-0.0036139062140136957
-0.012308544479310513
0.025868112221360207
-0.0011350041022524238
-0.01845860667526722
0.0031161627266556025
-0.0010900329798460007
0.022963494062423706
-0.018442554399371147
-0.004696703050285578
-0.004893627017736435
-0.001802674145437777
0.013479932211339474
0.002531643258407712
-0.002165077021345496
0.0038242777809500694
-0.0010766687337309122
0.001393348560668528
-0.0017412315355613828
-0.00217543076723814
-0.010121503844857216
-0.010202514007687569
-0.010729853995144367
0.011455167084932327
0.020502636209130287
0.016038263216614723
0.017656108364462852
0.018970021978020668
0.0013767278287559748
0.0013756416738033295
-0.0016762177692726254
0.018251627683639526
0.0066485353745520115
0.007089261431246996
-0.005471768323332071
0.008352579548954964
-0.032463040202856064
-0.009971032850444317
-0.0036133304238319397
0.003889781190082431
-0.015925653278827667
-0.0020224216859787703
-0.005635516718029976
-0.0003814170486293733
0.00663282023742795
-0.004805847071111202
-0.006315087899565697
-0.0026263436302542686
-0.007615793962031603
0.021343719214200974
0.008061408996582031
0.003823990235105157
0.006883048918098211
0.002568857278674841
0.020496880635619164
0.005763750057667494
0.00599950784817338
0.008138805627822876
-0.005524731241166592
0.006237218156456947
-0.0022332214284688234
0.019399167969822884
-0.0061637032777071
-0.004821083042770624
0.0026237296406179667
-0.004229333251714706
0.007537500467151403
-0.006191307678818703
0.011595940217375755
0.0073145064525306225
-0.008565876632928848
0.002592856762930751
-0.010229885578155518
-0.007188897114247084
0.0013774484395980835
-0.0069143567234277725
0.01719835214316845
0.01260263193398714
0.004002586007118225
-0.0019520459463819861
-0.0008122706785798073
0.003241322236135602
-0.003791691269725561
-0.008766678161919117
0.012309837155044079
0.004215441178530455
-0.0025113194715231657
-0.005784989334642887
-0.0019251789199188352
-0.00764488847926259
-0.005292528308928013
-0.01961822621524334
-0.000563599169254303
0.01764804869890213
-0.0016159159131348133
-0.007983486168086529
-0.003928157966583967
-0.0266193225979805
0.00040856964187696576
0.008698656223714352
0.006685658358037472
-0.00804077461361885
0.0038143384736031294
0.007379590533673763
-0.00909449066966772
0.010176085866987705
0.015323635190725327
-0.019180625677108765
0.008113987743854523
-0.009761951863765717
-0.00041358559974469244
0.01186757255345583
0.0038304945919662714
0.007864149287343025
0.004605861380696297
0.0036712002474814653
-0.0038021255750209093
-0.009185796603560448
-0.0027523692697286606
0.003071705112233758
0.0070251100696623325
0.0016216040821745992
-0.012816935777664185
-0.008338701911270618
-0.005674596410244703
0.006902188993990421
0.009579875506460667
0.005378325004130602
0.00022265447478275746
0.0005441938992589712
-0.0004701534053310752
0.004050258547067642
0.023356620222330093
0.00028244612622074783
0.030407985672354698
0.0032436763867735863
0.004463574383407831
-0.0096116429194808
-0.01886054314672947
-0.001965629169717431
-0.0014962657587602735
0.002580541418865323
0.0074759190902113914
0.002323208609595895
-0.008682423271238804
-0.0029144713189452887
-0.01684550940990448
0.02291109226644039
-0.0045754071325063705
0.001391699886880815
0.005885484628379345
0.0037295164074748755
-0.006647626403719187
-0.00303735607303679
-0.0022735048551112413
0.005143864080309868
0.026044722646474838
0.007494475692510605
0.015138758346438408
0.017216557636857033
-0.005526559893041849
-0.008369609713554382
0.003726562252268195
0.02024865336716175
-0.019124630838632584
0.0059912060387432575
-0.018495691940188408
0.0028435601852834225
-0.0065858084708452225
-0.007247965782880783
0.015455161221325397
0.013686130754649639
0.0023055896162986755
0.0017436647322028875
-0.01568632200360298
-0.01222376711666584
-0.006978789810091257
-0.01224084384739399
-0.007322388235479593
0.006165713537484407
-8.52632219903171e-05
0.00047542841639369726
-0.001082083210349083
-0.002576663391664624
0.012543981894850731
-0.01432195957750082
-0.011048402637243271
0.0036235915031284094
0.013297921977937222
-0.008313808590173721
0.012452500872313976
0.0058196429163217545
0.0026747509837150574
0.006104599218815565
0.004512311890721321
0.007624226622283459
-0.002779884496703744
-0.006133393384516239
-0.010453800670802593
0.012230819091200829
-0.0018849826883524656
-0.005526517517864704
0.005534658208489418
-0.01043267548084259
0.011658570729196072
-0.0018223000224679708
-0.007400762755423784
-0.004376674070954323
0.005102603230625391
-0.020017320290207863
0.0021689843852072954
0.010467027314007282
-0.010003293864428997
-0.015197389759123325
0.0101796705275774
0.005022600293159485
-0.007677162066102028
0.00495928293094039
0.020051872357726097
0.002627776237204671
-0.01711350306868553
0.004405798390507698
-0.000876324309501797
0.0021309673320502043
-0.014093546196818352
-0.010231835767626762
0.01108654122799635
-0.0003832158399745822
-0.007327840197831392
-0.01643545553088188
0.0034754672087728977
-0.014614387415349483
0.006357139907777309
0.011598575860261917
0.0027534374967217445
-0.02153029665350914
-0.007111592683941126
0.006717083975672722
0.01541026122868061
-0.01744513213634491
0.013808133080601692
0.010085673071444035
0.007675824221223593
-0.007206355221569538
-0.0061163646169006824
-0.008567439392209053
0.007159295026212931
0.010706208646297455
-0.0059994361363351345
-0.010403353720903397
-0.00842776894569397
0.009134287014603615
0.0018292947206646204
-0.0036560255102813244
-0.006938820239156485
0.015524419024586678
-0.007182964589446783
0.002870158525183797
-0.015447931364178658
-0.0037156865000724792
0.003845680970698595
-0.0020163420122116804
-0.014977890066802502
0.01014423742890358
0.01829691044986248
-0.013095653615891933
0.0062072621658444405
0.015608550980687141
-0.014662310481071472
0.0029648239724338055
-0.004808134399354458
0.0102335000410676
0.004316310863941908
0.027595996856689453
0.004977629519999027
-0.0005431491299532354
0.0018721793312579393
0.0033070172648876905
0.0025442081969231367
-0.023336874321103096
0.005270628724247217
0.0030330398585647345
-0.0036858890671283007
0.018766408786177635
0.0028908990789204836
0.002367777982726693
0.003173006698489189
0.014443621039390564
-0.019480764865875244
0.020644089207053185
-0.007999511435627937
-0.012668618932366371
-0.006611996795982122
0.006858516950160265
0.0015630600973963737
-0.0263659730553627
0.0011217723367735744
0.003409232944250107
0.0014940788969397545
0.008854815736413002
-0.002412351779639721
-0.00957800168544054
0.01758577860891819
-0.014738504774868488
0.008045690134167671
0.010671357624232769
0.011646837927401066
0.001009067171253264
0.006768437568098307
-0.012406580150127411
0.00836789608001709
0.007931356318295002
-0.002738343318924308
-0.0009375475347042084
0.006094422657042742
-0.0032932632602751255
-0.0011169244535267353
-0.006180461496114731
-0.009680451825261116
-0.023839009925723076
0.00468703918159008
-0.012010485865175724
-0.00022517178149428219
0.00945155881345272
-0.010864187963306904
-0.004301126580685377
0.002397686243057251
0.016466602683067322
0.0005707790842279792
-0.0033181393519043922
0.00576989958062768
0.01792898215353489
-0.01126041729003191
0.013948976993560791
0.0054702856577932835
0.016203438863158226
0.0012991414405405521
0.003537094220519066
-0.0056606316938996315
0.00029414292657747865
-0.004024861380457878
0.008269338868558407
-0.005390527192503214
0.00304659572429955
0.016400299966335297
-0.00022997762425802648
-0.010120978578925133
0.02102743089199066
0.005783713888376951
-0.003478679805994034
-0.007237515412271023
-0.002520434558391571
-0.00035875182948075235
0.01654384471476078
-0.00297304498963058
0.012655703350901604
0.019072391092777252
0.005092102102935314
0.014789934270083904
-0.006406615022569895
-0.012331260368227959
0.0006591778947040439
-0.0009619937627576292
0.006101461127400398
0.004853683523833752
0.0030379914678633213
0.0068814572878181934
-0.005928926169872284
0.012791181914508343
0.0018447834299877286
-0.0060736751183867455
0.0023733291309326887
0.016815021634101868
-0.004418455064296722
-0.016830669716000557
-0.01491862814873457
0.002841726876795292
0.003179000224918127
-0.006639641243964434
-0.0047272006049752235
0.008459090255200863
-0.009976275265216827
-0.0028513462748378515
0.01973583921790123
-0.007026191800832748
-0.009735766798257828
0.001570305204950273
-0.005867986939847469
0.012486591935157776
-0.005638347007334232
-0.012450137175619602
-0.00520356185734272
0.0014240980381146073
-0.00747794471681118
-0.0021897386759519577
-0.0067556193098425865
0.0025687876623123884
-0.005148747004568577
0.009809847921133041
0.0029806115198880434
0.0023896924685686827
0.016329677775502205
-0.0003217710764147341
0.008587977848947048
-0.0033432799391448498
0.00815296545624733
-0.005003836005926132
-0.013048982247710228
-0.008206366561353207
0.0016104452079162002
-0.0112984674051404
0.005604657810181379
-0.013305260799825191
-0.01680826209485531
-0.006971367634832859
-0.007087390404194593
0.010237903334200382
0.01940462552011013
-0.006765828002244234
-0.0005589983775280416
-0.006969773210585117
-0.01704787090420723
0.005850845482200384
-0.006328625604510307
-0.006644747219979763
-0.01630999520421028
-0.0038865741807967424
0.007212937343865633
-0.014334812760353088
0.008196311071515083
-0.003874565474689007
0.00035712175304070115
0.002897683996707201
-0.003275611437857151
0.009287584573030472
-0.015181628055870533
0.007925714366137981
-0.005293908528983593
0.0005783249507658184
-0.009250584989786148
-0.005716661456972361
0.01825437694787979
-0.012098835781216621
-0.01410693023353815
-0.011824537999927998
-0.007660940755158663
-0.0012174490839242935
-0.0046232822351157665
-0.009384389035403728
-0.006118708290159702
-0.007065893150866032
-0.0031585481483489275
-0.001600983552634716
-0.008656873367726803
0.007631304208189249
-0.011370925232768059
-0.005993622820824385
0.0032015321776270866
0.012560619041323662
0.0027288170531392097
-0.005784925073385239
0.00126375921536237
0.010587526485323906
0.00037986558163538575
0.00288863736204803
0.006443338468670845
0.000806389725767076
0.008706808090209961
-0.014790596440434456
0.0012601864291355014
-0.009378524497151375
-0.011037330143153667
0.011748436838388443
0.02029040828347206
-0.0050924126990139484
0.007901901379227638
-0.014031986705958843
0.007563210092484951
-0.013197725638747215
-0.00684034638106823
-0.015227541327476501
-0.013728473335504532
-0.0018584943609312177
-0.008271453902125359
-0.015667235478758812
-0.020861737430095673
0.010262093506753445
0.0012729782611131668
0.011084208264946938
0.0044981250539422035
0.026276418939232826
-0.021926840767264366
-0.0032923053950071335
-0.006265610922127962
-0.0031547422986477613
0.007031043525785208
0.01161875855177641
-0.0028430845122784376
0.013848868198692799
-0.0008519915863871574
0.008588099852204323
0.0029331103432923555
-0.005372478626668453
0.0009606484090909362
0.009598382748663425
0.0008218056755140424
-0.0027875094674527645
-0.003880252130329609
-0.01998956687748432
0.0185705553740263
0.0018959655426442623
0.002372946124523878
0.008833635598421097
-0.01851659081876278
0.00047946861013770103
0.002500615082681179
-0.00025056215235963464
-7.801091851433739e-05
-0.0070646838285028934
-0.0064909146167337894
0.011363637633621693
-0.007641711737960577
-0.005957167129963636
-0.003934086300432682
0.0013980125077068806
-0.012811952270567417
-0.012126666493713856
0.0003995510342065245
0.006901777349412441
-0.005377193447202444
-0.008049177005887032
-0.0005383829120546579
-0.008367033675312996
-0.005638292990624905
0.00428539514541626
-0.006801101379096508
-0.009447501040995121
0.015081978403031826
-0.0028869169764220715
0.0012675613397732377
-0.012402085587382317
-0.003334063570946455
0.01671781949698925
-0.0028270429465919733
0.0010079381754621863
-0.0053871613927185535
0.00018178953905589879
-0.004865883383899927
0.0068124402314424515
0.01745736598968506
-0.009221305139362812
0.0016284756129607558
0.007271154318004847
-0.00504694040864706
0.011992374435067177
-0.0012925545452162623
0.008564122952520847
0.0038094492629170418
-0.0006150571280159056
0.01547201443463564
0.012534743174910545
0.008982070721685886
-0.004128612577915192
0.0008060605032369494
0.017637815326452255
0.006284297443926334
0.0003108276578132063
0.0019032617565244436
-0.0003522691549733281
-0.01387101598083973
-0.005188809707760811
-0.012971925549209118
0.005003961734473705
0.0033209749963134527
-0.013119282200932503
-0.011114560067653656
0.005651446990668774
-0.019219189882278442
-0.00537828216329217
-0.0081813158467412
0.004039315041154623
0.0016499025514349341
0.00844158697873354
0.017853479832410812
-0.01692616380751133
-0.00971971359103918
-0.007862590253353119
-0.010397729463875294
-0.007264966610819101
-0.006913942750543356
-0.006203704513609409
-0.004854710306972265
0.0006743632256984711
0.006569898687303066
0.017483768984675407
-0.004419487901031971
0.021499712020158768
0.012034809216856956
-0.0001182331470772624
-0.0026357886381447315
0.010888010263442993
-0.006204973440617323
0.005721830762922764
0.002629329916089773
-0.011800323612987995
0.020803118124604225
0.006674232892692089
0.01423433143645525
-0.006900827866047621
0.009889815002679825
0.018633978441357613
-0.012000271119177341
-0.018050143495202065
-0.016709938645362854
0.002819682704284787
-0.01045367494225502
-0.0008449077140539885
0.008924096822738647
-0.004567790776491165
0.0051110065542161465
0.014025802724063396
0.002103885868564248
-0.009311658330261707
-0.0050458163022994995
0.009548759087920189
-0.008527703583240509
-0.009745242074131966
0.00794976856559515
-0.002960236044600606
0.0009876606054604053
-0.004799404181540012
0.004187275655567646
0.004975166171789169
0.0024011649657040834
0.004817572422325611
-0.0007747457711957395
-0.006374634336680174
0.019194521009922028
0.0020718213636428118
0.00849881861358881
-0.01621299795806408
0.0022895820438861847
0.0008709604735486209
0.0020249993540346622
2.6098130547325127e-05
-0.0011633391259238124
0.004281005822122097
0.023747136816382408
0.00345971854403615
0.004499777220189571
-0.002160567557439208
0.0006970012909732759
-0.015545914880931377
0.0014677239814773202
-0.006820917595177889
-0.0006328317103907466
-0.010337600484490395
-0.0018563367193564773
-0.0009354571811854839
-0.007169083692133427
0.007351635955274105
-0.004787360783666372
0.010529521852731705
-0.00811679009348154
-0.010213242843747139
-0.0024037333205342293
0.009411459788680077
-0.011602637358009815
0.016601618379354477
-0.00398127268999815
-0.0013096608454361558
-0.013579918071627617
0.002801510039716959
-0.00828853901475668
-0.009527328424155712
0.013501937501132488
-0.004926598630845547
-0.010070046409964561
-0.01774006150662899
0.015174513682723045
0.0010260947747156024
0.009803364984691143
-0.007442822679877281
-0.007437197491526604
0.00511320261284709
-0.008949238806962967
-0.00643310509622097
-0.011627922765910625
0.0010883321519941092
-0.010786648839712143
0.016111526638269424
-0.006038500461727381
0.019262036308646202
0.01189560629427433
0.0029639326967298985
-0.023031165823340416
-0.005507458932697773
0.010339451022446156
0.0008906073635444045
-0.012261251918971539
0.008344586007297039
-0.003186928341165185
-0.008896415121853352
-0.007411927916109562
0.014190866611897945
-0.012794521637260914
0.0028483103960752487
0.006378468591719866
-0.0032285144552588463
0.015147826634347439
-0.0005096416571177542
-0.0005340988282114267
-0.0158739872276783
0.0007363741169683635
-0.008638790808618069
-0.0013148419093340635
-0.0016556543996557593
-0.0008334910962730646
0.005364913027733564
-0.005694243125617504
-0.024040954187512398
-0.010015426203608513
0.012294585816562176
-0.007375864777714014
-0.006233899388462305
0.010527105070650578
-0.002675761003047228
-0.020113909617066383
0.005083796102553606
0.0019431131659075618
0.004740425385534763
-0.0077170394361019135
0.015206031501293182
0.012992668896913528
0.019938403740525246
0.010241801850497723
0.004870797973126173
0.003984198439866304
0.0012415960663929582
-0.009753492660820484
0.004915342666208744
-0.002826996613293886
0.0067979576997458935
-0.006136900279670954
0.01370924897491932
-0.0062406957149505615
-0.009918440133333206
0.013269203715026379
-0.0018243667436763644
0.009999514557421207
-0.021020984277129173
-0.006410377565771341
-0.013991281390190125
0.00870110746473074
0.025551270693540573
0.005570714827626944
0.010032836347818375
-0.010757319629192352
-0.00853762123733759
0.00802132673561573
0.00039425239083357155
-0.019513243809342384
-0.025264786556363106
0.001052545034326613
-0.002291978569701314
0.005306614562869072
0.0137567687779665
0.004560738801956177
-0.00872380193322897
-0.01020478829741478
-0.003855983028188348
-0.0004963136161677539
0.005880729295313358
0.0014225193299353123
4.633217031368986e-05
-0.0007099688518792391
-0.0076100705191493034
-0.0053452723659574986
-0.0024266440887004137
-0.003645890159532428
-0.010827276855707169
0.012315326370298862
-0.008285149931907654
0.0076805418357253075
0.008622124791145325
-0.00753765506669879
-0.0009566714870743454
-0.014558377675712109
0.0019125600811094046
0.01274463627487421
0.0008586538606323302
0.01518513634800911
-0.007365627679973841
0.011676388792693615
0.0017546018352732062
-0.012932701967656612
0.019916171208024025
-0.011912304908037186
0.015977486968040466
-0.008683523163199425
0.0059212869964540005
-0.00067455432144925
0.0046379235573112965
-0.0130862295627594
0.005595671944320202
0.0005611828528344631
0.011052476242184639
0.007712991442531347
-0.007516307756304741
-0.015615367330610752
-0.005649167113006115
0.0005691773840226233
-0.0031621125526726246
0.004541320260614157
-0.004498881287872791
-0.009550740011036396
0.006759224459528923
0.008714253082871437
-0.004195873625576496
0.004502472467720509
-0.0038392385467886925
-0.02306906133890152
0.003260725876316428
-0.0028577724006026983
0.013637884519994259
0.0028542126528918743
0.0054586478509008884
0.005696297623217106
0.0036879756953567266
-0.00430946983397007
-0.008051680400967598
0.006792258005589247
-0.013881740160286427
0.011962850578129292
-0.0020934981293976307
-0.01863844320178032
0.003196283243596554
0.00046218177885748446
0.0029190601781010628
0.012531992979347706
-0.007734974846243858
0.0024202056229114532
0.020267274230718613
-0.011648569256067276
-0.0029476131312549114
0.011004113592207432
-0.0008374771568924189
-0.0012266269186511636
0.00356678175739944
-0.006777721922844648
-0.0036647506058216095
-0.004960073623806238
-0.0074411481618881226
0.0011162973241880536
0.010838977061212063
-0.007026531733572483
-0.0034802278969436884
-0.013134355656802654
0.010126284323632717
0.006938106380403042
-0.006759170908480883
-0.007032373920083046
0.0207806508988142
0.002580314874649048
-0.0013469672994688153
0.006369630340486765
-0.00607952568680048
-0.0025108063127845526
0.02995413914322853
-0.001461676904000342
-0.004249269608408213
0.0061735170893371105
0.00366232986561954
0.0008715608273632824
0.013831254094839096
0.012606043368577957
-0.006268455181270838
-0.0016211464535444975
-0.023338064551353455
0.014646796509623528
-0.009618223644793034
-0.015884719789028168
0.009967567399144173
-0.007867020554840565
0.018734565004706383
-0.015504628419876099
-0.007898704148828983
-0.0008522327989339828
-0.013640855439007282
0.00956823118031025
-0.01660037226974964
0.004858506377786398
-0.003135125618427992
-0.0011259958846494555
0.012360342778265476
0.006149222608655691
-0.00933359656482935
-0.018970869481563568
0.009127496741712093
-0.017901893705129623
-0.012808957137167454
0.017066610977053642
0.0020150376949459314
0.005802282132208347
0.009350977838039398
-0.007673375308513641
0.0043170456774532795
-0.005277016665786505
0.02056846022605896
-0.013273402117192745
0.00868852436542511
0.002726272912696004
0.0015841416316106915
0.003622358897700906
0.01957118511199951
-0.011886725202202797
0.009894399903714657
0.000765082600992173
-0.009055103175342083
0.0017228665528818965
-0.003051375737413764
0.015378650277853012
-0.012482661753892899
0.0001282740558963269
0.01593068614602089
-0.0063579147681593895
0.0036791604943573475
-0.004809640347957611
0.00862923450767994
0.006100487429648638
0.0074110752902925014
-0.0013878726167604327
0.00040731451008468866
-0.0092573007568717
-0.008419034071266651
-0.011312196962535381
0.002415124559774995
0.01913224160671234
-0.010757635347545147
0.005477347876876593
0.006974935531616211
0.0016847195802256465
0.0025487204547971487
0.013301566243171692
-0.008269470185041428
0.0015912887174636126
0.001583076431415975
-0.01202260423451662
0.000984799931757152
-0.020758936181664467
0.01206637267023325
0.015535506419837475
0.002198338508605957
-0.010798833332955837
0.0197365153580904
-0.011645312421023846
-0.0013607880100607872
-0.004909862298518419
-0.022760068997740746
0.00470493221655488
0.0031323747243732214
-0.011131856590509415
-0.005928663536906242
-8.65246602188563e-06
-0.023154662922024727
0.005459968466311693
-0.003972741309553385
-0.00437758956104517
-0.009690017439424992
0.022447561845183372
0.002314574085175991
0.012097935192286968
-0.00588321965187788
0.01764572411775589
0.011966732330620289
-0.013672986067831516
-0.014159182086586952
0.024774322286248207
-0.0039285034872591496
-0.0028646569699048996
0.007009799126535654
0.026746252551674843
-0.008186165243387222
-0.000446018239017576
0.0047297668643295765
0.013989249244332314
0.006566984113305807
-0.010131610557436943
-0.008730909787118435
-0.005473371595144272
-0.004456804133951664
0.006414235569536686
0.01586848869919777
0.001891372725367546
0.005557374097406864
0.006487531587481499
0.015595083124935627
-0.00616429140791297
0.016706615686416626
-0.008651641197502613
-0.006446909159421921
-0.007558887824416161
-0.0034398757852613926
0.0008217874565161765
0.011895240284502506
0.006706117186695337
-0.006897611077874899
0.0005557947442866862
-0.002553874859586358
0.012335804291069508
0.003065127180889249
0.0052983807399868965
0.00513856764882803
-0.01217674557119608
0.007391667924821377
0.00807767454534769
-0.0013130739098414779
0.008061212487518787
0.014379499480128288
-0.01511161308735609
-0.006119494792073965
0.0005860204691998661
-0.0028531141579151154
0.00036533415550366044
-0.015425107441842556
0.003497563535347581
-0.0056252009235322475
-0.004797241650521755
-0.018016284331679344
-0.010754348710179329
0.00164479308295995
-0.0014025017153471708
-0.003039224771782756
0.0035883912350982428
0.0027658187318593264
-0.015356022864580154
0.00731127941980958
-0.003289042739197612
0.0036990968510508537
-0.0020335062872618437
-0.0025288222823292017
0.002160929376259446
0.018625210970640182
-0.013395524583756924
0.007607912179082632
-0.011256972327828407
0.007200044114142656
0.007601954974234104
-0.00590882170945406
-0.00113306799903512
0.02945259027183056
0.011946240440011024
-0.013809907250106335
0.0008364181849174201
3.5600594856077805e-05
-0.0038271229714155197
-0.009812502190470695
-0.002190257189795375
-0.0013091471046209335
0.014011010527610779
0.0005130771896801889
0.00931570678949356
-0.00735485041514039
0.007794810459017754
-0.0024091831874102354
-0.007477726321667433
-0.010405033826828003
-0.0012488516513258219
-0.013655872084200382
-0.003434685990214348
0.0032419590279459953
1.0305448086000979e-05
0.007536077871918678
-0.007545687258243561
-0.0017090542241930962
-0.014415993355214596
-0.03120306506752968
-0.007947191596031189
0.004606752656400204
-0.0032046171836555004
-0.02446165308356285
-0.008813467808067799
-0.007556756027042866
0.002954435534775257
0.013626580126583576
-0.011671182699501514
0.020447630435228348
0.012802181765437126
-0.013695957139134407
-0.0020513227209448814
0.025381645187735558
0.005836456082761288
0.025303417816758156
-0.013528564013540745
0.013947993516921997
0.004245292861014605
0.0074556730687618256
0.006591771729290485
-0.01506701298058033
0.007450469769537449
-0.005648999474942684
0.005830400623381138
-0.001528603141196072
0.005524606443941593
0.0008726857486180961
-0.035426486283540726
0.0058965072967112064
0.010720288380980492
0.010491907596588135
-0.0017396496841683984
-0.010935962200164795
0.0025497502647340298
-0.03501492738723755
-0.008337043225765228
0.011019831523299217
-0.007210158742964268
0.000591657473705709
-0.008853971026837826
-0.009072881191968918
0.0026576060336083174
0.008138163946568966
0.008937235921621323
0.005608828738331795
-0.010828107595443726
0.019120458513498306
0.002553171943873167
0.0051686130464077
-0.003926869016140699
-0.006984194274991751
-0.0023985402658581734
0.018684232607483864
-0.002069544279947877
-0.007360263727605343
-0.014453132636845112
0.0054541099816560745
-0.002731377026066184
-0.00028137557092122734
0.008544253185391426
0.013437343761324883
0.004490102641284466
-2.7516407499206252e-05
-0.007895600982010365
0.0012133882846683264
-0.002398514188826084
0.0035959603264927864
0.0035326869692653418
0.00971168465912342
0.015996791422367096
0.0054167197085917
-0.00036840492975898087
-0.008428205735981464
0.01682516746222973
-0.021946551278233528
-0.0226492527872324
-0.006933632306754589
0.0032554834615439177
0.014665381982922554
0.018684228882193565
0.009340041317045689
-0.00422168243676424
0.012881715781986713
0.007615622598677874
-0.005913145374506712
0.0016317578265443444
-0.007839411497116089
-0.004331666510552168
0.015027999877929688
0.00911431573331356
-0.010215437971055508
-0.018132442608475685
0.004197397734969854
-0.004312299191951752
0.00598067557439208
-0.006869545206427574
-0.014475461095571518
-0.010880088433623314
-0.01290594507008791
-0.016648858785629272
0.007632361259311438
0.018775006756186485
-0.025010358542203903
0.007335363421589136
0.003862400772050023
0.013326646760106087
-0.020405253395438194
-0.010094269178807735
-0.00888723786920309
-0.01739952340722084
0.013022677972912788
0.009850265458226204
0.0034818206913769245
-0.00721856439486146
-0.015242577530443668
0.009433327242732048
0.002137905452400446
0.012445895001292229
-0.002759320894256234
0.007926453836262226
-0.017651528120040894
-0.004983449820429087
-0.009603632614016533
-0.007454369682818651
-0.008708122186362743
-0.007329316344112158
-0.03287108987569809
-0.003941980190575123
0.01341133564710617
0.002829786855727434
-0.007840920239686966
-0.005783498752862215
0.0010868991957977414
0.01570393703877926
0.006894448772072792
0.00562709616497159
-0.008124617859721184
0.0015408225590363145
0.00519405584782362
-0.0157111044973135
0.0008275051950477064
-0.004854392260313034
0.00874167587608099
0.002540878253057599
-0.019918078556656837
-0.007329379674047232
-0.01003907062113285
0.0013735588872805238
-0.010204555466771126
0.013493480160832405
-0.005078991409391165
0.0008027508738450706
-0.008053895086050034
0.0009407973266206682
0.004064104985445738
0.0038788055535405874
-0.014196682721376419
0.0008107562316581607
0.0012544821947813034
-0.002941386541351676
-0.0019879257306456566
0.012358211912214756
0.010643482208251953
-0.007548611145466566
0.002242954447865486
0.003824306884780526
0.0028551758732646704
-0.007296872790902853
-0.00736282579600811
-0.0003406120522413403
0.009891370311379433
-0.001974487444385886
0.008145700208842754
-0.002982191275805235
-0.009205383248627186
0.00037461091415025294
0.008798213675618172
-0.006237383931875229
0.0021000460255891085
0.0004374781565275043
-0.0120611060410738
-0.014378531835973263
-0.00822957418859005
0.009516189806163311
0.00934728141874075
0.0191794503480196
-0.005736794788390398
0.0014595001703128219
0.004625542555004358
0.008675328455865383
-0.009313693270087242
-0.007058450020849705
0.00677904998883605
-0.01002468727529049
-0.008645524270832539
0.005307670217007399
0.0083241518586874
-0.0029291617684066296
-0.017278127372264862
0.0026500034146010876
-0.0006129661342129111
-0.0024956194683909416
-0.004078727215528488
0.009992372244596481
0.0047131977044045925
-0.004711613990366459
0.0029087099246680737
0.01012560073286295
0.009541856124997139
-0.009369372390210629
-0.003464234061539173
-0.0017090230248868465
-0.0007015552255325019
0.010859249159693718
-0.004415774717926979
-0.0007549613364972174
0.002702507423236966
-0.013859359547495842
-0.01205237116664648
0.0020960450638085604
-0.002754014916718006
0.005647097714245319
-0.016411732882261276
0.0026488276198506355
0.0020146043971180916
-0.0018912991508841515
0.010008045472204685
-0.009990541264414787
-0.0023780884221196175
-0.021595222875475883
-0.011128470301628113
-0.003904171986505389
-0.00484778918325901
-0.013625627383589745
-0.02127878926694393
0.00965801253914833
-0.01582115702331066
0.007190668489784002
0.014945818111300468
-0.002342503983527422
0.0013816981809213758
-0.023385969921946526
0.01057257130742073
0.01731264777481556
