0.03189440071582794
0.07262861728668213
-0.034158218652009964
0.058730628341436386
0.01750585250556469
0.012391883879899979
0.1023419052362442
-0.006689432542771101
0.0563603974878788
0.06601937115192413
0.02172340266406536
-0.07985100150108337
-0.11504366248846054
-0.005277630873024464
-0.006922162137925625
-0.005721215158700943
-0.013630698435008526
-0.02567194402217865
-0.08336841315031052
-0.054272543638944626
-0.028496138751506805
-0.0021428102627396584
0.004476637579500675
0.069567009806633
-0.06853551417589188
-0.11961444467306137
-0.044341735541820526
-0.09869959205389023
0.06400027126073837
0.0071435971185564995
-0.09439018368721008
-0.1322048455476761
0.049042750149965286
0.042881228029727936
-0.06713408976793289
0.03721082583069801
-0.08595015853643417
-0.08742327988147736
-0.03872121497988701
0.05456891655921936
0.0008763208752498031
0.05976725369691849
-0.009272764436900616
0.04300989583134651
0.08852037042379379
-0.03489247336983681
0.05535631626844406
-0.060581836849451065
0.01646273210644722
-0.03314724192023277
0.041196759790182114
-0.09649132192134857
0.07875631004571915
-0.01741621643304825
-0.08751817047595978
-0.016159944236278534
-0.018026378005743027
-0.07103560119867325
0.008962816558778286
-0.005023750010877848
-0.07023397833108902
-0.11885266751050949
0.0354161411523819
0.05749034136533737
-0.03648805245757103
0.04230882599949837
0.01877674087882042
0.011629384011030197
-0.08356700837612152
0.02631828747689724
0.06708907335996628
0.03946235775947571
-0.04002094641327858
-0.015471767634153366
-0.0374961793422699
-0.03550141677260399
0.05795680359005928
-0.01209309697151184
-0.03771457076072693
-0.00300513650290668
-0.01077329646795988
0.025511855259537697
0.007978756912052631
0.042429063469171524
0.03964696079492569
-0.0792444497346878
0.03515525534749031
-0.003179758321493864
-0.10903050750494003
0.008968804962933064
0.08953478932380676
-0.04330523684620857
0.00968664139509201
0.037460874766111374
-0.08402571082115173
-0.057852163910865784
-0.08777870237827301
0.14494124054908752
-0.042466435581445694
0.05846333131194115
-0.08380363881587982
-0.05990901216864586
-0.010571074672043324
-0.014243687503039837
0.0033448277972638607
0.0626998320221901
0.04437190666794777
-0.05225616693496704
-0.021800262853503227
-0.0005584889440797269
0.06352400779724121
0.016179615631699562
0.012178560718894005
-0.042011622339487076
0.011645961552858353
0.03090399131178856
-0.03694373741745949
-0.004125132691115141
-0.013541721738874912
-0.0244083683937788
0.025788428261876106
0.07878144830465317
0.066672682762146
-0.08087147027254105
-0.00016812408284749836
0.0251616220921278
0.002640269696712494
0.0011041273828595877
-0.06024639308452606
-0.09626013040542603
0.040713775902986526
-0.04027250036597252
0.08207624405622482
0.0860346257686615
0.0204489603638649
-0.02175883948802948
-0.023820174857974052
0.020666806027293205
0.007336970418691635
-0.018741317093372345
0.019287537783384323
0.06788390874862671
0.05942930281162262
-0.028633229434490204
-0.023578472435474396
-0.017205096781253815
-0.01728145405650139
-0.029562341049313545
0.05288991704583168
0.08062844723463058
-0.13257567584514618
-0.0005282838828861713
0.08211332559585571
0.012286133132874966
0.06886995583772659
0.04890693724155426
0.08865579962730408
-0.056869566440582275
0.017238212749361992
-0.061059609055519104
0.05520271882414818
-0.029697732999920845
0.11440209299325943
-0.0660538449883461
0.08160043507814407
0.027698613703250885
0.06118057668209076
-0.029489068314433098
-0.013412010855972767
0.051060378551483154
-0.008669699542224407
0.10607901960611343
-0.013699539937078953
-0.0785411149263382
0.04012644663453102
0.00911020115017891
0.1493627429008484
0.018308769911527634
-0.06554266065359116
0.02713851071894169
-0.006964729633182287
0.020341400057077408
0.017046842724084854
0.024589920416474342
0.05769006162881851
0.012552566826343536
-0.12183607369661331
-0.12580454349517822
0.07491791248321533
0.09513324499130249
0.026977140456438065
0.00794881209731102
0.09786389768123627
-0.0025183733087033033
0.05605841800570488
0.05181999132037163
0.03888700529932976
0.04220697283744812
-0.061675459146499634
-0.06408622860908508
-0.04180464521050453
0.02358519472181797
0.058810457587242126
-0.04051752761006355
0.03976753354072571
0.015760865062475204
0.013381962664425373
0.05372348800301552
0.06552379578351974
-0.05428791791200638
0.041424743831157684
-0.02464953437447548
-0.11422191560268402
0.02606646716594696
-0.05166138336062431
0.05537670478224754
-0.056496743112802505
0.042092591524124146
-0.07523219287395477
-0.04033342003822327
-0.03873441368341446
0.06684867292642593
-0.04376503825187683
0.0033077048137784004
0.009208916686475277
0.015904201194643974
-0.08817574381828308
0.01844271831214428
-0.02622048743069172
0.061818595975637436
-0.06393160670995712
0.055828798562288284
-0.04249989986419678
-0.0020310739055275917
-0.026429006829857826
-0.04835544526576996
-0.003974591381847858
0.04071882739663124
-0.08791075646877289
0.06332941353321075
0.04801945015788078
-0.045441579073667526
-0.09072644263505936
0.0348597913980484
0.11469161510467529
0.06587572395801544
-0.01030084677040577
-0.013518396764993668
-0.023595253005623817
-0.013202209025621414
0.026471290737390518
-0.0019456063164398074
-0.03125107288360596
0.05200935900211334
0.0026596172247081995
-0.03811700642108917
-0.10246530175209045
-0.05626969039440155
-0.03374866768717766
-0.016613386571407318
-0.04514503851532936
0.07573535293340683
0.01802227832376957
0.04158301278948784
-0.011028653010725975
-0.0486697182059288
-0.04423143342137337
0.029129762202501297
-0.0808204635977745
-0.10863494127988815
0.06492792069911957
-0.06000668928027153
-0.008351029828190804
0.06470336019992828
-0.04757259786128998
-0.014867731370031834
0.14049243927001953
-0.019674157723784447
0.04534732922911644
0.023818567395210266
-0.006354887969791889
-0.016368340700864792
-0.0766996517777443
-0.018524259328842163
0.08373025804758072
-0.09515276551246643
-0.004175492562353611
-0.014455352909862995
-0.07118666917085648
-0.060374047607183456
0.09123764932155609
0.07285585254430771
-0.004032704047858715
-0.03994385525584221
-0.013008810579776764
0.009978913702070713
-0.020842423662543297
0.019319256767630577
0.043189287185668945
0.10751823335886002
-0.11614435166120529
-0.07070307433605194
-0.0829789862036705
0.04148149490356445
-0.011526490561664104
0.010412456467747688
0.007906274870038033
0.08800994604825974
0.01900244504213333
0.053760990500450134
-0.013321506790816784
-0.0013502697693184018
-0.07267511636018753
-0.11709190905094147
-0.03390216454863548
0.027264069765806198
-0.034452132880687714
0.025191254913806915
-0.058459747582674026
-0.09762594848871231
-0.017549823969602585
0.16804298758506775
0.05193008482456207
0.03063335083425045
0.11477112770080566
-0.0013370274100452662
-0.0450303889811039
-0.017750561237335205
-0.08933910727500916
0.13153192400932312
-0.09401997923851013
-0.026044674217700958
-0.08733251690864563
-0.10259031504392624
0.0024669377598911524
0.0029075462371110916
0.024789931252598763
0.03873799368739128
0.01349711325019598
-0.021258417516946793
0.07237470895051956
0.02158125676214695
-0.019823702052235603
-0.034612804651260376
0.12975578010082245
0.005223460029810667
0.0568215511739254
0.08128203451633453
-0.05121263861656189
0.009199006482958794
0.01652435027062893
-0.11011836677789688
0.05433405563235283
-0.09254728257656097
0.11117348819971085
-0.007427495904266834
-0.04704200476408005
-0.06202681362628937
0.007686728145927191
0.010882857255637646
0.009586082771420479
-0.0056985048577189445
-0.03364460542798042
0.02916615828871727
0.00021367862063925713
0.09789473563432693
0.016956547275185585
-0.015891069546341896
0.017033502459526062
0.009522981941699982
0.015322861261665821
0.02569466456770897
0.0057213883846998215
0.061373818665742874
0.13095329701900482
0.028315486386418343
0.0023063134867697954
0.022880567237734795
0.01143752969801426
0.056315645575523376
-0.026553047820925713
0.06569699198007584
-0.0023250512313097715
-0.005565417464822531
0.05788693577051163
-0.12446201592683792
-0.008472472429275513
-0.1309751570224762
-0.030784139409661293
-0.10014400631189346
0.07536453753709793
-0.011156005784869194
0.03787776455283165
0.0817798376083374
0.07867885380983353
0.07849046587944031
0.08647404611110687
0.06828534603118896
-0.030254708603024483
-0.01151412446051836
-0.019396066665649414
0.010537748225033283
-0.022769123315811157
0.022501904517412186
0.006408360321074724
-0.02296614833176136
0.0021028032060712576
-0.0489828959107399
-0.04107784852385521
-0.028664318844676018
-0.03995705768465996
0.009995812550187111
-3.965235919167753e-06
-0.05781864374876022
-0.003284358186647296
0.06066188961267471
-0.0749392956495285
0.04113157093524933
-0.00876025389879942
0.036942511796951294
-0.04769747704267502
-0.0759815201163292
0.035386811941862106
0.029682258144021034
-0.02607828937470913
0.030598092824220657
0.06852038949728012
-0.0030566344503313303
0.08501758426427841
-0.053831569850444794
0.09933867305517197
0.06482629477977753
-0.03519536927342415
0.04346390813589096
0.010484729893505573
0.09597496688365936
-0.04178888723254204
0.06740054488182068
0.01522761583328247
0.03133762627840042
-0.011007636785507202
0.03417142108082771
-0.029730862006545067
-0.04698792099952698
0.07248375564813614
0.08211195468902588
0.03270251676440239
-0.05651690065860748
0.016723526641726494
-0.02776675671339035
0.07500461488962173
-0.05877355858683586
0.11251284927129745
0.08814699202775955
0.0020472141914069653
-0.014559576287865639
-0.013265513814985752
-0.030888624489307404
0.042810797691345215
0.042700763791799545
-0.004197755828499794
-0.1471722275018692
0.03818270564079285
0.09039585292339325
-0.045890528708696365
-0.029902219772338867
0.022005559876561165
-0.018961656838655472
-0.09511300176382065
-0.035175882279872894
-0.020825037732720375
0.08500396460294724
-0.04274424538016319
-0.10055743902921677
-0.04492108151316643
0.025940166786313057
0.05138469487428665
0.06006992235779762
-0.02442784421145916
-0.02366364747285843
0.009389257058501244
0.07017134875059128
0.014075166545808315
-0.0005803689709864557
-0.0412956178188324
0.006864792201668024
0.017951583489775658
0.03741474822163582
-0.028965936973690987
0.010133341886103153
0.006588413380086422
-0.12285415828227997
0.026301709935069084
0.03877504914999008
0.039903782308101654
0.09744006395339966
0.01984775811433792
-0.0020873714238405228
-0.09844526648521423
-0.09838542342185974
0.03637973591685295
0.038762591779232025
0.05256795510649681
0.04924564063549042
-0.006601808592677116
-0.062468357384204865
-0.0053014191798865795
0.050922051072120667
-0.13454873859882355
0.02588467113673687
0.07774293422698975
-0.02210218831896782
0.024448081851005554
-0.0817682296037674
0.059855688363313675
-0.07359981536865234
-0.043021176010370255
0.01204152125865221
-0.10745713859796524
-0.034897953271865845
-0.03395533561706543
0.016630247235298157
0.06953268498182297
-0.025796080008149147
-0.0010355912381783128
0.0532684326171875
0.11910664290189743
0.028715165331959724
-0.0371503122150898
-0.001550174318253994
-0.006174019072204828
-0.05881848931312561
-0.04647661745548248
0.03173818066716194
-0.016478732228279114
-0.024073004722595215
0.007329676300287247
-0.10029294341802597
-0.08361304551362991
-0.02189723402261734
-0.039861008524894714
-0.03765452280640602
-0.038911182433366776
-0.00028119064518250525
0.03989590331912041
0.0021434235386550426
0.036147646605968475
-0.050503287464380264
-0.07629608362913132
0.025664541870355606
0.04047497734427452
0.02690828964114189
0.0023208747152239084
-0.010308010503649712
0.07063741236925125
-0.029255051165819168
0.008049961179494858
0.11818886548280716
0.07343573868274689
0.03326721116900444
0.014115259051322937
-0.17392350733280182
-0.08064080774784088
0.08519425988197327
0.01089929137378931
-0.033131808042526245
0.013304535299539566
0.02226240001618862
-0.10346958786249161
0.021797001361846924
-0.04122300073504448
-0.022789357230067253
-0.05016263574361801
0.06083689630031586
0.0062294453382492065
-0.0927351713180542
-0.05899729207158089
0.06007971987128258
-0.015736903995275497
0.05972540006041527
-0.003444573376327753
0.06361716240644455
-0.012445968575775623
0.10638570040464401
-0.032978493720293045
0.011477179825305939
-0.033913396298885345
-0.03243524208664894
-0.03280411660671234
-0.03146011382341385
0.011552086099982262
0.07452578842639923
0.03853225335478783
-0.013745631091296673
-0.06424497067928314
0.07588128745555878
0.07890036702156067
-0.008039324544370174
0.037950072437524796
-0.02960805967450142
-0.055506810545921326
0.09687995910644531
-0.03149334713816643
0.009600000455975533
0.005729821044951677
0.06948989629745483
0.06226026639342308
-0.02281251549720764
-0.039116282016038895
-0.05495237559080124
-0.08531606197357178
0.022665981203317642
0.01846405118703842
0.06694082170724869
-0.09560346603393555
0.0682867169380188
-0.08231903612613678
-0.019580766558647156
-0.008298547007143497
-0.04531329870223999
-0.06821019947528839
-0.08555203676223755
-0.009582465514540672
-0.008393485099077225
0.00397057831287384
0.0337262861430645
0.1311405897140503
-0.05960235372185707
0.006039472296833992
-0.06677714735269547
-0.1365654021501541
-0.02999354526400566
-0.012462884187698364
-0.036652643233537674
-0.011042477563023567
-0.061612214893102646
-0.16385960578918457
0.016336988657712936
0.0638439729809761
-0.04080161452293396
-0.07011739909648895
0.00755274249240756
-0.005178173538297415
0.010614573024213314
0.03372851759195328
0.041352804750204086
-0.05793389678001404
-0.07801242917776108
-0.046102382242679596
-0.006661001592874527
-0.024653885513544083
0.05503256246447563
-0.08646945655345917
-0.005164260510355234
-0.02980045974254608
0.06449739634990692
-0.03500550240278244
0.07006142288446426
0.009912917390465736
0.07725820690393448
0.005382522474974394
-0.01984463818371296
-0.05904041603207588
0.03213362395763397
-0.013858191668987274
0.020679134875535965
-0.08240222930908203
0.005022925790399313
-0.011924432590603828
-0.08734732866287231
-0.11375316977500916
0.10624384135007858
-0.019857823848724365
-0.026538794860243797
0.048342015594244
-0.011559084057807922
0.025596724823117256
0.054048288613557816
-0.09284350275993347
0.013104495592415333
-0.0353056937456131
0.06464757025241852
0.077718585729599
-0.07966416329145432
-0.06867123395204544
0.018300741910934448
0.0067527322098612785
-0.05363931879401207
0.05106952786445618
-0.02724534459412098
0.010454944334924221
0.000783316558226943
0.016309918835759163
-0.08505325019359589
0.019683197140693665
0.03166264668107033
0.03779978305101395
0.052203938364982605
0.06868124008178711
-0.10157044231891632
-0.0937463566660881
-0.04096947982907295
-0.04861944168806076
0.11846628040075302
-0.007885624654591084
-0.021135367453098297
-0.03993059694766998
0.029160095378756523
0.014945732429623604
0.06246272474527359
0.00036483205622062087
0.09459847211837769
0.0010298689594492316
-0.0446435920894146
0.11303985118865967
0.01953735016286373
0.12247346341609955
-0.016816111281514168
0.050822000950574875
-0.03197941556572914
-0.10273391753435135
0.024374183267354965
-0.02557532861828804
-0.003339777234941721
0.042043182998895645
0.030144842341542244
0.03691235929727554
0.0011144042946398258
0.017588861286640167
0.010713662952184677
0.07493117451667786
0.036158014088869095
0.002678502118214965
-0.022894516587257385
0.0014170270878821611
-0.01563939079642296
-0.057104893028736115
0.0412285216152668
0.08778610825538635
0.004985777195543051
-0.03335731476545334
0.001280195196159184
0.03572295978665352
0.028647437691688538
0.03902433067560196
0.0662052109837532
-0.04091095179319382
-0.03134176880121231
-0.0015711896121501923
0.05004839599132538
0.04676536098122597
0.018345795571804047
0.06013968959450722
0.028982369229197502
-0.010161670856177807
-0.008860842324793339
-0.05199384689331055
-0.056230977177619934
0.058643508702516556
-0.024609481915831566
-0.09474895894527435
-0.007697151508182287
-0.0059844995848834515
-0.01588922180235386
0.04727977141737938
0.11038895696401596
0.0142624257132411
-0.009291398338973522
-0.03574947267770767
-0.0138883450999856
0.048503678292036057
-0.0020979477558285
-0.05486631020903587
0.01902174949645996
-0.01481697615236044
-0.017316948622465134
-0.01044631376862526
-0.05985482782125473
0.09156952798366547
0.02035747468471527
-0.05799538642168045
0.14119763672351837
0.024661773815751076
0.10002748668193817
0.052985429763793945
0.031199805438518524
-0.002527774078771472
-0.0177051592618227
-0.04856413975358009
0.05426845699548721
0.05264132097363472
0.050151925534009933
-0.029581600800156593
0.0019925220403820276
0.046424251049757004
0.042979076504707336
0.010013457387685776
-0.05394468083977699
-0.055370185524225235
-0.11655539274215698
-0.03914311155676842
0.04409879073500633
-0.047639213502407074
-0.029988069087266922
-0.01560998149216175
0.004730115178972483
0.017271868884563446
-0.03548829257488251
0.018916472792625427
0.014667163603007793
0.057071752846241
-0.013439632020890713
-0.06001247093081474
0.0027028503827750683
-0.09340719133615494
0.006832393351942301
-0.09844528883695602
-0.0663052499294281
0.0328807532787323
0.04291272535920143
0.08766958117485046
0.1039256826043129
-0.028497187420725822
-0.06779634207487106
0.00935962051153183
-0.018517963588237762
-0.07137781381607056
0.05597132444381714
0.1044200211763382
0.006675256881862879
0.029091229662299156
0.0014254888519644737
-0.08802995830774307
0.0675213485956192
0.12581002712249756
0.019185807555913925
-0.0026759598404169083
-0.030233988538384438
-0.00010878621833398938
-0.02860948257148266
0.040653347969055176
-0.0185866542160511
-0.04740292206406593
-0.05032099410891533
0.022470245137810707
0.055803995579481125
-0.007171903736889362
0.08249317854642868
0.0711757242679596
-0.01643194817006588
-0.006598645355552435
0.016244694590568542
0.004676532931625843
0.12425253540277481
-0.04193371161818504
-0.0586036778986454
-0.06851299852132797
-0.021276097744703293
0.022621702402830124
0.003405112074688077
-0.002327288966625929
0.01938563399016857
-0.0200696662068367
-0.007735168095678091
0.006007719319313765
-0.14205428957939148
0.014654546044766903
-0.08845263719558716
-0.04368717223405838
0.051461827009916306
0.04257211834192276
0.010413340292870998
-0.027996065095067024
0.024448048323392868
-0.14235077798366547
0.04558418318629265
0.03906328231096268
-0.05936099961400032
-0.046995434910058975
-0.009786127135157585
-0.052559319883584976
-0.03365231305360794
0.06395788490772247
-0.024470150470733643
0.05864845961332321
-0.05252547934651375
0.04037860780954361
0.027810238301753998
-0.11365878582000732
-0.06871635466814041
0.0553983673453331
-0.07332557439804077
0.04045744612812996
-0.026751037687063217
-0.06450141221284866
-0.04287079721689224
0.017720527946949005
-0.01427201833575964
0.04387492313981056
-0.000791986589320004
0.06484536081552505
-0.04034392535686493
0.03600192070007324
-0.0078688133507967
0.03284304216504097
0.09920739382505417
0.11089438199996948
0.08818081021308899
-0.06536388397216797
0.026437338441610336
0.012303157709538937
0.054031092673540115
-0.03571780025959015
-0.014236751943826675
-0.04473389685153961
-0.010205286554992199
-0.0742984414100647
-0.08528981357812881
0.08357426524162292
0.07543746381998062
-0.0020221294835209846
-0.06052098423242569
-0.11952673643827438
-0.05651163309812546
0.005407056771218777
-0.07845732569694519
-0.00043365132296457887
0.019734926521778107
0.04694993048906326
0.0390537865459919
-0.05808107182383537
-0.09123558551073074
0.09832410514354706
-0.08368478715419769
0.08794954419136047
0.11380501836538315
-0.039698563516139984
0.09692899137735367
-0.037136245518922806
-0.0012606533709913492
0.039114080369472504
-0.03660319373011589
-0.07987689971923828
0.03425256162881851
0.1649971753358841
0.012589833699166775
-0.05603720247745514
0.013444347307085991
-0.009469515644013882
0.02092800661921501
0.019717765972018242
0.020568672567605972
0.06938467919826508
-0.006142732687294483
-0.0521034374833107
0.056030940264463425
0.04484327509999275
-0.04972457513213158
-0.04156597703695297
0.03846003860235214
0.007934648543596268
0.11565184593200684
0.03339187055826187
-0.07270840555429459
-0.05048336088657379
-0.013313262723386288
0.1301073282957077
0.03564491122961044
0.01389627531170845
-0.10864752531051636
0.05226468667387962
0.08640727400779724
0.09197124093770981
0.013213185593485832
-0.05655145272612572
-0.09134981781244278
0.010695991106331348
-0.005794411525130272
-0.03268522396683693
0.03927011042833328
0.07325639575719833
-0.02557295188307762
0.0692712590098381
-0.07518021762371063
-0.01774478703737259
-0.028506699949502945
-0.006518783047795296
-0.05061538517475128
0.07871383428573608
0.1485983282327652
-0.03216615691781044
0.024945147335529327
-0.017694931477308273
-0.05245725437998772
0.0020861071534454823
0.04539167881011963
0.025596579536795616
-0.015149357728660107
0.06791558861732483
0.015917984768748283
0.03014003299176693
0.000662702601402998
-0.011303122155368328
-0.017244135960936546
0.10039116442203522
-0.012156212702393532
-0.0665244534611702
0.09540221095085144
-0.14275754988193512
-0.021520275622606277
0.059564244002103806
0.050531405955553055
0.03707217425107956
-0.016136785969138145
-0.013627887703478336
-0.06750045716762543
-0.07843141257762909
-0.10290831327438354
-0.0034753289073705673
-0.05067286640405655
-0.05343342199921608
-0.058060090988874435
-0.06852292269468307
0.07049262523651123
0.05294422432780266
-0.042638979852199554
-0.06592948734760284
0.10609055310487747
-0.017118752002716064
-0.02044185996055603
0.0011364833917468786
0.06075425446033478
0.0039909956976771355
-0.06438837200403214
0.013878501951694489
0.06828593462705612
0.06861120462417603
-0.05930508300662041
0.011820908635854721
-0.008604815229773521
-0.03575526550412178
-0.018667619675397873
0.13193275034427643
-0.0010632823687046766
-0.0926968976855278
0.12148608267307281
-0.004743457771837711
-0.006965962238609791
-0.05507948249578476
-0.04960624501109123
0.10346558690071106
0.09172272682189941
0.02249707281589508
0.030247924849390984
0.024800585582852364
-0.041368190199136734
0.02405771240592003
0.05293642729520798
-0.025497732684016228
0.04165150597691536
-0.028173750266432762
-0.006377591751515865
0.02830604836344719
0.023968392983078957
0.01695849560201168
-0.045011162757873535
0.024860380217432976
-0.01103412825614214
-0.0106613514944911
0.04350167140364647
0.049123723059892654
-0.03032422624528408
-0.03323015198111534
-0.07643358409404755
-0.027104714885354042
-0.01791645586490631
0.013032006099820137
0.04254762828350067
-0.050200484693050385
0.009947960264980793
0.07161740213632584
0.10213924199342728
0.09995116293430328
0.03615330532193184
-0.049382761120796204
0.018252059817314148
-0.05761835724115372
0.026538601145148277
0.11659940332174301
0.01416872814297676
-0.08675538003444672
0.05111973360180855
0.10476063936948776
-0.06156056374311447
0.09590018540620804
0.02777337096631527
0.005330901592969894
0.037450000643730164
-0.0971725732088089
0.05305517837405205
-0.033634159713983536
0.015726709738373756
0.034257981926202774
-0.13641203939914703
-0.06103675067424774
0.031089043244719505
0.023207658901810646
0.013814049772918224
0.036837559193372726
0.018081489950418472
-0.08041150122880936
-0.009511670097708702
0.06279934197664261
-0.005621937103569508
0.08443566411733627
-0.06531619280576706
-0.052946243435144424
0.10087471455335617
0.06814975291490555
-0.01170275453478098
-0.10805220156908035
-0.030836647376418114
-0.03719817474484444
-0.01206783764064312
0.11377504467964172
0.004969688598066568
-0.050093021243810654
0.11690521985292435
0.0360119603574276
-0.06458301842212677
-0.048105210065841675
0.0587226077914238
0.04674867168068886
-0.005859998520463705
0.09027177095413208
-0.019016575068235397
-0.03886401280760765
-0.007725161965936422
-0.02482730522751808
-0.12489086389541626
-0.05081517621874809
-0.031007198616862297
0.016851119697093964
0.017642656341195107
-0.05042271688580513
-0.06035573408007622
-0.02913985587656498
-0.021320577710866928
0.012949754483997822
0.002020463114604354
-0.08521048724651337
0.09391143172979355
0.01901894435286522
0.099154032766819
0.01894746720790863
-0.104983851313591
0.07832611352205276
-0.002436983399093151
0.0002624085173010826
0.0518205501139164
0.05992622300982475
0.02459103614091873
0.05235474556684494
0.024217667058110237
0.041594501584768295
-0.035437826067209244
-0.050808269530534744
0.07995288074016571
-0.039295971393585205
-0.1007029116153717
-0.07031016051769257
-0.05735400319099426
-0.05185861140489578
0.025416593998670578
-0.08173796534538269
-0.03282474726438522
0.0876590833067894
-0.03667184337973595
-0.12932412326335907
0.07918599992990494
-0.02827591821551323
0.02921801060438156
0.02572139911353588
0.001963474089279771
-0.00024770412710495293
0.021077631041407585
0.004776774439960718
-0.048907019197940826
-0.049250490963459015
-0.01977359503507614
0.06489022821187973
-0.04149946942925453
-0.005185031797736883
-0.011486975476145744
0.012376433238387108
-0.03325999155640602
-0.018008152022957802
0.05013274773955345
-0.1287965476512909
-0.011540238745510578
0.030381763353943825
0.046331919729709625
-0.036546848714351654
-0.14423048496246338
0.09631853550672531
-0.006857189349830151
0.0008558163535781205
-0.04910355433821678
0.08400114625692368
-0.10668321698904037
0.005670446902513504
-0.03984290361404419
0.09206762164831161
-0.06356516480445862
-0.03246419131755829
-0.03907810151576996
-0.01000616978853941
-0.005181411746889353
-0.023796798661351204
0.023012060672044754
-0.055336467921733856
-0.01912742480635643
0.017133798450231552
-0.0023814747110009193
-0.018240313977003098
0.005432154517620802
-0.03679874166846275
0.0027393463533371687
-0.09689880162477493
0.04196316748857498
0.10445094853639603
0.04844415560364723
0.035735636949539185
0.026112018153071404
-0.03281529247760773
-0.054609689861536026
0.01432876754552126
-0.014464818872511387
-0.008853510022163391
0.01856400817632675
0.03487204760313034
-0.009186465293169022
0.0710013285279274
0.08692357689142227
-0.006599183194339275
-0.015777327120304108
0.023594090715050697
0.10948855429887772
-0.024110661819577217
0.07253457605838776
0.041064802557229996
0.07746777683496475
0.008614047430455685
0.0951596274971962
0.042959678918123245
-0.13600443303585052
-0.008493997156620026
-0.007734471000730991
-0.055275507271289825
0.004465537145733833
-0.07746012508869171
-0.01666668988764286
0.013035261072218418
0.05193323269486427
-0.004445970524102449
0.03434216231107712
0.039980266243219376
-0.013601873070001602
0.0016348172212019563
-0.10809286683797836
-0.08028805255889893
0.019978363066911697
0.019113142043352127
-0.13646629452705383
-0.07157917320728302
0.058440860360860825
0.020349910482764244
0.05896956846117973
0.10949894785881042
0.03986986726522446
-0.056913040578365326
0.10736220329999924
-0.061377204954624176
0.1167001873254776
0.0922837108373642
0.1379220187664032
0.024571672081947327
-0.0603555366396904
-0.03707176074385643
0.05074499547481537
-0.005359448026865721
0.0034002959728240967
-0.045043349266052246
0.04065629839897156
-0.008182015269994736
-0.045175548642873764
-0.012528729625046253
0.021729787811636925
0.023269349709153175
-0.00017678416043054312
-0.10637757927179337
-0.02670194022357464
-0.10745447129011154
0.010553118772804737
0.0723644495010376
0.035927366465330124
0.14512425661087036
0.031572192907333374
0.03275536745786667
-0.032436076551675797
0.012952243909239769
0.007438229396939278
-0.03469683974981308
0.052329227328300476
0.0303830374032259
0.020400647073984146
-0.06999265402555466
0.06461348384618759
0.017730005085468292
0.03580694645643234
0.10465219616889954
-0.03239675611257553
0.06317456811666489
0.11730550974607468
-0.05903875082731247
-0.21844983100891113
-0.06884236633777618
0.004906590562313795
-0.07150853425264359
-0.19622306525707245
-0.02923688106238842
-0.007714712992310524
-0.02820991910994053
0.006416397634893656
-0.024375513195991516
0.0036627515219151974
0.07868165522813797
-0.006520113442093134
0.015493337996304035
0.0246871467679739
-0.059373851865530014
-0.01386063639074564
0.013237598352134228
0.046696245670318604
-0.036435551941394806
-0.00030455170781351626
-0.03637395426630974
-0.045367445796728134
-0.005381368566304445
-0.019205082207918167
-0.07569194585084915
0.02498272806406021
0.009242787957191467
-0.05031786486506462
0.053342919796705246
-0.07672449201345444
0.10268335789442062
0.018285732716321945
-0.10521148890256882
-0.10305570065975189
0.0321102999150753
-0.009808028116822243
0.023585790768265724
0.1123499646782875
0.06645447015762329
0.0935477465391159
0.0799609050154686
0.0007687845500186086
-0.0021072246599942446
-0.06571938842535019
-0.013233833946287632
-0.06930867582559586
0.025336304679512978
-0.0313108004629612
-0.02844270132482052
0.07229126989841461
-0.08069352805614471
-0.013410979881882668
0.08350636065006256
-0.04413130134344101
0.017688151448965073
0.00641245674341917
0.08469860255718231
0.01958405412733555
0.07450906187295914
-0.1218009665608406
0.07530070841312408
-0.035073421895504
-0.006676720920950174
0.05010106787085533
0.04091430455446243
0.012628903612494469
0.017226681113243103
0.006515755783766508
-0.002654990879818797
-0.11427824944257736
0.0018764506094157696
-0.027951359748840332
0.013716375455260277
0.07747380435466766
-0.01381510030478239
-0.04517929255962372
-0.03719424083828926
0.05436776205897331
0.012970423325896263
-0.11271263659000397
-0.04313071072101593
0.02507901005446911
0.02477913536131382
-0.08863936364650726
-0.05664590746164322
0.03184156119823456
-0.14127351343631744
-0.01770995929837227
-0.012554865330457687
-0.042579155415296555
0.004014286212623119
-0.03976999595761299
0.034185465425252914
0.005971825681626797
-0.03795277327299118
-0.02790609374642372
0.09676211327314377
0.007671770639717579
-0.06403091549873352
-0.09595101326704025
0.06707320362329483
0.0839499905705452
-0.004841900896281004
0.007131498772650957
0.034648019820451736
0.016031265258789062
0.045810043811798096
0.05281474068760872
-0.0342804379761219
0.03278318792581558
0.0246312003582716
-0.07619010657072067
-0.041418056935071945
0.052563831210136414
0.06875741481781006
0.08001083880662918
0.08010176569223404
-0.11454183608293533
0.05978166684508324
-0.16929897665977478
-0.06230059266090393
-0.04573601484298706
0.015092143788933754
-0.10426575690507889
0.09376577287912369
0.02441515028476715
-0.09917760640382767
0.009139026515185833
0.030000871047377586
-0.04399461671710014
-0.07835966348648071
-0.039884187281131744
-0.05577562749385834
0.01830553449690342
-0.06947516649961472
-0.11409102380275726
-0.0009488342329859734
0.017687760293483734
-0.016633160412311554
-0.01635298691689968
0.01718791387975216
-0.08873555809259415
0.0691506415605545
0.028073595836758614
0.10093498975038528
-0.018789704889059067
-0.04335882514715195
-0.06953971832990646
0.07731067389249802
-0.0735744908452034
-0.00787567999213934
0.017770498991012573
-0.032552555203437805
-0.10199568420648575
-0.044400930404663086
0.029077276587486267
-0.09183244407176971
-0.048284050077199936
0.01749572902917862
-0.05361579731106758
-0.06199817731976509
-0.010174978524446487
-0.027355516329407692
-0.043253734707832336
-0.14224527776241302
0.06511983275413513
0.0141686936840415
-0.023111162707209587
0.03967240825295448
0.03968033939599991
0.014258714392781258
-0.07233434170484543
0.08868713676929474
-0.03817380219697952
0.003856169292703271
-0.09528931975364685
0.02021634392440319
0.0025382947642356157
0.009209266863763332
-0.029667425900697708
-0.06603249907493591
0.029756564646959305
0.02702050842344761
0.04693903028964996
-0.03514864295721054
0.0695628672838211
0.10162487626075745
-0.027689047157764435
-0.03563646227121353
-0.015101063065230846
-0.041215281933546066
-0.05421261861920357
-0.014322895556688309
-0.034238189458847046
-0.025196831673383713
-0.05439372360706329
0.04948340728878975
0.039930857717990875
0.07114002108573914
0.0014190092915669084
0.03441089391708374
0.005990395788103342
0.09783902764320374
-0.08995268493890762
0.05757950246334076
0.04234509915113449
-0.06238545477390289
-0.10797576606273651
-0.04532422497868538
-0.001980298198759556
-0.043654125183820724
-0.04063926264643669
-0.04559342935681343
-0.06585373729467392
0.04933900013566017
0.0018295865738764405
0.030476052314043045
-0.11926361173391342
-0.04536312818527222
-0.09827680140733719
-0.09745580703020096
-0.15623870491981506
-0.0008908078889362514
0.09530626982450485
-0.00295232399366796
0.02600785344839096
0.08375546336174011
-0.04306204617023468
0.05673832446336746
0.04037050902843475
-0.13213543593883514
0.06111457571387291
-0.028850825503468513
-0.0435996875166893
-0.09291919320821762
0.003116101957857609
0.08442459255456924
0.017013804987072945
-0.0867612361907959
-0.05748240277171135
0.05147989094257355
0.05485961586236954
0.07999639958143234
-0.04345979914069176
-0.04675253480672836
-0.012056888081133366
0.042332522571086884
-0.01519719697535038
-0.0585499107837677
0.04157821461558342
0.16257300972938538
-0.011064647696912289
0.10426082462072372
0.02142726257443428
0.05901746079325676
0.06582175940275192
-0.043304335325956345
-0.008061275817453861
-0.06557399779558182
-0.0036246199160814285
-0.03642156720161438
-0.07956859469413757
0.06104292348027229
0.018510177731513977
-0.0033638097811490297
0.038652606308460236
-0.029742399230599403
-0.023047154769301414
0.0869106724858284
0.028801126405596733
-0.022218944504857063
-0.08879738301038742
-0.03687428683042526
-0.054829005151987076
0.0070772659964859486
0.05300608649849892
-0.04499002918601036
-0.0239646527916193
-0.06404895335435867
-0.03754435107111931
-0.04416802152991295
0.07651407271623611
0.08517926931381226
-0.01398769486695528
-0.007403908763080835
0.030531927943229675
-0.021584849804639816
0.09936147928237915
-0.025078484788537025
-0.04408203437924385
0.028257178142666817
-0.030537808313965797
0.009178221225738525
-0.05030164495110512
0.07098972797393799
0.06500861793756485
-0.05775529518723488
-0.020494025200605392
0.1256205439567566
-0.009387323632836342
0.057902492582798004
0.012020447291433811
-0.02555064484477043
-0.04281553253531456
-0.053154733031988144
0.01128791831433773
-0.04982397332787514
0.0367804579436779
-0.03764780983328819
0.0574633963406086
-0.052763666957616806
-0.011584410443902016
0.05846632644534111
0.040475573390722275
-0.035146284848451614
-0.126061350107193
0.06100758537650108
0.044400136917829514
0.014758026227355003
0.033747993409633636
0.07804949581623077
-0.06723438203334808
-0.06271403282880783
0.0451410636305809
0.018715815618634224
0.07889526337385178
-0.10336640477180481
0.09992585331201553
-0.04553782939910889
0.06712288409471512
0.020761117339134216
0.06424634903669357
0.14558406174182892
0.028218813240528107
0.04932517930865288
-0.06910301744937897
-0.03842945769429207
0.06468573957681656
-0.04896772652864456
0.07780200988054276
0.04481586813926697
-0.02193409390747547
0.09106926620006561
-0.013487669639289379
-0.10045293718576431
0.01881331019103527
0.0797879546880722
-0.05797842517495155
-0.05696485564112663
-0.07231798022985458
-0.044097255915403366
0.06928497552871704
0.06637106090784073
0.030816588550806046
-0.01978684775531292
-0.06890329718589783
-0.027047423645853996
-0.06451396644115448
0.009689313359558582
-0.060031771659851074
-0.04285327345132828
-0.050119511783123016
0.016155408695340157
0.07859353721141815
0.0073513127863407135
-0.03608207032084465
-0.031785231083631516
-0.0910349041223526
0.12103806436061859
-0.06577587127685547
0.011385259218513966
-0.037627723067998886
0.07537977397441864
0.0349997840821743
0.021832797676324844
-0.037344396114349365
0.05390224605798721
0.050180256366729736
0.1072750985622406
0.028545521199703217
0.04943106323480606
-0.04525543749332428
-0.10601882636547089
-0.027232563123106956
0.03746454790234566
0.08371955901384354
0.0692349523305893
-0.007489183451980352
0.007255961652845144
0.04199385270476341
-0.036079712212085724
0.020970666781067848
-0.013985623605549335
0.043245185166597366
-0.03420763090252876
-0.06821157038211823
-0.0006995443254709244
-0.04624573141336441
-0.030435921624302864
-0.14826014637947083
-0.02657501958310604
-0.04042449966073036
