0.018952228128910065
0.052762486040592194
0.021534888073801994
-0.08273808658123016
-0.0329098254442215
0.08482559025287628
0.0001744098699418828
-0.02540987730026245
-0.06240023300051689
-0.003607273567467928
-0.01866721734404564
-0.006573549471795559
0.08144038915634155
-0.03272515535354614
-0.03255827724933624
0.009552949108183384
-0.04872773587703705
-0.05589011311531067
0.007274744566529989
0.11034130305051804
0.01328406110405922
0.03994900733232498
-0.023185741156339645
-0.05886301025748253
0.07091616094112396
-0.029397500678896904
-0.03891898691654205
-0.03229796513915062
-0.06449636816978455
-0.042245205491781235
0.018897907808423042
-0.03436547517776489
-0.03987031430006027
0.030520997941493988
0.00045341963414102793
0.0010255492525175214
-0.015533271245658398
-0.029785677790641785
0.024780016392469406
0.00775144062936306
-0.04686593636870384
0.02040814608335495
0.005468403920531273
0.004633881151676178
0.04155497997999191
-0.00621943362057209
-0.07549162954092026
-0.07461313903331757
0.012932713143527508
-0.04923979565501213
0.0016432137927040458
0.009079025126993656
-0.010919781401753426
-0.08756197988986969
0.030507724732160568
-0.051537103950977325
-0.022028809413313866
0.06006065756082535
0.01840767078101635
-0.051923807710409164
-0.12777093052864075
-0.03236827254295349
-0.09292986243963242
-0.026442086324095726
-0.05152840167284012
0.023941610008478165
0.08319272100925446
-0.010614749044179916
-0.029658030718564987
0.05448641628026962
0.013977298513054848
0.006165261846035719
0.040064744651317596
0.027792399749159813
-0.0568055734038353
0.0770479291677475
-0.018318727612495422
-0.011347819119691849
-0.0040356470271945
-0.00803527981042862
0.0168333500623703
-0.006171690300107002
-0.019406989216804504
0.032777316868305206
0.025563759729266167
0.025339078158140182
0.0646403431892395
0.03290889412164688
-0.09938587248325348
-0.05652010440826416
-0.04453530162572861
0.04509729892015457
-0.08442489802837372
0.053151726722717285
-0.022317659109830856
0.025899020954966545
0.011177768930792809
0.04670806974172592
-0.003975768573582172
0.02608051709830761
0.03458976000547409
0.11386474967002869
-0.08178168535232544
0.035554736852645874
0.000176079964148812
0.021891800686717033
0.038158632814884186
0.01788722723722458
0.004659479483962059
-0.019043244421482086
-0.02425077185034752
-0.004953435156494379
0.000799133675172925
0.028029872104525566
0.11704021692276001
-0.0845039039850235
-0.10526140034198761
-0.025049414485692978
0.028258714824914932
0.02852533757686615
-0.017614547163248062
0.005482363980263472
-0.006383383180946112
0.01531230565160513
-0.05171088129281998
0.04339253529906273
-0.008731480687856674
-0.09892900288105011
-0.04313639551401138
-0.050466787070035934
0.05431559681892395
-0.008082274347543716
-0.10889750719070435
0.033467501401901245
0.00416776817291975
0.00509160291403532
-0.009130173362791538
-0.019507432356476784
-0.105817511677742
0.06353765726089478
0.011230386793613434
-0.07150140404701233
0.01019639428704977
0.012054676190018654
0.024174202233552933
-0.011793984100222588
-0.0039270794950425625
-0.04378896951675415
-0.047897111624479294
-0.021364761516451836
0.015454845502972603
-0.007747916039079428
-0.03502561151981354
0.00019795316620729864
-0.02024627849459648
0.06027050316333771
0.006598648615181446
-0.009066163562238216
-0.011536404490470886
0.007382727228105068
0.035858720541000366
-0.012245489284396172
0.09780733287334442
-0.0341867133975029
-0.0051247961819171906
-0.008161555044353008
0.027334388345479965
-0.044482361525297165
-0.014923810958862305
0.006047456990927458
-0.02749864012002945
-0.060938842594623566
0.03486880660057068
0.0021138289012014866
0.05916859954595566
-0.016512610018253326
-0.04992976039648056
0.008162619546055794
0.011574909090995789
0.04207894206047058
-0.024137597531080246
-0.01106502115726471
0.0025687520392239094
0.012091043405234814
0.03129880130290985
-0.05560894310474396
0.044623151421546936
0.001005906262435019
-0.056191034615039825
-0.06140751391649246
-0.037722911685705185
-0.022846505045890808
0.01989448070526123
-0.02919774129986763
0.005668602883815765
0.058625802397727966
-0.05852527171373367
0.03667902573943138
0.022701319307088852
0.046932898461818695
0.020409688353538513
-0.01309302356094122
0.0008368661510758102
0.031081054359674454
0.04344574362039566
-0.08691564202308655
0.039538100361824036
0.028980858623981476
-0.00772467628121376
0.009986748918890953
-0.098509281873703
-0.033645544201135635
0.042454030364751816
-0.02029833011329174
0.04947926849126816
-0.028052499517798424
0.0161073487251997
0.04187827557325363
-0.010742123238742352
0.013119565322995186
-0.011827091686427593
-0.0938982293009758
-0.02962133102118969
-0.03968151658773422
0.009055018424987793
-0.0638875663280487
-0.030645765364170074
0.011596739292144775
0.05004590004682541
0.03600981831550598
0.0611601285636425
0.025265922769904137
-0.060393255203962326
0.06698258221149445
-0.03964615240693092
0.05379614979028702
0.041555773466825485
-0.03125191852450371
-0.009778844192624092
-0.05356663465499878
-0.006424134597182274
0.05518189072608948
-0.03188565373420715
0.0236017145216465
-0.055000510066747665
-0.02261284366250038
-0.05844087526202202
0.011834478005766869
-0.018647104501724243
-0.024293404072523117
-0.013445951044559479
-0.037001337856054306
0.06155071407556534
-0.02505696378648281
0.016487808898091316
-0.03202864155173302
0.015637574717402458
0.006172694265842438
0.011203337460756302
-0.05098006874322891
-0.0637890100479126
0.034630052745342255
-0.009702861309051514
0.009419201873242855
-0.021677715703845024
0.0037284456193447113
0.009292809292674065
0.09207665175199509
-0.04473578929901123
0.02053774520754814
0.0100734056904912
0.02349890023469925
-0.020250551402568817
-0.043403204530477524
0.07651558518409729
-0.020535286515951157
-0.019901633262634277
0.06074449419975281
-0.06513650715351105
0.03641975298523903
-0.006920915096998215
0.10618560761213303
-0.005646809935569763
0.05085662007331848
0.026851726695895195
0.003117581829428673
-0.06660009920597076
0.0319456085562706
0.08935439586639404
-0.04285237938165665
-0.06271544098854065
0.06909777224063873
0.0009949844097718596
-0.06381194293498993
-0.024509526789188385
-0.004802037961781025
-0.03896866366267204
0.036674391478300095
-0.04992670938372612
-0.04394989460706711
-0.00801562238484621
0.055196866393089294
0.022604500874876976
-0.06460730731487274
-0.015897491946816444
0.05435028299689293
0.031619563698768616
0.004341387655586004
0.0334438718855381
0.053284600377082825
-0.037740666419267654
-0.017925012856721878
-0.07998863607645035
-0.0009169160621240735
0.07906946539878845
-0.0003918666625395417
-0.03137299045920372
0.04085388779640198
-0.03138061612844467
0.08658508956432343
-0.02477654628455639
-0.05097491294145584
-0.0007123128743842244
0.02711981162428856
0.026237882673740387
-0.01583600975573063
0.09561587870121002
-0.007608146872371435
0.03525659441947937
-0.04935542866587639
0.07646577805280685
-0.024876978248357773
-0.103575699031353
0.026064462959766388
0.04338769242167473
-0.0962873324751854
-0.05947117134928703
-0.03965374082326889
-0.008595624938607216
-0.055392127484083176
0.02059163711965084
0.03861607611179352
-0.04937083646655083
0.023593172430992126
-0.06820598244667053
0.08246234059333801
0.043470676988363266
-0.07380430400371552
0.05265003442764282
0.06601328402757645
-0.061037853360176086
0.049066945910453796
0.00024015214876271784
-0.08880361914634705
0.0249481163918972
0.010682346299290657
0.013122515752911568
0.0151368398219347
0.033182691782712936
0.0397556871175766
0.02831069752573967
-0.016639670357108116
-0.008000980131328106
-0.011864660307765007
-0.06543658673763275
-0.06925215572118759
0.07134615629911423
0.05061834305524826
0.05043000727891922
-0.021813012659549713
-0.029169103130698204
-0.0904061496257782
-0.05831904336810112
-0.05098823457956314
-0.049457646906375885
0.016002647578716278
-0.04855891689658165
-0.002847579773515463
-0.027351533994078636
-0.1104021668434143
-0.05423147231340408
0.07296554744243622
0.008542617782950401
0.008862119168043137
-0.07104483246803284
0.007718624547123909
0.06311793625354767
0.018779680132865906
-0.049164123833179474
-0.040803439915180206
-0.06568495184183121
0.023276126012206078
-0.018801374360919
-0.05347306653857231
0.03251313418149948
-0.03457622602581978
-0.03375031799077988
-0.07036197185516357
-0.010557926259934902
0.037061117589473724
-0.03630030155181885
-0.05069408565759659
-0.06942988932132721
0.046156805008649826
0.015998128801584244
-0.021693309769034386
0.045401908457279205
0.01620836742222309
-0.017941676080226898
0.010050876997411251
0.0015739266527816653
-0.02085973136126995
0.01003960333764553
0.03129008784890175
0.012921351008117199
-0.020095735788345337
0.03329988569021225
0.02032487839460373
-0.04210434481501579
-0.02037797123193741
-0.004966107662767172
0.07768742740154266
-0.01986449584364891
0.10512469708919525
0.02881120704114437
0.0010918666375800967
-0.04323025047779083
-0.02752855233848095
0.03229599446058273
0.00976720079779625
-0.0034293262287974358
-0.05154425650835037
0.009333096444606781
0.05867478996515274
-0.02244749292731285
-0.003836617572233081
-0.04692724347114563
-0.032535769045352936
0.012996666133403778
-0.05255812406539917
0.0011034050257876515
0.006661755032837391
-0.05714327096939087
-0.020210612565279007
-0.03487565368413925
-0.00942101888358593
-0.03168102353811264
0.03372843563556671
-0.07427983731031418
0.022975411266088486
-0.0947093591094017
0.04665173217654228
0.005837947130203247
-0.0220249742269516
0.056973379105329514
0.053766872733831406
0.03659766912460327
-0.032780613750219345
0.0098137017339468
0.07677712291479111
0.08510434627532959
-0.028139449656009674
-0.0384477898478508
-0.05999752879142761
-0.11981582641601562
-0.035940021276474
-0.04016667604446411
-0.019986378028988838
0.04084339737892151
0.0335560105741024
-0.007495721336454153
0.039614371955394745
-0.049255721271038055
-0.03632862865924835
0.029243577271699905
0.02513848803937435
0.020529689267277718
0.06111438572406769
0.03169342130422592
0.02453531138598919
0.0019045884255319834
-0.0500732883810997
0.0005126456962898374
-0.0047239987179636955
-0.008586958050727844
0.009604625403881073
-0.09971874207258224
-0.03868606686592102
-0.07699447125196457
-0.005735603626817465
-0.014287694357335567
-0.03262995928525925
0.037598367780447006
-0.04438021034002304
0.02370283380150795
-0.036364540457725525
-0.061943136155605316
-0.032933153212070465
0.07897195219993591
-0.004626197274774313
-0.03150384873151779
0.016746023669838905
-0.03598368167877197
-0.014664753340184689
0.07165838032960892
-0.023478567600250244
0.04990023002028465
0.07574827969074249
0.019396822899580002
-0.00780869647860527
0.009146075695753098
-0.030631406232714653
-0.061131857335567474
-0.056180402636528015
-0.02858618274331093
0.012854963541030884
0.03633734956383705
-0.040415577590465546
-0.0023085945285856724
0.01010161079466343
-0.07255087047815323
-0.03976757824420929
0.009211207740008831
-0.030407465994358063
0.018211543560028076
0.03210815042257309
0.03100103884935379
0.004111168906092644
0.017646396532654762
0.007621790282428265
-0.04711974412202835
-0.046064820140600204
0.032654084265232086
-0.020350247621536255
-0.0219473447650671
0.03568911924958229
0.04087957367300987
-0.035243138670921326
0.014314968138933182
-0.029992206022143364
0.03421733155846596
0.03701025992631912
-0.004941689316183329
0.01887788251042366
-0.026299305260181427
-0.007738120388239622
-0.009360524825751781
0.002117395168170333
0.0801117941737175
0.027080722153186798
0.006781280972063541
-0.007524063345044851
-0.008560228161513805
-0.010822109878063202
-0.04456876218318939
-0.016287431120872498
0.012643705122172832
-0.11474727839231491
0.00529836118221283
-0.06469503790140152
-0.0892559140920639
-0.014016345143318176
-0.008053859695792198
0.014567132107913494
-0.03208959847688675
0.03288586437702179
0.008506210520863533
0.037156518548727036
0.06101997196674347
0.021953392773866653
-0.012612673453986645
-0.07570651173591614
-0.016895120963454247
-0.03608143702149391
0.04013605788350105
0.07247285544872284
0.029089201241731644
0.09775694459676743
0.0011952593922615051
0.014458244666457176
-0.020522940903902054
-0.020704854279756546
0.016347898170351982
-0.008316263556480408
-0.034963034093379974
0.04322750121355057
0.02288881316781044
-0.014390169642865658
0.020894724875688553
-0.033392880111932755
-0.04953765869140625
-0.04774168133735657
-0.007970478385686874
0.06051640212535858
-0.04148554429411888
-0.02040092647075653
0.014217077754437923
-0.02762916311621666
-0.00917861144989729
-0.04300827533006668
-0.018703054636716843
0.017312655225396156
-0.029732849448919296
0.006385217886418104
-0.010572000406682491
0.010390598326921463
0.033927395939826965
0.03539522364735603
-0.0037650526501238346
0.015243683010339737
-0.023920390754938126
-0.032897643744945526
-0.03513472154736519
0.04209014028310776
-0.05274374410510063
-0.024399176239967346
-0.01064198650419712
-0.012555567547678947
0.026215724647045135
-0.01829032599925995
0.05316505581140518
0.029030904173851013
0.013179144822061062
-0.0009483540197834373
0.015673745423555374
0.040339455008506775
2.7144244086230174e-05
-0.12593790888786316
0.008759227581322193
-0.026065044105052948
-0.012985224835574627
0.028831321746110916
-0.014831861481070518
0.012057945132255554
-0.028866564854979515
0.06667201966047287
0.022332778200507164
0.00790637917816639
-0.028713390231132507
0.013930464163422585
-0.006853203289210796
0.006835877895355225
-0.008422233164310455
-0.003986181691288948
-0.0528583824634552
-0.008349493145942688
0.04646385833621025
0.05114614591002464
0.009855551645159721
-0.06949633359909058
-0.04677112400531769
-0.013409828767180443
-0.06429219990968704
-0.02323072776198387
-0.05772693455219269
-0.006128879263997078
0.033173322677612305
0.011362298391759396
-0.0016861837357282639
-0.0640026330947876
-0.011295839212834835
-0.07370942831039429
-0.08006541430950165
-0.028335466980934143
-0.04439188167452812
0.010448328219354153
0.0601358637213707
0.010360229760408401
-0.08117454499006271
-0.0035915165208280087
0.016623515635728836
-0.050059884786605835
0.018210474401712418
-0.031143974512815475
0.055636655539274216
-0.017608528956770897
0.014681681990623474
0.03757906332612038
-0.07679001986980438
-0.022862982004880905
0.012956785038113594
0.05873830243945122
-0.05086526274681091
-0.02006978914141655
-0.05454210937023163
0.03440501540899277
0.03920213133096695
-0.00020549781038425863
-0.061220407485961914
0.01363422255963087
0.013413043692708015
-0.019603844732046127
-0.023446103557944298
-0.03793331980705261
-0.020464006811380386
0.05613025650382042
-0.0954793319106102
0.022969286888837814
-0.04725126177072525
0.022725753486156464
-0.008749136701226234
0.025723010301589966
-0.046169769018888474
-0.004460927098989487
-0.052358102053403854
-0.008069410920143127
0.007595335133373737
-0.04087819531559944
-0.03603316843509674
-0.009655991569161415
0.02015361189842224
0.11055652797222137
0.0231286883354187
-0.02132209949195385
0.014018530026078224
0.07859630882740021
-0.005506455432623625
-0.0007155538769438863
0.01891414448618889
-0.011878494173288345
-0.024902185425162315
-0.007332191802561283
0.012206635437905788
0.058984190225601196
0.08020573854446411
-0.0003281487734057009
0.06052339822053909
0.006653982680290937
0.011515296064317226
-0.021643444895744324
0.06345980614423752
0.02822989970445633
-0.006274298764765263
0.06362186372280121
-0.02723388746380806
-0.06088121980428696
-0.003924444783478975
-0.007277484517544508
0.011057563126087189
0.04562864452600479
-0.05165306478738785
0.0018107129726558924
0.011408563703298569
-0.03393352031707764
-0.037374988198280334
-0.012058377265930176
0.08534576743841171
-0.015464461408555508
0.09440271556377411
-0.024936266243457794
0.00977538712322712
-0.04383879899978638
0.014479036442935467
0.0695369690656662
-0.02825184538960457
-0.040963608771562576
-0.03506963327527046
0.056946516036987305
0.018991686403751373
0.04270445555448532
-0.007573041599243879
0.022859780117869377
0.031013060361146927
0.061928462237119675
0.05706185847520828
0.011924575082957745
0.0193164199590683
-0.011668584309518337
0.01764540933072567
0.026286005973815918
0.04376308619976044
0.0762498751282692
0.0005916120135225356
-0.041481807827949524
-0.013317104429006577
-0.021908758208155632
-0.013392673805356026
-0.0804227814078331
0.009131744503974915
0.0682331770658493
0.01821235567331314
0.007693571969866753
-0.02070491388440132
-0.01398041844367981
-0.00015125192294362932
0.10148879885673523
-0.00896819494664669
0.036119602620601654
0.016966452822089195
0.032852187752723694
0.0832427442073822
-0.07476832717657089
-0.06369463354349136
0.002198742236942053
0.029467254877090454
-0.028179742395877838
0.019271183758974075
0.015424168668687344
0.06593258678913116
-0.06812020391225815
-0.010471458546817303
-0.0012285877019166946
-0.01804846152663231
0.06477279961109161
0.011707018129527569
-0.028919672593474388
-0.007851103320717812
0.01492850761860609
-0.00556105887517333
-0.07315070182085037
-0.0443558506667614
0.08208271116018295
0.05621667206287384
-0.0502605140209198
0.01894771307706833
0.024489913135766983
-0.007111822254955769
-0.03835843876004219
-0.01181112788617611
-0.006777630187571049
0.018663832917809486
0.031316421926021576
0.03398685157299042
-0.03885599970817566
0.0033606328070163727
0.051708709448575974
0.024326059967279434
0.008843936957418919
0.03895473852753639
0.011415401473641396
-0.0004706357722170651
0.0873049795627594
0.0058305226266384125
-0.005038120783865452
0.02995987981557846
0.046365730464458466
-0.012777598574757576
0.012799842283129692
0.028802990913391113
-0.01510648988187313
-0.044419705867767334
0.03167859464883804
-0.044500745832920074
-0.015222731046378613
-0.006219967268407345
0.006215901114046574
0.04091988876461983
0.08046557009220123
-0.046804241836071014
0.018713582307100296
0.03487073630094528
-0.0378590002655983
-0.05386727303266525
-0.021717365831136703
0.002233707346022129
0.053403422236442566
-0.001686098868958652
0.01137988269329071
0.004408020060509443
0.011692210100591183
-0.029378339648246765
-0.07308469712734222
-0.04434023052453995
-0.01801183819770813
0.0035773110575973988
0.023873893544077873
-0.013650605455040932
-0.06297852843999863
-0.09279915690422058
0.01017521321773529
-0.029690001159906387
0.058012090623378754
-0.008323410525918007
0.021503163501620293
-0.07788786292076111
-0.00900183618068695
-0.010614495724439621
0.04120619222521782
0.052544381469488144
0.001075274427421391
0.020164543762803078
-0.036169860512018204
-0.07916608452796936
0.0322672501206398
-0.040070101618766785
-0.04054426774382591
0.018866322934627533
0.02794531360268593
0.023682523518800735
0.06135137379169464
-0.0290377140045166
0.02810579538345337
0.03204621374607086
0.03205250948667526
-0.05407110974192619
0.03425157070159912
0.0061585246585309505
-0.023110121488571167
0.010337265208363533
0.038015902042388916
0.026892950758337975
0.06201235204935074
-0.11820324510335922
0.013708718121051788
-0.04832877963781357
-0.005154992453753948
0.08035656809806824
-0.03913860768079758
-0.0009548664093017578
0.02268371544778347
0.02442125976085663
-0.05546804517507553
0.01589110866189003
-0.01763915829360485
0.056769199669361115
0.01058931089937687
0.021695803850889206
0.0017003798857331276
0.044163625687360764
-0.025169573724269867
0.005447845906019211
-0.04229551553726196
0.019451837986707687
0.012660982087254524
-0.05376841872930527
-0.04639763385057449
0.039453692734241486
0.016494449228048325
-0.006730595603585243
-0.09672551602125168
-0.020365769043564796
0.027575930580496788
0.040800705552101135
0.01898866705596447
-0.02227645181119442
0.07240131497383118
-0.006958090700209141
-0.04954886436462402
0.09825556725263596
-0.05041653662919998
0.02658737264573574
-0.0028916129376739264
-0.002601638436317444
-0.04237600788474083
0.047331251204013824
0.005698701366782188
-0.03483335301280022
-0.034420229494571686
-0.01413324847817421
-0.12213394045829773
0.038213327527046204
0.028352979570627213
-0.019941050559282303
0.053314417600631714
0.014773043803870678
-0.06984549760818481
0.04098116606473923
-0.031435493379831314
0.02036440186202526
0.03819433972239494
0.010155555792152882
0.018958084285259247
-0.003214531345292926
-0.006831764243543148
-0.031241005286574364
0.012991837225854397
0.03833289071917534
-0.0686325877904892
-0.05847477167844772
0.017917759716510773
0.007843300700187683
-0.05191374570131302
0.05384580418467522
-0.01714634895324707
0.019512034952640533
0.024719273671507835
-0.0352536216378212
0.03780069947242737
0.04172579199075699
-0.00033543206518515944
-0.09238743782043457
-0.04504217952489853
0.05847146362066269
0.057915642857551575
0.06329971551895142
0.003950825892388821
0.052393894642591476
-0.005144515540450811
0.0004156860231887549
0.017085552215576172
0.019857710227370262
-0.016763323917984962
0.036158785223960876
-0.04205627366900444
0.05112326890230179
-0.014883621595799923
0.03462496027350426
-0.030529595911502838
0.007310905959457159
-0.08217684179544449
-0.0004085739783477038
0.06614196300506592
-0.014596205204725266
0.017545195296406746
0.012489504180848598
0.0278887078166008
-0.05045686289668083
0.01789921149611473
-0.05690734088420868
-0.0352504700422287
0.09453954547643661
0.012119321152567863
-0.09222033619880676
0.0031991477590054274
-0.021442366763949394
-0.044499050825834274
-0.026805780827999115
-0.05215125530958176
0.026055313646793365
0.04411756992340088
0.01083928532898426
0.011430760845541954
0.008528821170330048
0.014076202176511288
-0.06617555022239685
-0.026046525686979294
0.006034674122929573
-0.01610771007835865
0.007645950652658939
0.03655623644590378
-0.08664385974407196
-0.0552336722612381
-0.011878201737999916
-0.020226148888468742
-0.07192818820476532
0.057798244059085846
0.05733513832092285
-0.028934454545378685
-0.021521171554923058
-0.04465289041399956
-0.03805842995643616
-0.03027295134961605
-0.03583940118551254
0.1161963939666748
-0.07958927750587463
-0.048314400017261505
-0.03255343809723854
0.059748709201812744
-0.019030308350920677
-0.023085344582796097
-0.007943631149828434
0.017158685252070427
-0.005370211787521839
-0.014532648026943207
-0.0030680326744914055
-0.030128642916679382
0.038091495633125305
-0.024075260385870934
-0.05703531950712204
-0.030652932822704315
-0.048030391335487366
-0.030393347144126892
-0.08358259499073029
0.036559272557497025
-0.007124572992324829
0.012437604367733002
-0.095266193151474
-0.013203929178416729
-0.03745409473776817
-0.006797886453568935
0.0025286050513386726
0.004311959259212017
0.02124512940645218
0.05503445491194725
-0.021251901984214783
0.04812753200531006
0.01946539804339409
-0.03147765249013901
0.02329888753592968
0.007479475811123848
0.02683815360069275
-0.05738077685236931
-0.011810073629021645
0.0518665611743927
0.008237533271312714
0.06383363902568817
-0.002416033297777176
0.016730299219489098
0.03257136419415474
0.02971348911523819
0.02079060859978199
-0.010396516881883144
-0.07352159917354584
0.05221595615148544
-0.06490200757980347
-0.04593902826309204
-0.022462721914052963
0.040811412036418915
-0.0691450983285904
-0.10254333913326263
0.0011914506321772933
-0.0383998267352581
0.023279782384634018
0.006205330602824688
-0.04666028171777725
-0.006617778912186623
-0.04606479033827782
0.06264433264732361
-0.08530563116073608
-0.13768580555915833
0.007625793572515249
0.019892584532499313
-0.030450597405433655
0.00436116848140955
0.01779501885175705
-0.0658419281244278
-0.007034605368971825
0.03231089562177658
-0.08501552045345306
-0.08539988100528717
0.02815929427742958
0.04348510503768921
0.05023610591888428
0.059481360018253326
-0.026289530098438263
-0.057131171226501465
-0.02510426938533783
0.030146850273013115
0.050636954605579376
0.006910714320838451
-0.0868319422006607
-0.00038595765363425016
-0.004990989342331886
0.01819867640733719
-0.016074560582637787
-0.0388045497238636
-0.052263468503952026
-0.025240227580070496
0.06264860928058624
-0.012265662662684917
-0.07259893417358398
0.035391274839639664
0.009243247099220753
-0.008285166695713997
-0.008402416482567787
0.0831211507320404
-0.04327595233917236
-0.03002902865409851
0.0021488675847649574
0.010489476844668388
0.026805009692907333
-0.008974793367087841
-0.048007782548666
0.020106913521885872
-0.025613173842430115
0.055844105780124664
-0.0613129548728466
0.019484220072627068
0.06055891141295433
-0.08118245750665665
0.01837604120373726
0.025997258722782135
0.001401754911057651
0.009737187996506691
-0.0010767134372144938
0.0007466198294423521
0.04147137701511383
-0.03907419368624687
-0.03946096450090408
-0.005398937966674566
-0.009259684011340141
0.051398422569036484
0.06770636141300201
-0.07055400311946869
0.007083771284669638
-0.06805363297462463
0.010804945603013039
-0.028945935890078545
-0.02002263255417347
0.031546469777822495
-0.05626819282770157
-0.010450846515595913
-0.0075309500098228455
0.02013755962252617
0.011238891631364822
0.052842967212200165
-0.04275283217430115
-0.034724242985248566
-0.012237217277288437
0.04397151991724968
0.02011663280427456
-0.020597238093614578
-0.03873482719063759
-0.03902991861104965
-0.008907634764909744
0.009755642153322697
0.0025224327109754086
-0.09347774088382721
-0.08356878161430359
-0.0021677911281585693
0.006662743166089058
0.01998543180525303
-0.005021210294216871
0.01863907091319561
0.03563074767589569
-0.022152883931994438
0.03838251531124115
0.032145582139492035
0.0038775522261857986
-0.08417194336652756
0.012738644145429134
0.020408660173416138
-0.02610195055603981
0.007949992083013058
-0.04130946844816208
-0.009242191910743713
-0.08649787306785583
-0.022046905010938644
-0.008400829508900642
0.0011232744436711073
0.011586526408791542
-0.03088701143860817
-0.05143977329134941
-0.03341749683022499
-0.0358140729367733
0.02417909912765026
0.03574066609144211
-0.006030777003616095
0.04120665043592453
-0.01978898048400879
-0.02647452801465988
0.055287815630435944
-0.009601651690900326
-0.017737552523612976
-0.07530061155557632
0.02954459749162197
0.021665051579475403
0.02118723839521408
0.04365336894989014
-0.02244182489812374
-0.03476693481206894
-0.0023892992176115513
0.028728988021612167
-0.004582418128848076
-0.03361034393310547
-0.0007535023032687604
-0.033566735684871674
0.020087186247110367
0.02123419940471649
0.03992821276187897
-0.045895472168922424
0.031077345833182335
-0.044682033360004425
-0.06302012503147125
0.010252352803945541
0.11330198496580124
-0.10622458159923553
-0.024943670257925987
-0.018312331289052963
-0.024687960743904114
0.04420876502990723
0.09301339089870453
0.029099343344569206
0.05223902314901352
0.010169032029807568
-0.011717534624040127
-0.05677345022559166
-0.035080887377262115
-0.003238322678953409
-0.08522846549749374
-0.05003783851861954
-0.04110988974571228
-0.06712981313467026
-0.05838201195001602
0.08499914407730103
0.011191189289093018
-0.06852470338344574
-0.06507422775030136
-0.030384493991732597
-0.05056552216410637
-0.07619821280241013
-0.03893982246518135
0.05828970670700073
-0.07379961013793945
-0.07005132734775543
0.040931813418865204
0.022496607154607773
-0.04338765889406204
0.00912471953779459
-0.020107626914978027
-0.009948259219527245
-0.004233276937156916
0.00029671515221707523
0.009795401245355606
0.013846548274159431
-0.03599371761083603
0.06828141212463379
0.020397048443555832
-0.011305470019578934
-0.05354314297437668
-0.01610805280506611
0.04080136865377426
0.015928395092487335
-0.01899770461022854
0.028689924627542496
0.030193135142326355
0.013310282491147518
-0.04207615181803703
0.05627111345529556
-0.06872829794883728
0.022332696244120598
-0.0477524995803833
0.04746541380882263
-0.025962872430682182
-0.06539101153612137
0.007375778164714575
0.037623681128025055
0.04147442430257797
0.07773686945438385
-0.042629584670066833
0.022493688389658928
-0.020733561366796494
-0.027514945715665817
0.003721927758306265
0.035543400794267654
0.1212608814239502
-0.04992913827300072
0.02107921801507473
-0.017572475597262383
0.03670255467295647
-0.029125206172466278
0.04162333160638809
0.0008835393819026649
-0.009695729240775108
0.027360491454601288
0.01092701405286789
-0.05216190963983536
-0.012786033563315868
-0.03338804841041565
0.02683180384337902
-0.06886500865221024
0.04481057450175285
-0.053418077528476715
0.039371103048324585
-0.022957585752010345
0.04663257300853729
-0.0734727680683136
0.002009696327149868
-0.03203136473894119
-0.04014093801379204
-0.06326597929000854
0.04076271131634712
0.014124607667326927
0.02769981324672699
-0.007926810532808304
-0.09743216633796692
-0.051295265555381775
0.009488440118730068
0.008862219750881195
0.007100540213286877
-0.0004971416783519089
-0.0547771155834198
-0.06716288626194
-0.004350903443992138
0.017091436311602592
0.007097953464835882
-0.013855334371328354
0.02108951285481453
-0.05591009557247162
-0.020701128989458084
0.005075424909591675
-0.00661394651979208
-0.02892325073480606
0.01614176109433174
-0.042755015194416046
-0.011345457285642624
-0.016279157251119614
-0.005721169989556074
0.007162043359130621
-0.052647702395915985
0.025374840945005417
-0.015936868265271187
0.02006986178457737
-0.04689822345972061
0.02999688684940338
0.037793077528476715
0.03444467484951019
0.06983798742294312
0.04946022480726242
-0.02392907254397869
-0.0518142506480217
0.009205764159560204
-0.028921253979206085
-0.002513373736292124
0.05536697804927826
-0.08167892694473267
-0.03999491035938263
-0.06898772716522217
0.0773477852344513
-0.07310319691896439
-0.05872130021452904
-0.03960058093070984
0.0016342311864718795
-0.055986370891332626
-0.0005064149154350162
0.008304046466946602
0.010344171896576881
-0.01727309077978134
0.05523058772087097
-0.0032945959828794003
0.0774492472410202
-0.009087765589356422
-0.052021123468875885
0.03168173506855965
-0.02236214280128479
-0.05898711085319519
-0.06176833435893059
0.015514837577939034
-0.06434871256351471
0.06247584521770477
-0.056198038160800934
0.023938758298754692
-0.030311306938529015
0.0707750916481018
0.02382688596844673
0.061686739325523376
0.06249897927045822
0.046862632036209106
0.023752078413963318
-0.003572364104911685
-0.014259586110711098
-0.0320548377931118
-0.029191438108682632
-0.002310815965756774
-0.01066407561302185
0.022819411009550095
-0.06897462904453278
0.11305268108844757
-0.018189050257205963
-0.0288863368332386
-0.019214335829019547
-0.04325412958860397
-0.0689622089266777
-0.021606823429465294
0.004062585067003965
0.011872028931975365
0.06106811389327049
-0.005452386103570461
-0.019017979502677917
-0.01907898485660553
-0.00974348559975624
-0.015208538621664047
-0.02869880571961403
0.008064567111432552
0.005574708804488182
0.044243574142456055
-0.044706523418426514
-0.021014666184782982
-0.01909508928656578
0.08005985617637634
-0.03235355019569397
0.027396641671657562
0.009048129431903362
0.046134065836668015
0.023069752380251884
-0.02107362449169159
-0.07839719951152802
0.037616848945617676
0.00035786518128588796
-0.018204178661108017
0.03348015993833542
0.08896898478269577
0.027036607265472412
0.033511366695165634
-0.0352817177772522
-0.06992796063423157
-0.09114110469818115
0.07851879298686981
0.022509945556521416
0.01249318104237318
0.09162928909063339
0.06043422967195511
-0.036734454333782196
0.02441076748073101
-0.00025055240257643163
-0.05245131999254227
-0.062340788543224335
-0.013379096053540707
0.016049085184931755
0.014903213828802109
-0.039604589343070984
-0.03605734556913376
0.058334480971097946
0.03759809955954552
-0.022665752097964287
0.0031177178025245667
-0.010814020410180092
-0.010811543092131615
-0.012748947367072105
-0.02194896899163723
-0.03218403458595276
-0.035566363483667374
-0.009546592831611633
-0.05472272261977196
0.0465075746178627
0.01558778714388609
-0.0034459796734154224
0.01033388078212738
-0.026548689231276512
0.039148420095443726
0.05221834406256676
0.04330267757177353
-0.01129627414047718
0.04219343513250351
-0.005753031931817532
0.009115729480981827
0.011547144502401352
-0.01779748499393463
0.026030603796243668
0.029661891981959343
0.07358971983194351
0.0030496546532958746
-0.02494656667113304
-0.014868240803480148
0.012973668053746223
-0.013898974284529686
-0.0307146143168211
-0.044828616082668304
-0.055688001215457916
5.409071945905453e-06
-0.07177068293094635
-0.027920840308070183
-0.04153922200202942
0.0006504332413896918
0.06112127751111984
-0.0019657013472169638
-0.040131062269210815
0.008590087294578552
0.010628130286931992
0.0371219664812088
0.07668700814247131
0.028997717425227165
-0.02632937580347061
0.06959578394889832
-0.06500184535980225
0.058047905564308167
0.05434812232851982
0.021050622686743736
-0.0055925860069692135
0.04004085436463356
-0.05468929558992386
0.022743336856365204
0.017344526946544647
-0.04577157646417618
0.019105959683656693
0.01028667762875557
-0.031175371259450912
-0.08014294505119324
0.06173382326960564
0.08774545788764954
-0.032323241233825684
0.026556726545095444
0.0017518120585009456
0.03741461783647537
-0.02894669398665428
0.022066382691264153
-0.010654522106051445
0.07140467315912247
-0.05277477204799652
0.03350002318620682
0.019849076867103577
-0.01754678785800934
-0.054228901863098145
-0.0523015558719635
-0.005144618917256594
-0.028001908212900162
-0.05464622378349304
-0.07144290208816528
-0.08660914748907089
0.004946512170135975
-0.03850182145833969
-0.05510036647319794
-0.0014332565478980541
0.06448167562484741
-0.028138872236013412
-0.05948815867304802
-0.023556649684906006
-0.01587142050266266
-0.035577256232500076
0.04559630900621414
0.005064055789262056
0.05871365964412689
-0.04254443943500519
0.026523923501372337
-0.0460650734603405
-0.014881688170135021
-0.022811032831668854
0.011868501082062721
0.041126374155282974
0.01486439909785986
-0.0018924431642517447
0.017885858193039894
-0.058126550167798996
0.008637942373752594
-0.04979483410716057
0.014401860535144806
-0.0016093909507617354
0.0017823255620896816
0.01568460837006569
0.015684204176068306
0.0739603191614151
-0.03226660192012787
0.08155367523431778
0.003942450042814016
-0.01709211990237236
-0.004964862018823624
0.050195299088954926
0.013160651549696922
0.014604998752474785
-0.0010672955540940166
-0.05467166751623154
-0.05732305347919464
0.03422489017248154
-0.010338537395000458
-0.06989478319883347
-0.0029311857651919127
0.03329388424754143
0.00706080999225378
0.04077622666954994
-0.006311683915555477
0.03961789980530739
0.03931305557489395
0.038343340158462524
0.038670822978019714
-0.0007014506263658404
0.038021400570869446
0.02571609616279602
-0.05493251979351044
0.07311500608921051
-0.024758001789450645
-0.01042863167822361
0.029644466936588287
-0.0174931138753891
0.005945529788732529
-0.003909461200237274
-0.10250237584114075
0.009351842105388641
0.020986367017030716
-0.017389846965670586
-0.026854880154132843
-0.002559537533670664
-0.04825442656874657
0.022659657523036003
0.04229646921157837
0.027837835252285004
0.029343023896217346
0.02539154514670372
0.035616450011730194
-0.036885883659124374
0.02735862508416176
-0.04289193078875542
-0.008511872962117195
0.0011879515368491411
-0.023320574313402176
0.02850916050374508
0.04121217504143715
0.05572507530450821
0.03077377937734127
0.04545673355460167
-0.003685710020363331
-0.00172764016315341
0.05536264181137085
-0.022036127746105194
0.01831214316189289
0.01818687655031681
0.050320323556661606
0.03547483682632446
0.023634936660528183
0.01731858216226101
0.025970205664634705
0.05781317874789238
0.07423549145460129
0.051636144518852234
-0.03598140925168991
0.02768935076892376
0.08385860919952393
-0.053556736558675766
0.003077836474403739
-0.0766579806804657
-0.05142068490386009
0.0065578739158809185
-0.0031974278390407562
-0.04418449103832245
-0.033509448170661926
-0.0147824352607131
0.01938718929886818
-0.03578075394034386
0.015682168304920197
0.07103921473026276
-0.04677828401327133
-0.06327921152114868
-0.027464035898447037
-0.03542003035545349
-0.03228343278169632
0.032847996801137924
0.022976312786340714
-0.014898376539349556
0.037855930626392365
-0.012446309439837933
0.06937214732170105
-0.059140585362911224
0.15222033858299255
0.06378666311502457
-0.031457919627428055
-0.03522943705320358
-0.030866874381899834
-0.007289506494998932
-0.07579004764556885
-0.014639291912317276
-0.0438699945807457
-0.022214308381080627
-0.04603692516684532
-0.0488753542304039
-0.05160495266318321
-0.010162989608943462
-0.013414444401860237
0.01429301779717207
-0.04065137356519699
-0.004303795285522938
-0.008013131096959114
0.015842314809560776
-0.01174955815076828
0.015035095624625683
0.0033716612961143255
0.011401230469346046
0.025359710678458214
-0.007944310083985329
0.026744715869426727
-0.002951066941022873
0.07175000011920929
-0.015177625231444836
-0.02243688702583313
0.010308201424777508
-0.04305296763777733
0.04960405081510544
-0.03603003919124603
-0.021092576906085014
-0.006108256988227367
-0.022511135786771774
0.010205626487731934
0.023180261254310608
-0.052609674632549286
0.040063582360744476
-0.03167450800538063
-0.0387207455933094
0.007582629099488258
0.004087934736162424
-0.05394091457128525
0.027692347764968872
-0.10898863524198532
-0.0015866635367274284
0.04781908541917801
-0.027594787999987602
-0.03727427124977112
0.0005508185131475329
0.005718381609767675
-0.0026780092157423496
0.04596832022070885
0.014614904299378395
-0.03892040252685547
0.0521591454744339
0.08127385377883911
0.05733031779527664
-0.015891920775175095
-0.07359163463115692
-0.0712747722864151
-0.02752147614955902
0.02899482101202011
0.03493267670273781
0.028669554740190506
0.006243419833481312
0.006067587062716484
0.051788415759801865
-0.01875392720103264
0.012348171323537827
-0.00910040084272623
-0.054758425801992416
-0.07355257868766785
-0.028456760570406914
0.025746937841176987
0.0633634626865387
-0.015789929777383804
-0.07909318804740906
0.05415956676006317
0.014968469738960266
-0.05729450285434723
-0.024185150861740112
0.06055133789777756
-0.005307168699800968
0.0018792699556797743
0.018453411757946014
0.039300549775362015
0.05123918876051903
0.0028629170265048742
0.001646110089495778
-0.017595261335372925
0.030763626098632812
0.026205889880657196
0.07469486445188522
0.01361372321844101
-0.06836946308612823
0.054921966046094894
0.04632225260138512
-0.005686265416443348
0.018008505925536156
0.01526836957782507
-0.04404332488775253
-0.05275314673781395
-0.005024375393986702
0.025315221399068832
0.037867046892642975
0.03624095767736435
-0.03412158787250519
0.04268569499254227
-0.0032909258734434843
-0.03336745500564575
-0.030350131914019585
-0.015073440968990326
0.03583963215351105
0.003682658076286316
0.048712357878685
-0.025906100869178772
-0.03220514953136444
0.004080283455550671
0.020462144166231155
-0.04143410921096802
-0.015670154243707657
-0.03425104171037674
-0.07143273949623108
0.11132203042507172
0.036562480032444
-0.0436357818543911
0.020695921033620834
0.01036287471652031
0.03199136257171631
-0.0004547295393422246
-0.022449184209108353
-0.05780446156859398
-0.020903028547763824
-0.017418624833226204
0.0220646895468235
0.0044667660258710384
0.09280004352331161
-0.006877943407744169
0.024015147238969803
-0.004800563212484121
0.004545250907540321
0.021263211965560913
-0.038960784673690796
0.01996581070125103
-0.035939548164606094
0.026616215705871582
0.011746121570467949
0.011821202002465725
0.09609603881835938
0.006605613976716995
0.00813815463334322
0.05346876010298729
0.024322088807821274
-0.002659921068698168
0.08204227685928345
-0.06732141971588135
-0.00775895407423377
0.04619444161653519
0.019749535247683525
-0.027704469859600067
0.016921505331993103
-0.03921588882803917
0.0385599359869957
-0.02336616814136505
0.05893803760409355
-0.014553185552358627
-0.005724658723920584
0.03295682370662689
-0.0037419949658215046
0.0071533299051225185
-0.09885264933109283
0.015004018321633339
0.06359510123729706
0.06421145051717758
0.05049183592200279
0.017475107684731483
-0.005221119150519371
-0.010403510183095932
0.0039542485028505325
-0.01755831018090248
0.004283363465219736
0.005315922200679779
-0.09521033614873886
0.019932406023144722
-0.05353675037622452
-0.002182028954848647
0.05619054660201073
0.046149104833602905
-0.04625128209590912
0.009671760722994804
0.015905611217021942
-0.010209619998931885
-0.03409244865179062
-0.012955321930348873
0.003828435204923153
0.012500505894422531
0.007347085513174534
-0.04670067876577377
0.0325484424829483
0.08587639778852463
-0.02367718145251274
0.04206426441669464
-0.008451903238892555
0.002050918759778142
0.00954190269112587
-0.005420559085905552
-0.09530578553676605
0.000494660169351846
-0.09409186244010925
-0.03691533952951431
0.01261788047850132
-0.08173403888940811
0.037371519953012466
0.09877802431583405
0.046908557415008545
-0.06781443953514099
0.004800829105079174
0.057489149272441864
-0.0009194395388476551
-0.005160963162779808
0.04601621255278587
0.011881152167916298
-0.06485586613416672
0.03470492735505104
0.04238475114107132
-0.01779184490442276
-0.024791434407234192
0.0006419398123398423
-0.001697071362286806
-0.02261553332209587
-0.03581750765442848
-0.05471651256084442
0.01786194182932377
0.014839112758636475
0.04881572723388672
0.016341550275683403
0.06721088290214539
-0.03209764510393143
-0.08594020456075668
-0.03344174474477768
-0.02106727473437786
0.01570299081504345
0.041647884994745255
-0.03265715390443802
-0.03628385812044144
0.01667631044983864
0.024486813694238663
0.06422823667526245
0.08018077909946442
0.05545611307024956
-0.005358563270419836
0.038895390927791595
-0.03280195966362953
0.027976591140031815
-0.037750937044620514
0.07183447480201721
-0.016276296228170395
-0.00493462011218071
0.010021026246249676
0.01610805280506611
0.03928869590163231
0.014910586178302765
-0.10986294597387314
0.036566417664289474
-0.009515652433037758
-0.02969292365014553
0.02279721572995186
-0.03544887527823448
0.07428807020187378
0.01566237583756447
0.012075982056558132
-0.029119400307536125
0.015743501484394073
0.00675852969288826
-0.06325481086969376
-0.024948477745056152
0.028555821627378464
0.018246278166770935
-0.024316899478435516
-0.014243561774492264
-0.010209491476416588
-0.04580789431929588
0.10674773901700974
-0.020439796149730682
-0.04776337742805481
-0.01182840671390295
0.01452493667602539
-0.038608960807323456
-0.004822411574423313
-0.08902078866958618
0.05296650156378746
-0.02708817832171917
-0.009310661815106869
0.009664680808782578
-0.026402048766613007
0.052434757351875305
0.015946317464113235
0.000575261190533638
0.03048061393201351
0.027356304228305817
0.029420822858810425
0.01805276609957218
-0.020369675010442734
-0.05359341949224472
-0.01562657579779625
0.0921478196978569
-0.04330230876803398
-0.026271294802427292
-0.018406163901090622
-0.00893656350672245
0.019309837371110916
-0.009747691452503204
-0.06760652363300323
0.05935323238372803
0.011266389861702919
0.023617293685674667
-0.022112086415290833
-0.03585962951183319
0.0484776645898819
0.004249685909599066
0.05703432485461235
-0.02088775299489498
-0.03380874544382095
0.0067142765037715435
-0.0005176104605197906
-0.03562505170702934
-0.012401444837450981
0.03218497335910797
0.0055484711192548275
0.0004726337210740894
0.053712524473667145
-0.0020264522172510624
-0.09148916602134705
0.0724937692284584
-0.0004577048239298165
-0.0015237964689731598
-0.08074264228343964
-0.024609260261058807
-0.006275232881307602
-0.044420912861824036
0.006549244746565819
0.08718502521514893
-0.006760345306247473
-0.027684753760695457
-0.06605645269155502
0.06660323590040207
0.008145056664943695
-0.013684774748980999
0.012147223576903343
-0.056307949125766754
-0.06730956584215164
0.05679095536470413
0.02264314703643322
-0.010989943519234657
-0.014344564639031887
-0.001844892161898315
-0.04409191757440567
-0.10284488648176193
-0.10275894403457642
0.03284980356693268
-0.07384177297353745
0.04585140570998192
0.03708026930689812
0.026678871363401413
0.028272584080696106
0.05500532314181328
0.05442743003368378
0.04795936495065689
-0.03787201642990112
0.05977758392691612
0.05757715925574303
0.015820562839508057
-0.003626714227721095
-0.08804099261760712
-0.004926389083266258
0.007959650829434395
0.0008949308539740741
-0.08531133830547333
0.04390990734100342
0.06514410674571991
0.03401026129722595
0.010861346498131752
0.009839342907071114
0.04088740050792694
-0.010612620040774345
0.04494881257414818
0.04891730472445488
-0.02868681028485298
0.04285745322704315
0.03139377385377884
0.063636913895607
0.01889401115477085
-0.02823815494775772
-0.04699420928955078
0.020768001675605774
-0.045890502631664276
0.02076173759996891
-0.034202270209789276
-0.05207892507314682
0.0029687578789889812
-0.039406780153512955
0.045505013316869736
-0.03583815321326256
-0.07543360441923141
-0.03528052195906639
0.03805806115269661
-0.07652269303798676
0.021257635205984116
-0.0365239754319191
0.050458766520023346
-0.032931387424468994
-0.03500225022435188
0.023961422964930534
0.003867177991196513
0.02422090247273445
-0.010875599458813667
-0.014366844668984413
-0.042454615235328674
0.012186496518552303
0.02190648391842842
0.031086502596735954
-0.023690417408943176
0.006841428577899933
-0.0026991781778633595
0.01235229428857565
-0.027766786515712738
0.07834822684526443
-0.034326907247304916
0.02421989105641842
0.021197378635406494
-0.024077434092760086
0.01015489362180233
0.044520676136016846
-0.05203654617071152
-0.043048493564128876
0.03810260444879532
0.012190893292427063
0.04023409262299538
-0.03298603743314743
-0.010785860940814018
-0.0218829195946455
0.033987127244472504
0.012483809143304825
0.07215224206447601
0.06147323548793793
0.014852095395326614
0.014606624841690063
-0.007281006779521704
0.01286509819328785
0.009541342034935951
0.022487876936793327
0.0740409642457962
0.03458895906805992
-0.005836077965795994
-0.008605566807091236
-0.06549407541751862
0.060713525861501694
0.04781210049986839
0.016350027173757553
-0.004021239001303911
0.05609956011176109
-0.05733392760157585
0.03485908359289169
-0.015506918542087078
0.03461463749408722
-0.01837994158267975
-0.015750065445899963
0.03377623111009598
-0.0029357890598475933
0.02009832113981247
-0.005175197497010231
0.07628233730792999
-0.002103684702888131
-0.0008152505615726113
-0.033504366874694824
0.013129647821187973
0.016585607081651688
0.008245641365647316
-0.04375701770186424
-0.01428629644215107
0.005260377656668425
-0.007517745718359947
0.04286975413560867
0.01350585650652647
0.017660288140177727
-0.04573318362236023
-0.01840708777308464
0.015799876302480698
0.04810229688882828
-0.002802778733894229
-0.009775618091225624
0.06262560933828354
-0.0017752419225871563
0.007033847272396088
-0.015840813517570496
-0.027249671518802643
-0.0026048352010548115
-0.015348381362855434
0.0005229773232713342
-0.008565130643546581
-0.046072185039520264
-0.04297877848148346
-0.08638450503349304
0.004919253755360842
-0.0031135855242609978
-0.07494193315505981
0.09744875878095627
-0.0283178873360157
0.009443486109375954
-0.03221740201115608
-0.052677448838949203
-0.015184188261628151
-0.003660762682557106
-0.0062113478779792786
0.0555061511695385
0.024318471550941467
-0.047804661095142365
-0.04405020922422409
-0.002466337289661169
0.014680269174277782
0.023496760055422783
0.009109552949666977
-0.029060885310173035
-0.07382327318191528
-0.025661183521151543
-0.001574845751747489
0.020394064486026764
-0.0984230488538742
0.06551723182201385
-0.018238306045532227
0.0011995858512818813
-0.004440437536686659
0.07132668793201447
-0.005431593395769596
-0.04941919445991516
0.020543072372674942
-0.04073622077703476
-0.013711738400161266
0.03819569945335388
-0.032612141221761703
-0.012457054108381271
0.017449671402573586
-0.02879124879837036
-0.029196787625551224
-0.02252456545829773
0.07773133367300034
-0.024455327540636063
-0.03344340622425079
-0.048701196908950806
-0.06865862756967545
0.015048499219119549
0.10365982353687286
0.017418593168258667
0.023797981441020966
-0.03326067700982094
-0.004600162152200937
0.0021969154477119446
0.04284810274839401
-0.004332131240516901
-0.017740115523338318
-0.11790826916694641
-0.08386290073394775
0.050319209694862366
-0.034454647451639175
0.05453025922179222
-0.025297461077570915
-0.05868219956755638
0.0369410365819931
0.007467402145266533
0.0013953958405181766
-0.01592569798231125
-0.02473352663218975
0.007878921926021576
-0.018612347543239594
-0.06339998543262482
-0.011232247576117516
0.06008119136095047
0.03855418413877487
-0.01219164114445448
0.027608778327703476
-0.045797865837812424
-0.04174426943063736
0.07939566671848297
0.07041662186384201
0.003677572589367628
0.05763483792543411
0.06843842566013336
-0.029541734606027603
0.04335816204547882
0.036570802330970764
0.013213230296969414
0.030404359102249146
0.014096569269895554
0.039528485387563705
0.03380371257662773
-0.05677101016044617
-0.0015294438926503062
0.05314740166068077
0.045339614152908325
-0.033084686845541
-0.040112804621458054
0.0035749475937336683
-0.03515559434890747
-0.023640871047973633
-0.1081392765045166
0.039451003074645996
-0.04915321618318558
-0.020437344908714294
0.060626666992902756
0.042433008551597595
0.07527835667133331
-0.04848652705550194
0.06822429597377777
-0.038072369992733
-0.038763534277677536
-0.038206398487091064
0.029137615114450455
0.06568888574838638
-0.056634120643138885
0.03088526427745819
0.073826365172863
-0.006764238700270653
-0.05709810182452202
-0.01192388217896223
0.018685124814510345
0.026124943047761917
0.009814550168812275
0.06199606508016586
-0.036670781672000885
0.027263302356004715
-0.04258929193019867
-0.007107818033546209
-0.04612350091338158
0.04684364050626755
-0.058542244136333466
0.04985620826482773
-0.0090714730322361
0.03141539543867111
0.007545125670731068
-0.025189131498336792
0.008686982095241547
-0.049530334770679474
-0.015126604586839676
-0.04419892281293869
-0.06602439284324646
0.01986522413790226
-0.10725267231464386
0.02488332986831665
0.0222968440502882
-0.025167513638734818
-0.005100822076201439
-0.033335860818624496
-0.0198386088013649
-0.08990496397018433
0.014380964450538158
0.035285886377096176
-0.010225457139313221
-0.015171913430094719
-0.028640352189540863
-0.008246669545769691
-0.05938674509525299
-0.025047732517123222
0.00799119658768177
-0.08982899785041809
-0.059632256627082825
0.01852342113852501
0.0035005807876586914
0.0007170000462792814
-0.019084960222244263
0.053030721843242645
0.010252410545945168
0.018936580047011375
0.03739023581147194
0.011809556744992733
0.08274392038583755
0.015347553417086601
-0.02843490242958069
0.008029507473111153
0.03030230477452278
0.03945989906787872
0.03317854553461075
0.0628475770354271
-0.05474565178155899
0.0626453161239624
-0.029853543266654015
0.016632093116641045
-0.03337108716368675
-0.012927147559821606
-0.0014220335287973285
-0.011540157720446587
-0.04005073010921478
0.007117231842130423
0.030705902725458145
0.021948983892798424
-0.03168363869190216
-0.08171460032463074
-0.07148268073797226
-0.01688222959637642
0.0640021562576294
-0.07211137562990189
0.02399703860282898
0.009074976667761803
0.03587127849459648
0.051552921533584595
-0.019084405153989792
0.01157150324434042
0.01615920662879944
0.01320413127541542
0.021996915340423584
-0.06166119873523712
0.00022842217003926635
-0.04220641404390335
-0.014699011109769344
-0.07018201798200607
0.011498672887682915
-0.012860588729381561
0.042916640639305115
0.022027773782610893
-0.0033065220341086388
-0.009449289180338383
0.008786779828369617
0.02388368919491768
0.018232323229312897
-0.003974792081862688
-0.05042576789855957
-0.005326205864548683
0.01914067193865776
0.018307382240891457
0.02557188645005226
0.003258534474298358
0.01591361127793789
-0.0401872843503952
-0.009629961103200912
0.05026232451200485
0.021327052265405655
0.005448237061500549
0.017210550606250763
-0.007466016337275505
0.021001411601901054
0.006905452348291874
-0.02472531609237194
-0.06046592816710472
-0.012449849396944046
-0.02031322754919529
-0.03331084921956062
-0.02525150775909424
-0.048306986689567566
0.05412673205137253
0.008974216878414154
0.004359702114015818
-0.043184809386730194
-0.037748903036117554
-0.0734720230102539
-0.004446422215551138
0.042570218443870544
-0.00021147658117115498
0.04444799944758415
0.019989412277936935
-0.01693795621395111
0.05282454937696457
-0.02747098170220852
0.0448029562830925
-0.00998686347156763
-0.017380353063344955
-0.00856663566082716
-0.015306485816836357
-0.015475953929126263
0.0019285593880340457
0.06403500586748123
-0.04549751430749893
-0.03047366999089718
-0.08882000297307968
-0.015096649527549744
0.03427640721201897
0.010736528784036636
0.01823459565639496
-0.012896484695374966
0.0057327053509652615
0.0017429233994334936
0.02589181438088417
0.006456140428781509
-0.07330498099327087
0.009125497192144394
-0.029526829719543457
-0.027387533336877823
0.015542220324277878
-0.022064343094825745
0.07541744410991669
0.04842772334814072
0.012088146060705185
-0.0020669270306825638
0.02799745462834835
-0.021159259602427483
-0.06378889828920364
0.015014443546533585
-0.03425245359539986
0.02958829514682293
0.058241620659828186
0.05614865571260452
-0.06515534967184067
0.013043696992099285
-0.0095512168481946
0.04658312723040581
-0.04298378527164459
-0.008580711670219898
-0.08755731582641602
-0.018662771210074425
-0.06862369179725647
0.09624766558408737
0.042987823486328125
0.06068510562181473
-0.00013328116619959474
-0.05754576623439789
0.05016415938735008
-0.0033545782789587975
0.07388592511415482
-0.04112003743648529
0.02111724391579628
-0.052852146327495575
-0.022261422127485275
-0.009078094735741615
0.03371245041489601
0.053439587354660034
0.009071920067071915
0.07119809836149216
-0.013152698054909706
-0.00959688238799572
0.002278999425470829
-0.019335996359586716
-0.06639473140239716
0.01924092136323452
-0.03144625574350357
-0.032902173697948456
0.028759099543094635
-0.06402833014726639
-0.015141665004193783
-0.05477933585643768
0.04266440123319626
-0.001691836747340858
0.009740534238517284
0.040497198700904846
0.0356002077460289
0.01661498099565506
0.014171130023896694
0.023417819291353226
-0.016822732985019684
0.01575329713523388
0.013158552348613739
-0.08603036403656006
0.01120481826364994
0.035282112658023834
-0.05350698158144951
-0.09259575605392456
-0.06899121403694153
0.011736420914530754
0.03915400803089142
0.04247618466615677
0.03397200256586075
0.059495724737644196
0.03080708347260952
-0.037813715636730194
-0.038266006857156754
-0.07488662004470825
-0.014927918091416359
0.018370239064097404
-0.0020365077070891857
-0.03561970964074135
-0.041071511805057526
-0.07362088561058044
0.07201601564884186
0.009204920381307602
-0.06794632971286774
-0.01924646645784378
-0.06168552488088608
0.006924564018845558
-0.06527097523212433
0.02418048493564129
-0.03883053734898567
0.022139128297567368
0.023233264684677124
0.017019594088196754
0.00402497686445713
-0.0032550913747400045
0.008207137696444988
-0.022629721090197563
0.06487621366977692
0.003258731681853533
0.03180423378944397
-0.10165949910879135
0.019123919308185577
0.0053624375723302364
-0.007341728545725346
0.0521724671125412
0.07299181818962097
0.06865733861923218
0.01871616765856743
0.021839728578925133
-0.012416495010256767
-0.0085049569606781
0.021996673196554184
0.009225207380950451
-0.03053908795118332
-0.029493845999240875
0.0006502652540802956
-0.013999666087329388
0.05209667235612869
0.03254588693380356
-0.018715456128120422
0.049502402544021606
-0.05250168591737747
0.030022619292140007
0.016578752547502518
-0.023363811895251274
0.07513666152954102
-0.05504155904054642
0.07130733132362366
-0.015684090554714203
-0.056309692561626434
0.051099181175231934
-0.07694259285926819
0.03752141445875168
0.11447053402662277
-0.17030684649944305
0.028681498020887375
-0.012688767164945602
0.042499374598264694
-0.029946183785796165
-0.008381065912544727
-0.00419424194842577
-0.05898294597864151
0.0606505386531353
-0.05914240702986717
0.005844160448759794
-0.0011016775388270617
-0.023814596235752106
-0.02414412423968315
0.033091235905885696
0.06104222685098648
-0.009172136895358562
0.018733685836195946
-0.03433221951127052
0.016574542969465256
-0.05965936928987503
-0.024250220507383347
-0.06444090604782104
-0.011111680418252945
-0.012858185917139053
0.03020162507891655
0.052857931703329086
0.04896213114261627
0.08002600818872452
0.03946072980761528
0.04259514436125755
0.06075100228190422
-0.004602799192070961
0.023451052606105804
0.005836630240082741
0.029423289000988007
-0.0036118230782449245
0.03439505770802498
-0.055964186787605286
-0.023527873679995537
-0.01613778993487358
-0.00811551883816719
0.021116681396961212
0.012030130252242088
0.05052517354488373
-0.057752951979637146
-0.0675002783536911
-0.021232008934020996
-0.07977008819580078
-0.06741616874933243
0.03812502324581146
0.014405719004571438
-0.05868437886238098
-0.014649609103798866
0.0015524509362876415
0.015856986865401268
0.017321236431598663
-0.022212360054254532
0.02414076402783394
0.045425012707710266
0.02466488629579544
0.07963349670171738
0.0019212695769965649
-0.013905087485909462
0.018926601856946945
-0.03100869432091713
-0.004808888770639896
0.07265669107437134
-0.03616878390312195
0.04249488562345505
0.015101848170161247
-0.00811920315027237
0.008888909593224525
0.002905315486714244
-0.0011113414075225592
-0.01637333072721958
0.03031293861567974
0.004491056781262159
0.03436771407723427
0.01558435708284378
-0.019387803971767426
-0.07655902206897736
0.020491380244493484
-0.009184079244732857
0.011434919200837612
0.07343755662441254
-0.042429473251104355
0.006343490444123745
-0.026216469705104828
-0.019923333078622818
-0.009269697591662407
0.06487852334976196
0.059140533208847046
0.06802453100681305
0.034722041338682175
0.03501178324222565
0.014996323734521866
-0.0417892262339592
-0.031652551144361496
-0.01798751950263977
0.034421734511852264
0.011222496628761292
-0.015306967310607433
-0.007852191105484962
0.04285334795713425
-0.05457492172718048
0.005154889076948166
0.0005668890662491322
-0.06497018039226532
-0.0032871407456696033
-0.005061597563326359
-0.0486392006278038
-0.06833159178495407
-0.061335474252700806
-0.025240126997232437
0.01784706860780716
-0.0017026429995894432
0.05545664578676224
-0.000301593157928437
-0.003100327216088772
-0.031832799315452576
-0.026181139051914215
-0.041808873414993286
-0.025633541867136955
-0.051095541566610336
0.08386500179767609
-0.04007323086261749
0.03249885141849518
-0.004274447448551655
0.023543018847703934
-0.026157982647418976
-0.009186379611492157
0.0543188750743866
-0.02800159901380539
-0.015167608857154846
-0.015816310420632362
-0.05553228780627251
-0.028794527053833008
0.03414984047412872
-0.009028139524161816
0.002513354178518057
-0.057762399315834045
0.06643932312726974
0.04118901491165161
0.026891035959124565
0.019770098850131035
0.04555885121226311
-0.017300140112638474
-0.022435804829001427
-0.04465028643608093
0.06242327392101288
-0.025621814653277397
0.0339372381567955
-0.035129182040691376
0.014114225283265114
0.005348308943212032
-0.022035283967852592
0.03138737753033638
-0.020520510151982307
0.0049492372199893
-0.01355394721031189
-0.005307181738317013
0.05300348624587059
-0.01641632243990898
-0.03459762781858444
-0.0662488266825676
0.03530818596482277
-0.018717404454946518
-0.009708419442176819
0.05127963051199913
-0.04512482509016991
-0.0011319334153085947
-0.04601028561592102
-0.0015130776446312666
-0.003383861854672432
0.06155054271221161
0.031115403398871422
0.013957234099507332
0.016913868486881256
-0.008327297866344452
-0.055034127086400986
0.014358270913362503
0.029257003217935562
0.03410949930548668
0.029562946408987045
-0.015575801953673363
-0.027145368978381157
0.04217834770679474
0.025587400421500206
-0.020643923431634903
0.04811128228902817
-0.04113394021987915
-0.031541697680950165
0.0021986947394907475
-0.05138349533081055
-0.03572999686002731
-0.0034711621701717377
-0.03296278417110443
0.013328511267900467
0.017682895064353943
0.062461987137794495
-0.023525774478912354
0.0415971577167511
-0.03441847115755081
-0.05530087277293205
0.01563524641096592
0.00793789979070425
-0.04512568563222885
0.06622724235057831
0.0014867371646687388
-0.010078482329845428
0.012966014444828033
0.018650759011507034
0.009913863614201546
0.012630002573132515
-0.06833551079034805
-0.002600833773612976
0.04683626815676689
-0.056678008288145065
0.004471852444112301
0.0797998383641243
-0.03079945221543312
0.03215979039669037
0.01991637423634529
-0.06995989382266998
-0.06760141998529434
0.0609842948615551
0.03612007945775986
0.046093299984931946
-0.028276368975639343
0.010528847575187683
-0.01126265898346901
-0.038791023194789886
0.018387921154499054
-0.013793207705020905
-0.006336265243589878
-0.04047286510467529
0.006485162302851677
-0.07875412702560425
-0.03096393495798111
-0.04105446860194206
0.0321490652859211
-0.03648975491523743
-0.010540898889303207
-0.041466694325208664
-0.032792773097753525
-0.02599824033677578
0.06138850376009941
0.0026737977750599384
-0.025607241317629814
0.04153262823820114
0.007054844871163368
-0.056056659668684006
-0.0615372471511364
-0.029966002330183983
-0.022562813013792038
-0.09474336355924606
-0.01544901542365551
0.011697718873620033
-0.06188580393791199
0.013066994957625866
0.05827408656477928
-0.02980285882949829
-0.034536004066467285
0.010280175134539604
0.02214503102004528
0.007216925732791424
-0.0007834936841391027
0.03367188200354576
-0.0243593268096447
-0.049810539931058884
-0.049899280071258545
-0.00250414852052927
-0.03554194048047066
-0.05989789962768555
0.06674137711524963
-0.05713817477226257
-0.01251792348921299
-0.008936255238950253
0.02210855297744274
0.04561673849821091
-0.002525976160541177
0.021442405879497528
0.02427985891699791
0.038559626787900925
0.02440161071717739
-0.037554286420345306
-0.013249277137219906
0.0035554252099245787
0.017147300764918327
0.020203880965709686
0.060896724462509155
0.01288781501352787
0.01982390694320202
0.012045219540596008
0.014847423881292343
-0.06462463736534119
-0.04192499443888664
0.02410498820245266
-0.033921174705028534
0.04828808829188347
0.027807313948869705
0.004038545303046703
-0.008862222544848919
0.05330405384302139
-0.014516430906951427
-0.016321968287229538
0.0694725513458252
-0.028308790177106857
-0.02033977583050728
0.01258797850459814
0.046141527593135834
-0.03190767019987106
-0.0926123708486557
0.09068121761083603
0.055829137563705444
0.05228983610868454
-0.015570852905511856
0.0034380590077489614
0.08163203299045563
0.030888766050338745
-0.03222402185201645
-0.06213824450969696
5.451995093608275e-05
-0.020199863240122795
0.07214944064617157
-0.02225356176495552
0.030656125396490097
-0.046780627220869064
0.00712308194488287
-0.00014556219684891403
-0.056601569056510925
-0.0024696551263332367
0.05723036825656891
0.02200397662818432
0.01735641434788704
0.0587625578045845
-0.03058800660073757
0.07180078327655792
-0.04297951981425285
-0.02173387072980404
-0.008818911388516426
-0.08096823841333389
-0.030445409938693047
0.026479776948690414
-0.028929464519023895
0.004720664117485285
0.1009061262011528
-0.05787375569343567
-0.03910382464528084
-0.03968146815896034
-0.009195908904075623
0.05566691979765892
0.06253279745578766
-0.05331408232450485
-0.023796556517481804
0.05961975082755089
-0.021774832159280777
-0.07618919014930725
-0.014680500142276287
0.024661589413881302
-0.010980168357491493
-0.01216207630932331
0.0037043464835733175
-0.05943843722343445
0.05966309458017349
0.07163575291633606
-0.007000889629125595
0.0020958278328180313
0.03463761880993843
0.00032990353065542877
0.05850173160433769
0.013594908639788628
0.028836434707045555
-0.03979867324233055
0.010254941880702972
-0.04539577290415764
0.02494644932448864
-0.0008639618172310293
-0.08137600123882294
0.05981917679309845
0.0420360341668129
-0.04440499469637871
-0.03922431543469429
-0.039457954466342926
-0.04036056995391846
-0.0022324780002236366
0.024682216346263885
-0.02975436858832836
-0.05045311897993088
-0.03280581906437874
0.011792781762778759
0.000726596568711102
0.0025810496881604195
-0.02379857376217842
0.03556318208575249
-0.002717025578022003
0.03442595526576042
0.004326237365603447
0.0173493605107069
-0.009444418363273144
0.06619299203157425
0.00548781082034111
-0.010040439665317535
0.031152164563536644
0.03782142326235771
0.019749976694583893
-0.02946808561682701
0.0091652050614357
0.03977227956056595
0.03792256861925125
-0.0040121860802173615
0.03259330242872238
0.01224229484796524
0.04008079692721367
-0.028551392257213593
0.05230174586176872
0.0014529827749356627
0.01854875311255455
-0.027925506234169006
-0.045606475323438644
-0.06004913151264191
-0.042602814733982086
0.04274106025695801
0.036910250782966614
-0.018131669610738754
-0.045644961297512054
0.01448163390159607
-0.10072128474712372
-0.004616870544850826
0.03559699282050133
-0.013297813944518566
-0.03982501104474068
0.06490567326545715
-0.02307705394923687
-0.0036937834229320288
-0.03341108188033104
-0.0971926748752594
-0.010957470163702965
-0.04014066234230995
-0.05882681906223297
-0.02408282458782196
0.01708681508898735
0.03613409772515297
-0.02518966794013977
-0.047601308673620224
0.05412405729293823
0.003266759915277362
0.013729678466916084
-0.05918516963720322
0.025233417749404907
0.0023735458962619305
-0.047689612954854965
0.05963664874434471
-0.02102014422416687
0.00446100439876318
-0.03386276587843895
-0.015105198137462139
-0.014136388897895813
-0.008951092138886452
0.03208784759044647
0.03870987147092819
-0.02151825651526451
0.021503349766135216
0.017689816653728485
-0.08082996308803558
0.07319788634777069
0.04119788855314255
-0.008198264054954052
-0.029282912611961365
0.051955290138721466
0.05671115964651108
-0.035174086689949036
0.08356037735939026
-0.0874437540769577
-0.03429702669382095
-0.01243125181645155
-0.04673975333571434
0.0026460494846105576
0.012207592837512493
-0.07057809829711914
0.009625129401683807
-0.054920490831136703
-0.14322388172149658
0.11636988818645477
-0.01781412959098816
-0.016092905774712563
0.005505039356648922
-0.022300979122519493
0.1298534870147705
0.0036167888902127743
-0.03286156803369522
0.03421394154429436
-0.07043400406837463
-0.04275019094347954
0.004002825357019901
0.03890613839030266
-0.06383583694696426
-0.09159187972545624
-0.014344887807965279
-0.041980501264333725
-0.0007351187523454428
-0.018068084493279457
-0.036867037415504456
0.09194575250148773
0.051929883658885956
-0.0014576114481315017
-0.006193323992192745
-0.022016707807779312
0.0145614854991436
0.03113444708287716
0.008015659637749195
-0.0034741004928946495
-0.0517188124358654
0.04844614863395691
0.03350013121962547
-0.008225219324231148
-0.01067355927079916
-0.02378191612660885
-0.02643885463476181
0.01771819218993187
-0.0951826274394989
-0.01534196175634861
-2.1607111193588935e-05
-0.0249798521399498
-0.0019999085925519466
0.05969136580824852
0.0022717085666954517
0.031012363731861115
0.06405007839202881
0.01332065835595131
0.03374827653169632
0.031414054334163666
0.008629517629742622
-0.08718152344226837
-0.020875489339232445
0.02231353148818016
0.023396704345941544
-0.017720649018883705
0.08663223683834076
0.047315873205661774
-0.042661152780056
0.09012290835380554
0.025124235078692436
0.001233464339748025
0.03816944733262062
-0.008965772576630116
0.022498197853565216
0.06957735866308212
0.002286834642291069
0.05979263409972191
0.06538037210702896
0.005013123620301485
-0.019722897559404373
-0.022827833890914917
0.007906434126198292
-0.017839988693594933
-0.04783628135919571
-0.0036613070406019688
-0.03802173584699631
-0.026669099926948547
0.010893631726503372
0.12183517217636108
-0.045096829533576965
0.03889694809913635
0.05392598733305931
-0.015856729820370674
-0.017371810972690582
0.06316911429166794
0.006931866519153118
0.02437993884086609
0.027897484600543976
-0.008492574095726013
0.012072091922163963
-0.058289580047130585
0.02582409605383873
-0.032711517065763474
0.052137456834316254
-0.0069081904366612434
0.06875506043434143
-0.009143594652414322
-0.035934172570705414
-0.01673419214785099
-0.03389231488108635
-0.058409057557582855
0.06141498312354088
-0.07623343169689178
-0.05837505683302879
0.011052890680730343
-0.017660610377788544
0.03403003513813019
-0.04368254169821739
0.015130787156522274
-0.055233001708984375
0.032047588378190994
0.04397348314523697
0.012596257030963898
0.01884385570883751
-0.023661119863390923
-0.018676118925213814
-0.005150395445525646
0.005222154315561056
0.03814288228750229
-0.009636025875806808
0.035715192556381226
-0.005039609968662262
0.041664354503154755
0.01706564426422119
0.04045400768518448
0.0411955751478672
0.09396340698003769
-0.03560212627053261
0.03468203544616699
-0.051977165043354034
0.030197501182556152
0.055933695286512375
0.022163664922118187
-0.09191866219043732
-0.04752016067504883
-0.0058177774772048
0.05970209091901779
0.005417469423264265
0.05887138843536377
-0.03308410197496414
-0.043031807988882065
0.035971853882074356
0.04847182333469391
-0.021588526666164398
-0.03305459022521973
-0.04707147926092148
0.02519369125366211
-0.03193209692835808
-0.06021028012037277
0.08742590993642807
0.004097748082131147
-0.03395131975412369
-0.03739327937364578
-0.031813669949769974
-0.02324240654706955
0.008614061400294304
-0.028767263516783714
-0.04919002950191498
-0.039147764444351196
-0.028781499713659286
-0.00535572599619627
0.007614613510668278
0.07169852405786514
0.027737632393836975
0.07272863388061523
0.010405667126178741
-0.05452939495444298
-0.015339314937591553
-0.035483233630657196
0.009360437281429768
0.005915159359574318
0.03268171101808548
0.019900411367416382
0.02478676661849022
-0.05211757868528366
-0.023093273863196373
0.00522513035684824
-0.04107305034995079
0.01899079792201519
0.018167369067668915
-0.09279900789260864
0.04147165268659592
-0.020890427753329277
0.01564553938806057
0.057330936193466187
-0.03674010932445526
0.03385442495346069
0.010820282623171806
-0.01458684541285038
-0.024820253252983093
0.0043599894270300865
-0.02796742133796215
-0.012969553470611572
0.02573850378394127
-0.030953828245401382
0.0233030766248703
-0.04660559445619583
-0.042621761560440063
-0.0389486625790596
-0.0008977436809800565
-0.0352768711745739
-0.033953115344047546
-0.040124185383319855
-0.017028868198394775
-0.022532222792506218
0.057886358350515366
0.017449159175157547
0.06126251816749573
-0.04997445270419121
-0.03532080352306366
-0.076813705265522
0.011293143033981323
-0.016475383192300797
0.05389465391635895
-0.049697231501340866
-0.00895499624311924
0.027724996209144592
-0.049575041979551315
0.04182479530572891
0.060943253338336945
0.04053588584065437
0.046185947954654694
-0.006996181793510914
0.008254170417785645
-0.016269903630018234
0.014373842626810074
0.010313421487808228
-0.0399361327290535
0.0673035979270935
0.017494039610028267
0.002439500531181693
-0.0050324383191764355
-0.019620820879936218
-0.07374072074890137
-0.008748621679842472
-0.010256767272949219
0.04739145562052727
-0.014904661104083061
0.009202448651194572
0.025510292500257492
0.013707796111702919
0.05076167732477188
-0.052867792546749115
0.012250734493136406
0.005802731029689312
-0.04012766480445862
-0.05801207572221756
0.015567496418952942
0.07963493466377258
0.022693917155265808
-0.04373025521636009
-0.05258303880691528
-0.04714615270495415
-0.02529943734407425
0.0295080728828907
-0.034143537282943726
-0.005312744528055191
-0.04744517058134079
-0.018209658563137054
0.016780033707618713
0.0490855798125267
-0.03319897875189781
-0.010695218108594418
-0.010225707665085793
0.03527998924255371
0.008539729751646519
0.006286184769123793
0.07070665806531906
-0.002749183215200901
-0.003701952286064625
-0.03954281657934189
0.02653900906443596
0.0003730806929524988
0.07498181611299515
-0.022878197953104973
0.04743656516075134
0.009513942524790764
-0.019352015107870102
-0.0791621059179306
-0.007974855601787567
-0.00573266576975584
-0.018587352707982063
0.032006677240133286
-0.05233194679021835
-0.06373010575771332
-0.05046452209353447
0.0494694709777832
0.01151297241449356
0.06403407454490662
0.002318922197446227
0.024867940694093704
0.022203920409083366
-0.01710228994488716
-0.010232026688754559
-0.00416844105347991
0.08257579058408737
0.013208295218646526
0.034732840955257416
0.000371243164408952
0.035978764295578
-0.04109974950551987
-0.11287858337163925
-0.0834926962852478
0.07151506096124649
0.0013223427813500166
-0.020006965845823288
-0.042206838726997375
-0.00038666449836455286
-0.04447629675269127
-0.003962262999266386
-0.06737615168094635
-0.05683308467268944
0.02388336881995201
0.07040134072303772
-0.02476341836154461
-0.04240523278713226
0.015809644013643265
0.018881795927882195
-0.03488597273826599
-0.033654291182756424
0.09718064963817596
-0.010673599317669868
0.06031520292162895
-0.03158285841345787
0.011366914957761765
-0.018008921295404434
-0.09944971650838852
-0.051983918994665146
-0.04454459249973297
0.009469008073210716
0.032176703214645386
0.07567860186100006
-0.009479503147304058
0.040412966161966324
-0.0623881034553051
0.009126663208007812
0.033807963132858276
-0.06007332727313042
0.01970430463552475
0.04793349653482437
0.05040287971496582
0.042819544672966
0.029585368931293488
-0.024066440761089325
-0.024988621473312378
-0.019045058637857437
0.00899797584861517
-0.0314326286315918
-0.012293476611375809
-0.010421611368656158
0.014564407989382744
-0.0635431632399559
0.03925066068768501
-0.0033692209981381893
0.004908556118607521
0.004462154116481543
0.036079950630664825
-0.042348094284534454
0.0299450121819973
0.03171287104487419
0.07838401943445206
0.018127506598830223
0.01964730955660343
-0.007129681762307882
-0.01254726480692625
0.026284968480467796
0.0022364272736012936
-0.06634759902954102
-0.036200933158397675
-0.11569914221763611
0.0038916466291993856
0.010242145508527756
0.008611141704022884
-0.027673346921801567
-0.0187159962952137
-0.00032754632411524653
0.019700750708580017
-0.05654042959213257
0.0058439928106963634
-0.03391912579536438
0.05143251270055771
-0.07909588515758514
-0.001570621388964355
0.03901100903749466
-0.005548005923628807
0.06193806231021881
0.0021584886126220226
-0.01925540715456009
-0.023539064452052116
0.026941116899251938
-0.04483721777796745
-0.02022436261177063
0.006842011120170355
0.02553649991750717
0.05727323144674301
0.014881721697747707
-0.015348019078373909
-0.05376031622290611
0.012142334133386612
0.05788717418909073
0.006109726615250111
-0.04169994592666626
0.054217781871557236
0.06060205027461052
-0.0513279065489769
-0.07187719643115997
0.015337396413087845
0.01717253401875496
-0.049299344420433044
-0.00219129491597414
-0.07716134190559387
-0.023093856871128082
0.029351405799388885
0.002892902586609125
0.022859422490000725
0.012332363054156303
-0.014888769946992397
-0.05001157522201538
-0.034144993871450424
0.024707071483135223
-0.0003381936112418771
-0.01932382956147194
0.03470109775662422
0.021367013454437256
0.0005898119416087866
-0.06514507532119751
-0.03151434659957886
0.052963435649871826
0.010647824965417385
0.006863878574222326
0.020456252619624138
0.0315006785094738
0.021943163126707077
-0.05045642703771591
0.014497010037302971
-0.032694295048713684
-0.000492663704790175
0.014793220907449722
-0.05125170946121216
0.039581939578056335
0.024251479655504227
0.00870585348457098
0.008135606534779072
0.003603927558287978
-0.02279212698340416
0.05173690244555473
-0.004865766037255526
-0.0330306738615036
-0.022506482899188995
-0.022345077246427536
0.02305622026324272
0.02225182019174099
-0.04051170498132706
0.01318359188735485
-0.08900973200798035
0.06118583679199219
-0.06464067101478577
0.02381947450339794
-0.06365074962377548
0.040588270872831345
-0.022626779973506927
0.054134171456098557
-0.03127260506153107
-0.047012828290462494
-0.06828003376722336
-0.04162169247865677
-0.0026701639872044325
-0.019536947831511497
-0.01624447852373123
-0.025239791721105576
0.043133772909641266
0.013288844376802444
0.008165142498910427
-0.045318108052015305
-0.12473571300506592
0.02787196636199951
-0.04390428587794304
0.05736599490046501
0.05686540901660919
0.01910167932510376
-0.005928737111389637
-0.02740081213414669
0.03087616339325905
-0.01231486164033413
-0.028848862275481224
0.0490705631673336
-0.008961983025074005
-0.026820186525583267
0.009772947058081627
-0.020730409771203995
-0.02092568390071392
-0.05976103991270065
0.006902892142534256
0.09448309987783432
0.026379525661468506
0.032378003001213074
-0.03998880833387375
-0.016530610620975494
0.016926102340221405
0.003681069938465953
-0.02428412064909935
-0.025211133062839508
-0.07792104780673981
0.003659777110442519
0.07031439244747162
0.014495905488729477
-0.008069704286754131
-0.015696782618761063
-0.06272979080677032
0.022684670984745026
-0.04784008488059044
-0.017011627554893494
0.02829282358288765
0.011355133727192879
-0.02000252902507782
0.005607239902019501
0.05795982480049133
-0.011023856699466705
-0.03558722138404846
0.019095156341791153
-0.008818515576422215
0.01317625306546688
-0.06289991736412048
0.020062044262886047
-0.06207449361681938
-0.03392055630683899
0.02189338020980358
-0.03188042715191841
-0.058258913457393646
0.05237061530351639
-0.02760501019656658
0.06159953400492668
-0.0002667736553121358
-0.10387672483921051
0.003491054754704237
-0.05155093967914581
-0.03707575798034668
-0.013956049457192421
0.012522021308541298
0.04240491986274719
0.0235105212777853
0.06889405101537704
0.07681524008512497
-0.0126850176602602
-0.03577612340450287
-0.03502453863620758
0.0076065524481236935
-0.04774431139230728
-0.03938749060034752
0.036233484745025635
-0.013055909425020218
-0.002904491266235709
0.026867404580116272
-0.0034629260189831257
-0.03342386707663536
-0.011532857082784176
0.038267187774181366
0.0729963630437851
0.04376037046313286
0.061504654586315155
-0.027119286358356476
0.0399864986538887
0.016587937250733376
0.012718023732304573
-0.00011625316983554512
0.0409470871090889
0.0021176934242248535
0.0071557993069291115
-0.05948379263281822
-0.006997011136263609
-0.005642123520374298
0.004888047929853201
-0.04229719191789627
-0.0013196819927543402
-0.0967620462179184
-0.04785711690783501
0.04838696867227554
-0.04586565122008324
-0.0403275191783905
0.03391323238611221
0.02750246599316597
-0.004147674888372421
-0.0008067573653534055
0.017129648476839066
0.009802121669054031
-0.0049830470234155655
0.01202462986111641
-0.08665996044874191
0.06645828485488892
-0.008144250139594078
-0.03786351531744003
-0.01356006320565939
-0.029133722186088562
-0.03283768147230148
-0.06598861515522003
0.10007727146148682
0.0057391333393752575
0.014218881726264954
0.031365152448415756
0.07020167261362076
0.06954897195100784
-0.009124798700213432
0.008603686466813087
0.02678418904542923
0.028319573029875755
-0.022028502076864243
-0.016151027753949165
0.026208139955997467
0.08853480219841003
-0.021008845418691635
0.03729719668626785
-0.016919251531362534
0.05228814110159874
0.07907699048519135
-0.03135416656732559
-0.029573706910014153
0.006807816680520773
-0.043302588164806366
0.0366605743765831
0.0009529356611892581
-0.00155035057105124
-0.05226520448923111
0.028912847861647606
0.04638440161943436
0.015859397128224373
0.02318946272134781
0.07297572493553162
-0.036064039915800095
-0.034971337765455246
0.014710969291627407
-0.0773693099617958
-0.007281459867954254
0.018565207719802856
-0.029233291745185852
0.03811194747686386
-0.008659344166517258
-0.03010021708905697
0.00845353864133358
-0.02846674434840679
-0.01911814883351326
-0.013075180351734161
-0.008970522321760654
-0.039073310792446136
0.02816108986735344
-0.03453070670366287
0.05846436321735382
-0.13308757543563843
-0.05765954777598381
0.019028281792998314
0.0013813915429636836
-0.05261234566569328
-0.02629534713923931
0.07359952479600906
-0.05709511786699295
-0.019564826041460037
-0.03952781483530998
0.004170359577983618
-0.0022971208672970533
0.016748830676078796
-0.03452761098742485
0.005491109099239111
0.007424376904964447
0.045605890452861786
0.005733061581850052
-0.012452993541955948
-0.034095149487257004
-0.03821341693401337
0.03944966569542885
0.02186676859855652
-0.026515085250139236
-0.05486075580120087
0.03894563019275665
0.004633377306163311
0.09351178258657455
0.043668873608112335
-0.017230931669473648
0.02332393079996109
0.010816730558872223
-0.041298601776361465
0.09618189930915833
0.009858550503849983
0.002918987302109599
0.029210887849330902
0.03757517412304878
-0.09660466015338898
-0.01853172481060028
-0.07341614365577698
-0.0795845091342926
-0.03264649957418442
0.001212199218571186
0.04842735826969147
-0.011995255015790462
-0.03579643368721008
-0.01248299889266491
0.03839915245771408
0.04565788805484772
0.015091224573552608
0.02797902747988701
0.0012820340925827622
-0.05276520177721977
-0.008599954657256603
-0.04807426035404205
-0.13842573761940002
-0.0062262131832540035
0.004177891183644533
0.016961459070444107
-0.006795527413487434
-0.006023191846907139
0.03117084875702858
0.006727485917508602
0.050665609538555145
0.028347283601760864
0.030902719125151634
0.08549639582633972
-0.08827489614486694
-0.04786732792854309
-0.04414456710219383
0.006963371764868498
-0.011341655626893044
-0.053431980311870575
-0.04092299938201904
-0.07301584631204605
-0.0014702409971505404
-0.03738182783126831
0.03200780227780342
-0.033527880907058716
-0.0007786031346768141
0.037791453301906586
-0.02619640901684761
-0.010499677620828152
-0.07856278121471405
0.04585523158311844
-0.03179068863391876
0.08636900037527084
0.1000339686870575
-0.001883799908682704
0.0023227715864777565
-0.006295269355177879
0.016874998807907104
0.002995668677613139
-0.00436687096953392
-0.027382029220461845
-0.02496567741036415
-0.03656438738107681
0.08811803162097931
0.028858914971351624
-0.012025135569274426
0.008702915161848068
-0.04345300793647766
-0.014215951785445213
0.010524371638894081
-0.026296323165297508
0.01724948361515999
0.0014104944420978427
0.03014124184846878
-0.04774487763643265
0.027045629918575287
-0.03666828200221062
0.0750725120306015
0.03601590543985367
-0.009751304052770138
-0.03145560249686241
-0.017309073358774185
-0.0923297107219696
-0.0004025720409117639
-0.0483316034078598
0.02102608047425747
-0.04989364743232727
-0.06846219301223755
-0.033533744513988495
0.035551756620407104
-0.04155964404344559
-0.019190683960914612
-0.056093569844961166
0.07362055033445358
0.0922112986445427
-0.05013061314821243
-0.003389406716451049
-0.03467113524675369
0.07143652439117432
-0.10078956186771393
-0.019732527434825897
0.029422570019960403
-0.012879319489002228
0.052274830639362335
0.04539189860224724
0.01724381372332573
-0.1081106886267662
-0.006540307309478521
-0.015891458839178085
0.06948894262313843
-0.019226254895329475
-0.024372737854719162
0.024126086384058
0.013026079162955284
0.08572480082511902
-0.012026170268654823
-0.07025554031133652
-0.0027601048350334167
0.0014868795406073332
-0.02473289519548416
-0.012925023213028908
-0.0028253039345145226
-0.06422793120145798
0.028486747294664383
-0.0036847449373453856
-0.0005628947401419282
-0.014678416773676872
0.002239684807136655
-0.014692701399326324
-0.013590484857559204
0.0011843236861750484
0.04178420454263687
0.016938453540205956
0.05987788736820221
0.022676002234220505
0.035658564418554306
0.07323643565177917
-0.059297479689121246
-0.07068410515785217
-0.005627842620015144
0.028442654758691788
-0.03882092237472534
0.03511828929185867
-0.006081112660467625
0.036153536289930344
-0.01369493454694748
-0.03560634329915047
0.04387098178267479
0.017552843317389488
0.06409428268671036
0.00020745856454595923
-0.03413429111242294
0.05029035732150078
-0.008384853601455688
-0.035837508738040924
-0.08670538663864136
0.030011367052793503
-0.0007064092787913978
-0.007590857334434986
0.001461224164813757
-0.021260779350996017
0.008582746610045433
0.0699247270822525
-0.09533955901861191
-0.03333070129156113
-0.03278101608157158
0.016577860340476036
-0.061968713998794556
-0.013789880089461803
-0.04346935451030731
-0.032916173338890076
0.04815749078989029
0.049669042229652405
-0.017005406320095062
-0.015542290173470974
0.03200990706682205
-0.0356835275888443
-0.03854958713054657
-0.03790491819381714
-0.06224053353071213
-0.04584351181983948
0.07762478291988373
-0.03150704875588417
-0.026544198393821716
0.01751583442091942
-0.023319562897086143
-0.031312767416238785
-0.010897118598222733
0.015769802033901215
-0.0958346277475357
0.011355483904480934
0.0005539597477763891
0.029982170090079308
-0.042857423424720764
0.03807247802615166
0.014408361166715622
-0.015460332855582237
0.00044848068500868976
-0.019154401496052742
0.04755420237779617
0.06827695667743683
0.02015724778175354
0.07100538909435272
-0.006411539390683174
-0.013227215968072414
0.02627156488597393
0.02649628184735775
0.07707183808088303
0.022291921079158783
0.07941026985645294
-0.0948798879981041
0.0049738213419914246
0.004559420049190521
-0.09359811246395111
-0.01509902998805046
-0.042973604053258896
-0.017175760120153427
-0.04079184681177139
0.03666580095887184
-0.03644189238548279
0.003166145645081997
-0.029868047684431076
-0.0072557153180241585
0.004886508919298649
-0.011502297595143318
0.011280498467385769
0.048737816512584686
0.015428446233272552
0.04746350646018982
0.023604830726981163
-0.019768770784139633
-0.011220994405448437
-0.014361749403178692
0.03975512832403183
-0.004214738495647907
0.04553709924221039
-0.014560665935277939
-0.05383622646331787
0.042140282690525055
-0.04873690754175186
-0.05573807656764984
-0.0035613002255558968
0.03053477220237255
-0.006115772761404514
0.03937661647796631
0.026942601427435875
-0.03522204980254173
-0.03674732893705368
-0.08423012495040894
0.07305904477834702
-0.05888177454471588
0.029474813491106033
-0.0696420967578888
0.019891679286956787
0.035621292889118195
-0.03189212456345558
-0.06607077270746231
-0.015544185414910316
0.01128382608294487
0.042723532766103745
0.0822916105389595
-0.027015572413802147
-0.07764169573783875
-0.03693869709968567
-0.009270336478948593
0.03238224983215332
0.01064800750464201
-0.0005397467757575214
0.05635663494467735
0.021359223872423172
-0.01780633255839348
-0.022439254447817802
-0.017546549439430237
-0.007569672539830208
-0.058704644441604614
0.03275195136666298
-0.05050798878073692
0.005780738778412342
-0.04077424108982086
-0.0401841476559639
0.10080301761627197
0.048851992934942245
-0.02514105662703514
0.05103785917162895
-0.030424315482378006
0.017819160595536232
-0.014860859140753746
0.022787123918533325
-0.03612308204174042
-0.06093886122107506
0.015059872530400753
-0.013558750972151756
-0.017771562561392784
-0.02625448815524578
0.02450120449066162
-0.023947810754179955
-0.006935335695743561
0.027099130675196648
0.009430376812815666
-0.044195812195539474
0.02966758981347084
-0.015732809901237488
-0.0344410315155983
0.035589799284935
0.03356601297855377
0.03709094226360321
0.016265835613012314
-0.052452754229307175
-0.05467657744884491
0.00412012031301856
0.02720077894628048
0.026035917922854424
0.025252006947994232
-0.004032955504953861
-0.004053086973726749
-0.03420594707131386
-0.017211558297276497
-0.009053452871739864
-0.1313752830028534
-0.0005002778489142656
-0.029231533408164978
-0.02653232030570507
-0.07433521002531052
-0.05918192118406296
-0.03664291650056839
0.03831300511956215
-0.012004552409052849
-0.04839859530329704
-0.028272174298763275
-0.007636760361492634
-0.005437386687844992
0.045445121824741364
-0.0042021083645522594
0.026893097907304764
0.010984797030687332
0.04390173405408859
-0.07342637330293655
-0.0035807075910270214
0.06440900266170502
0.03743976354598999
-0.0986374169588089
0.008553458377718925
0.012208342552185059
-0.04326900094747543
-0.02181173488497734
0.07783734798431396
0.03324973210692406
-0.02820512279868126
-0.0019304001471027732
-0.02322453260421753
0.07518177479505539
-0.018032992258667946
0.05829281732439995
0.035535991191864014
-0.011663544923067093
0.030862167477607727
0.02358001284301281
0.016149718314409256
-0.0288570336997509
-0.023524349555373192
-0.004334503784775734
-0.03301560506224632
-0.03554792329668999
0.006341145373880863
0.06842994689941406
-0.046050991863012314
-0.005177784711122513
0.003883115481585264
0.02825295180082321
0.07417547702789307
0.0161402877420187
-0.040380652993917465
0.05604630336165428
-0.04971624165773392
-0.03175511956214905
-0.005697458051145077
-0.010292401537299156
-0.03630073741078377
0.006288518663495779
-0.028323717415332794
-0.03208978474140167
-0.0044366843067109585
0.032521236687898636
0.007117357105016708
0.04002686217427254
0.0010071337455883622
0.037139568477869034
-0.004659569356590509
-0.06542785465717316
0.07120822370052338
0.04965844377875328
-0.015296346507966518
0.09197801351547241
-0.011831505224108696
0.045182228088378906
-0.019463464617729187
-0.026220303028821945
-0.029676098376512527
-0.02253471314907074
0.04983971640467644
-0.033000119030475616
-0.06643421947956085
0.04679509624838829
0.003695995546877384
0.02026306837797165
-0.011307746171951294
0.03696044906973839
-0.0496668741106987
-0.008235154673457146
0.016876861453056335
0.02324872463941574
-0.056507423520088196
0.02194477617740631
0.0021466254256665707
-0.015801364555954933
-0.02459036558866501
0.06553652137517929
-0.054669417440891266
0.0069158244878053665
0.016514228656888008
0.009248069487512112
-0.0565628707408905
0.007537526078522205
0.0182846337556839
0.05097013711929321
-0.03629983961582184
-0.020611828193068504
-0.01612272672355175
0.0254503320902586
-0.09400016069412231
0.03902861475944519
0.06962715089321136
0.03127298504114151
-0.04058361053466797
-0.009653509594500065
0.01082514226436615
-0.027829337865114212
0.02176358364522457
0.02630404755473137
0.06467387825250626
0.011802729219198227
0.0333261713385582
0.009201150387525558
0.04197995364665985
-0.01642543077468872
-0.009473525919020176
0.044882506132125854
0.13621902465820312
0.011979816481471062
-0.019836148247122765
-0.03144655004143715
-0.012403554283082485
0.04695862531661987
-0.0347394235432148
-0.03378660976886749
0.0004603641282301396
0.08484740555286407
-0.000650827307254076
-0.004786137491464615
-0.01175711303949356
-0.009495100006461143
0.044118717312812805
-0.04286481440067291
-0.0020853644236922264
-0.043863192200660706
0.013537740334868431
-0.017651153728365898
0.04318156838417053
0.028293905779719353
-0.08067135512828827
0.027504725381731987
0.026310330256819725
0.004919384140521288
-0.02173997275531292
-0.054448943585157394
0.04967295378446579
0.04508667811751366
0.021473407745361328
-0.023165524005889893
-0.01018982008099556
0.03636712580919266
0.05889870971441269
-0.027274150401353836
0.050320103764534
0.053514063358306885
-0.01251143217086792
-0.07120053470134735
-0.04891708493232727
-0.022924859076738358
-0.012661447748541832
0.026028010994195938
0.045270584523677826
0.02616732381284237
0.03370963782072067
0.028575075790286064
-0.020384233444929123
-0.04699942097067833
0.006428992375731468
-0.010302949696779251
-0.04379548132419586
0.011453764513134956
0.01987551525235176
-0.040783874690532684
0.016411639750003815
-0.042672134935855865
-0.03381321579217911
0.05307377874851227
0.04273712635040283
-0.06831832230091095
0.038214363157749176
-0.049651242792606354
0.014830413274466991
-0.00463668629527092
-0.08931681513786316
-0.03794490545988083
-0.0935879573225975
0.0224040225148201
0.039586614817380905
0.008681428618729115
-0.04901159927248955
-0.02752748504281044
-0.050194986164569855
0.04645748436450958
-0.024834714829921722
-0.028664780780673027
-0.0031346173491328955
-0.029823902994394302
-0.06363282352685928
-0.0171611737459898
-0.011770300567150116
-0.028989184647798538
0.02091890387237072
0.06597334146499634
-0.033087313175201416
0.023374095559120178
0.05053813010454178
0.052709273993968964
-0.021691834554076195
0.00020383481751196086
0.09745165705680847
-0.002985316328704357
0.023859156295657158
0.03040893003344536
0.023016609251499176
-0.06025417149066925
-0.03322272002696991
0.011337600648403168
-0.019201602786779404
0.012283461168408394
-0.03858419880270958
0.02385215274989605
-0.042900294065475464
-0.030890915542840958
0.028831996023654938
0.03595054894685745
0.07014830410480499
0.016063708811998367
0.03320154547691345
-0.0872395858168602
-0.04713524505496025
0.04088501259684563
-0.022871457040309906
-0.0013057159958407283
0.058591123670339584
0.0500057153403759
-0.055950358510017395
0.010358202271163464
0.007350787054747343
-0.10928549617528915
0.021052200347185135
-0.008626696653664112
-0.003630333114415407
-0.02718314342200756
-0.03625401109457016
-0.06060205027461052
0.05108286440372467
0.043406061828136444
0.03167515993118286
-0.013266626745462418
-0.0015068057691678405
-0.0003839344426523894
0.01902683451771736
0.008756240829825401
0.006576705724000931
-0.018061485141515732
0.06254494190216064
-0.0391293540596962
0.01670423522591591
-0.020624853670597076
-0.04550011083483696
0.006842608563601971
-0.019559070467948914
0.021594956517219543
0.020582564175128937
0.02124462090432644
0.002142967190593481
-0.018039723858237267
0.025418957695364952
0.01486036367714405
0.0030137887224555016
-0.062323227524757385
0.034628789871931076
0.07381047308444977
-0.00933398399502039
0.039113521575927734
-0.03387005627155304
0.007401013746857643
0.01817254349589348
-0.026795795187354088
-0.03205253928899765
0.017778880894184113
0.01912066712975502
-0.04871828109025955
-0.018626892939209938
0.028521917760372162
0.015102005563676357
0.07446477562189102
-0.022421419620513916
-0.02793300710618496
0.05670046806335449
-0.02879451960325241
0.03221771866083145
-0.10452675819396973
0.09568573534488678
0.0006547336233779788
0.005860966630280018
0.015227335505187511
0.058897778391838074
-0.018712183460593224
-0.010843264870345592
-0.0037387991324067116
0.016028862446546555
0.02323870360851288
-0.027039851993322372
-0.04852002114057541
-0.06147018074989319
0.008256902918219566
-0.0017303223721683025
-0.015941688790917397
0.005420278292149305
-0.014355955645442009
0.03520113602280617
-0.03583550080657005
-0.02012256346642971
0.04532496631145477
-0.024684101343154907
0.09161809086799622
-0.015066193416714668
-0.051136307418346405
-0.00823800265789032
-0.009907899424433708
0.0250130295753479
-0.029111189767718315
0.004067716188728809
-0.07189375162124634
0.045835383236408234
0.05987456440925598
-0.030624698847532272
-0.002265996066853404
0.05269131809473038
0.02795182727277279
-0.03385958820581436
0.01691797748208046
-0.0015510651282966137
0.002660338534042239
-0.05521082133054733
0.06160949170589447
0.03786630183458328
0.042602576315402985
0.0007399182650260627
-0.09373723715543747
0.016271762549877167
0.0485435426235199
0.0178512129932642
0.005143655464053154
-0.014383431524038315
0.027677178382873535
-0.008898693136870861
0.04554837569594383
0.07047218084335327
0.02615325152873993
-0.07259001582860947
0.016407523304224014
-0.07119059562683105
0.01664305105805397
0.01616993360221386
-0.012729818932712078
0.004858824424445629
-0.04652559012174606
0.007031220942735672
0.03147074952721596
0.058965202420949936
0.06621402502059937
0.057385530322790146
-0.031501103192567825
-0.0016076000174507499
-0.003459957195445895
0.02197861671447754
0.023448629304766655
-0.07931092381477356
0.00616334518417716
0.019713997840881348
0.014226913452148438
-0.0395735539495945
0.02138962410390377
0.0038794991560280323
-0.0658562034368515
0.030922813341021538
0.07447781413793564
-0.03052630089223385
0.05165673792362213
0.0631600022315979
-0.0020448374561965466
0.09810939431190491
0.04671990126371384
-0.06303845345973969
-0.051977381110191345
-0.05176563188433647
0.027469761669635773
-0.05337567627429962
0.03795702010393143
-0.029545672237873077
-0.02012806199491024
0.04498734697699547
-0.05264934524893761
-0.006706169806420803
-0.04690641909837723
-0.054617203772068024
0.023863835260272026
-0.010582877323031425
-0.04721890017390251
0.028239844366908073
0.06198558211326599
-0.0600622221827507
-0.07506545633077621
0.03777823597192764
-0.0014962753048166633
-0.05509050190448761
-0.05377677083015442
0.02655903622508049
0.031123332679271698
0.005020612850785255
0.022397471591830254
-0.022012045606970787
-0.017188049852848053
-0.009017313830554485
0.02100439742207527
0.025716468691825867
0.039598625153303146
-0.032727308571338654
0.02122824639081955
-0.030725156888365746
-0.03562521934509277
-0.0011749197728931904
0.061196811497211456
-0.037365883588790894
-0.03165958821773529
-0.0005212923279032111
0.07098812609910965
0.024245332926511765
-0.048179738223552704
-0.0038624820299446583
0.03968530148267746
0.022922297939658165
0.030227964743971825
0.03568997234106064
0.04369562119245529
0.009712530300021172
-0.012430219911038876
0.0477973073720932
-0.013943414203822613
-0.07796071469783783
-0.06949834525585175
-0.007677057292312384
-0.029498867690563202
0.00035211199428886175
-0.03715769201517105
-0.07795025408267975
0.026050543412566185
-0.010376307182013988
-0.0002672036935109645
0.08521129190921783
-0.048828981816768646
-0.053539764136075974
0.06203889846801758
-0.013738970272243023
-0.014097454026341438
0.0015599470352753997
0.005767105147242546
-0.02885737642645836
-0.06364680081605911
0.037215881049633026
0.021777525544166565
-0.008942916058003902
0.0226582121104002
-0.02580779604613781
0.014789262786507607
-0.003854925511404872
0.013340836390852928
-0.047957807779312134
0.02303393930196762
-0.031078800559043884
0.02590254507958889
0.04700307548046112
0.011684827506542206
-0.09087182581424713
-0.027793530374765396
-0.05664491653442383
0.029503043740987778
0.030336178839206696
-0.05041034147143364
-0.03708643838763237
0.03455149754881859
-0.04757683724164963
-0.010954535566270351
0.008259820751845837
-0.002133365720510483
0.04589060693979263
-0.0932919979095459
0.005522079300135374
-0.025692014023661613
-0.009460290893912315
-0.021949246525764465
0.0028364253230392933
-0.06427298486232758
-0.018404141068458557
0.06098182126879692
0.03864585608243942
0.03369928151369095
-0.011085569858551025
-0.03720424324274063
0.021242056041955948
-0.04457324743270874
-0.0034970715641975403
0.08371570706367493
-0.0394875705242157
0.014998668804764748
-0.008719495497643948
-0.026344753801822662
0.0477675199508667
0.00536208413541317
0.07502351701259613
0.048145975917577744
0.029684720560908318
-0.06648603826761246
-0.05567869544029236
0.0397195890545845
-0.04330158978700638
0.04942281171679497
-0.04383169859647751
-0.010513115674257278
-0.004245208576321602
-0.01707182452082634
-0.026838336139917374
-0.0002699893666431308
0.04443785548210144
0.024086175486445427
0.03658367693424225
-0.0457158088684082
0.017170816659927368
0.07793251425027847
0.009762474335730076
-0.02660917304456234
-0.05657268688082695
-0.05661925673484802
0.05785359442234039
-0.012159014120697975
-0.04894135892391205
0.00905956607311964
-0.03934848681092262
-0.047539498656988144
0.04720796272158623
0.07332409173250198
-0.008682480081915855
-8.823360258247703e-05
0.027332894504070282
0.06215840205550194
0.02791314385831356
0.026713278144598007
-0.034053362905979156
-0.09690418094396591
-0.038892995566129684
-0.028181446716189384
0.03281431645154953
0.020592909306287766
0.0905781015753746
0.12253083288669586
-0.08581925928592682
-0.011456809006631374
0.006425870582461357
-0.004504918120801449
-0.03412412479519844
0.026000160723924637
0.012628409080207348
-0.1050015538930893
-0.14366331696510315
-0.05575041100382805
-0.004425509367138147
0.012667011469602585
-0.06320887804031372
-0.027148395776748657
0.006554692983627319
0.05628222972154617
-0.002982613630592823
-0.013324625790119171
-0.04896842688322067
-0.03296343609690666
-0.04393237829208374
0.04483337700366974
0.04576597735285759
-0.0027034711092710495
0.02611691877245903
-0.011540829204022884
0.005911925807595253
-0.008297466672956944
0.03362584114074707
-0.02889690175652504
-0.11018934845924377
-0.03793179243803024
-0.055427104234695435
0.011175005696713924
-0.07520966231822968
0.03556117042899132
0.006106731481850147
-0.0715891569852829
-0.05616314709186554
0.06610529124736786
0.00734587712213397
-0.013458616100251675
0.022103969007730484
-0.026130516082048416
0.0002821252273861319
-0.039193086326122284
0.014902699738740921
0.08082263916730881
0.009943496435880661
-0.07816652953624725
0.007898868061602116
0.047700583934783936
-0.03458350896835327
0.024875156581401825
0.04090267792344093
0.06926213949918747
-0.029689831659197807
0.042627573013305664
-0.05512358993291855
0.02459714561700821
-0.05675690621137619
-0.04263249784708023
0.05776689201593399
