0.01662343367934227
0.0129031240940094
0.05037115514278412
0.07079790532588959
0.008452153764665127
-0.004106155596673489
0.013196310959756374
0.018228914588689804
-0.02130165323615074
0.012247906997799873
-0.022099226713180542
0.05188164860010147
0.033804167062044144
-0.017194757238030434
-0.03433861956000328
0.038006365299224854
-0.0076847681775689125
0.009002142585814
-0.0072632888332009315
-0.02505258098244667
-0.022194549441337585
-0.00831593293696642
-0.011379992589354515
-0.0005361295770853758
0.0807335376739502
0.005108939949423075
-0.07804247736930847
0.07323046773672104
0.0811002105474472
-0.01427135057747364
0.025347668677568436
-0.004424856044352055
-0.03632434457540512
0.052577145397663116
0.013724351301789284
0.02253871038556099
-0.03943895921111107
-0.004716238472610712
-0.03476204723119736
0.02260419726371765
0.05225103348493576
-0.05433286726474762
-0.11370065808296204
-0.0687025636434555
-0.08132573962211609
0.04387982189655304
-0.003352341242134571
0.015525572001934052
-0.022045884281396866
-0.05276048928499222
-0.011294441297650337
-0.10145001858472824
-0.011735747568309307
0.02221977710723877
-0.031528010964393616
-0.019358882680535316
-0.0026457044295966625
0.026601260527968407
-0.03282222896814346
0.009352106600999832
-0.0029806119855493307
0.07398872077465057
-0.07996217906475067
-0.016445090994238853
0.036899011582136154
0.04892613738775253
0.053987473249435425
0.046149130910634995
-0.023711740970611572
-0.05411145091056824
-0.06694001704454422
0.049492791295051575
-0.008045829832553864
-0.021396517753601074
-0.026089979335665703
0.001066060271114111
-0.01087602786719799
0.09228453040122986
-0.008004086092114449
0.004294352140277624
-0.03554234653711319
0.027676090598106384
-0.011327071115374565
-0.04716382920742035
-0.016782637685537338
-0.051936693489551544
-0.047041937708854675
-0.06617911905050278
0.002434862544760108
0.03813588619232178
0.025522133335471153
0.034253042191267014
-0.012599322944879532
0.030553702265024185
0.035420507192611694
0.0031842589378356934
-0.035035960376262665
0.01808641478419304
0.09630461782217026
-0.08625368773937225
0.07914255559444427
0.044168777763843536
0.0006009053904563189
-0.04013482853770256
-0.042934395372867584
0.023172182962298393
-0.02723493054509163
0.020513856783509254
-0.02560753934085369
-0.03587304800748825
0.04849310964345932
0.04090328514575958
-0.06189770624041557
0.028847143054008484
-0.04703512415289879
0.01985006593167782
0.017083972692489624
-0.09960974752902985
0.0077103376388549805
0.03646939992904663
0.029598869383335114
0.055559806525707245
-0.031337518244981766
-0.005910780280828476
0.0039175027050077915
-0.01279528345912695
0.006655335426330566
0.010591018944978714
-0.048597969114780426
-0.04778701812028885
0.010915417224168777
-0.02837485633790493
0.0518631637096405
0.039039500057697296
0.03338180482387543
-0.037366628646850586
0.004743887111544609
0.03936914727091789
-0.03713729977607727
0.013858364894986153
-0.03170374035835266
0.012944944202899933
0.04188712686300278
0.024104392156004906
-0.02421119436621666
0.08304393291473389
0.072123683989048
-0.03992752730846405
-0.013440354727208614
-0.0635995864868164
-0.06310336291790009
0.00820331834256649
-0.0022177703212946653
-0.07149788737297058
-0.0010228862520307302
-0.024439319968223572
-0.012471686117351055
0.08280530571937561
-0.07327836006879807
0.0011022567050531507
0.03903202340006828
-0.0887971743941307
-0.0016414871206507087
-0.03905964642763138
-0.04161154478788376
-0.07254637777805328
-0.021040765568614006
-0.011436252854764462
-0.023610197007656097
0.03858795389533043
0.015530376695096493
0.003512002993375063
-0.007625553756952286
0.014240551739931107
0.0449385941028595
-0.06964389979839325
0.01783374324440956
0.027346093207597733
-0.008524341508746147
0.0929403156042099
0.0371256023645401
0.07474119961261749
-0.03120381012558937
0.0276518352329731
0.05443757772445679
-0.0189211368560791
-0.0009320159442722797
0.018083356320858
0.03212356939911842
-0.06534004211425781
-0.003602798795327544
0.013345985673367977
-0.03158798813819885
0.09608817100524902
0.01539008691906929
-0.03851700574159622
-0.05936494097113609
0.03473580628633499
-0.10090377181768417
-0.004683534614741802
0.10536983609199524
-0.09380841255187988
0.08079694956541061
0.03946852311491966
-0.019510310143232346
-0.03411763906478882
-0.02327732741832733
-0.044050052762031555
0.019589999690651894
0.06223191320896149
0.031195517629384995
0.0442938469350338
-0.032067716121673584
0.01120633166283369
-0.04486503452062607
0.04363177716732025
-0.03448139876127243
0.023991120979189873
-0.04596645385026932
-0.0375838428735733
0.004399009980261326
0.1135644018650055
0.06242084130644798
0.012008927762508392
-0.07378058135509491
0.007836307398974895
-0.02914370596408844
-0.017026128247380257
0.08376707136631012
-0.023627355694770813
-0.0802655965089798
-0.06024306267499924
-0.006937235593795776
-0.011334443464875221
0.0451081357896328
0.028578652068972588
-0.020430807024240494
-0.007110206410288811
-0.0013842331245541573
0.00010833545820787549
-0.051558494567871094
0.03527744859457016
0.02686544880270958
-0.013936757110059261
0.04557967185974121
-0.05748175084590912
-0.046979695558547974
0.003224513493478298
-0.050980061292648315
-0.0533413365483284
0.0018290242878720164
-0.12958809733390808
-0.011886156164109707
0.009387747384607792
0.03756071254611015
0.0533505342900753
0.04000411182641983
-0.07836145162582397
-0.029075084254145622
0.009596201591193676
0.012665200047194958
-0.024177616462111473
-0.07287915050983429
-0.024934908375144005
0.0014170034555718303
-0.08035799860954285
-0.06297066807746887
-0.06058688089251518
0.02819018065929413
-0.02970535308122635
0.0012951442040503025
-0.01946099102497101
0.0065049598924815655
-0.06944221258163452
-0.009585941210389137
0.05455952137708664
0.02164432220160961
-0.014800066128373146
-0.08358367532491684
-0.03991561383008957
0.02806546911597252
-0.05035078153014183
-0.0022628610022366047
-0.05415859818458557
0.014687132090330124
0.05305042117834091
0.049306031316518784
0.010948906652629375
-0.05249223858118057
-0.02130812220275402
0.003351990133523941
-0.02967989817261696
0.013391225598752499
-0.00023753239656798542
-0.0596628412604332
0.0383608378469944
0.018308430910110474
-0.01172933354973793
-0.015536739490926266
-0.028295885771512985
-0.014755140990018845
0.031220383942127228
-0.0474809929728508
0.023266341537237167
0.11316648125648499
0.06687631458044052
-0.01785937324166298
-0.029088376089930534
-0.08931979537010193
0.026076382026076317
-0.02590695582330227
-0.0056827194057404995
0.07121327519416809
0.021738853305578232
0.06639863550662994
-0.03287072479724884
0.0688498467206955
0.06699876487255096
-0.03168739005923271
-0.007854415103793144
-0.014183096587657928
0.08568838238716125
-0.0227820985019207
-0.052238717675209045
-0.023025332018733025
0.0058238147757947445
-0.06804288923740387
0.0562070868909359
-0.000833114143460989
0.06633725762367249
-0.01537439413368702
-0.044016532599925995
-0.03873550891876221
-0.0038128518499433994
-0.0047921063378453255
-0.02344232052564621
-0.060128308832645416
0.06020432710647583
-0.012916497886180878
0.046688299626111984
0.0775197446346283
0.028074033558368683
-0.00044851674465462565
-0.05499175935983658
-0.004775411915034056
-0.07813458889722824
-0.02569514885544777
-0.0716630294919014
-0.013702652417123318
-0.0140407495200634
0.02942611649632454
-0.0758567601442337
0.01958664134144783
0.04273994266986847
0.013195440173149109
0.020917197689414024
-0.0029764133505523205
-0.0601092129945755
-0.023326700553297997
0.10470014810562134
0.06909605860710144
0.08303079754114151
-0.05497979745268822
-0.021875759586691856
-0.08359267562627792
-0.02676546201109886
0.0475553423166275
0.04487615078687668
0.03248613700270653
0.03197398781776428
0.004174435511231422
0.015438314527273178
0.006745894905179739
0.0064620403572916985
0.042145662009716034
-0.02549688331782818
0.04031304642558098
0.026777859777212143
-0.0163407102227211
-0.018648087978363037
-0.07808054983615875
0.04009505361318588
0.015515414997935295
0.04220213741064072
-0.03820176422595978
0.02912941202521324
0.017646100372076035
0.057268574833869934
0.006077507510781288
-0.0163649320602417
0.06171087920665741
0.002726312493905425
0.03184840455651283
-0.0036520720459520817
0.006178892217576504
0.0636867955327034
-0.018884824588894844
-0.07377076148986816
0.00154837965965271
0.05270170792937279
-0.0035633831284940243
-0.02274962328374386
0.056644078344106674
-0.05228172242641449
-0.026759713888168335
0.03917418420314789
-0.03984033688902855
-0.05280135199427605
-0.04810207337141037
0.006114485673606396
0.053293462842702866
-0.023941610008478165
0.03096204251050949
-0.036578379571437836
0.004921272862702608
0.027957048267126083
-0.03502022102475166
-0.07266704738140106
-0.028701087459921837
0.09045900404453278
-0.04350593686103821
0.007530194707214832
-0.011439589783549309
-0.044718947261571884
0.04705784469842911
0.05480322986841202
0.09454187750816345
-0.03268876671791077
-0.07586510479450226
0.04863208532333374
-0.07601974904537201
0.0873623937368393
-0.027842819690704346
0.03869634121656418
-0.003350275568664074
-0.01694105938076973
-0.04532424733042717
-0.027732569724321365
-0.028116902336478233
0.029111292213201523
0.0945362001657486
-0.02059757709503174
-0.05044933781027794
0.010492566041648388
-0.0025633983314037323
0.0556052029132843
-0.044747915118932724
0.005389511119574308
-0.05744011700153351
-0.003314599860459566
0.02454453520476818
-0.0738220140337944
-0.05386606603860855
0.004757325164973736
-0.0003575447481125593
-0.08053810149431229
-0.04627765715122223
0.026472076773643494
0.026952248066663742
-0.06360578536987305
-0.0862111896276474
0.027048185467720032
-0.026906706392765045
0.000694788177497685
-0.010353224352002144
0.00951243657618761
0.014375442638993263
-0.014158206060528755
0.00249118497595191
-0.03646885231137276
0.02128373645246029
0.0246240496635437
-0.041220422834157944
0.038090139627456665
0.0033790143206715584
-0.12008856981992722
0.02147323451936245
-0.04550684243440628
0.04712117463350296
0.06922242790460587
0.0071905083023011684
0.01183486357331276
-0.01420422550290823
-0.02365056984126568
-0.010440039448440075
0.008113862946629524
0.06686100363731384
0.001933459541760385
-0.02585512027144432
-0.04240149259567261
0.03811176121234894
-0.003966509830206633
0.04464605078101158
0.03907295688986778
-0.05275794491171837
0.06473136693239212
0.048804715275764465
0.05286727473139763
0.012209801003336906
0.026698574423789978
0.02210654318332672
-0.002801237627863884
0.018286217004060745
0.0037685600109398365
-0.005499930586665869
0.0239594504237175
-0.003638193942606449
-0.006481057032942772
0.020571894943714142
-0.07912909984588623
-0.06298930943012238
-0.026374053210020065
0.03944479674100876
0.006665821652859449
0.025866735726594925
0.033784836530685425
0.026448283344507217
-0.011279614642262459
-0.017544424161314964
-0.02200823836028576
0.03353579714894295
0.043928392231464386
0.0047979895025491714
-0.02568276785314083
-0.015047147870063782
-0.008871011435985565
0.014767350628972054
0.060100555419921875
0.04696230590343475
-0.00869812723249197
-0.059206124395132065
-0.0009802894201129675
-0.0926360934972763
-0.05180606245994568
-0.052965596318244934
0.034037910401821136
0.010015192441642284
0.013690209947526455
0.046865299344062805
-0.0316329151391983
0.0498199425637722
0.017537835985422134
0.0008626007474958897
0.03654027730226517
-0.03260882571339607
-0.031076207756996155
-0.016907863318920135
-0.05041922628879547
0.012432343326508999
0.07643474638462067
-0.07271718233823776
-0.06359951198101044
-0.04655493423342705
-0.004803670570254326
0.012098748236894608
-0.0593646876513958
-0.004933425225317478
-0.013201522640883923
-0.004260964225977659
-0.015876896679401398
0.043208830058574677
0.09260861575603485
-0.045321911573410034
0.029436644166707993
0.008652244694530964
-0.032837726175785065
-0.025702819228172302
-0.035426072776317596
-0.02168348990380764
0.028450658544898033
0.020868463441729546
0.05088922381401062
-0.013720083050429821
-0.015861384570598602
-0.00696585513651371
0.004119141958653927
-0.026166116818785667
0.0429995022714138
0.039015062153339386
-0.03838503733277321
0.02152818813920021
0.028676863759756088
0.04210841283202171
0.006911932956427336
0.03584577515721321
0.009933818131685257
0.022254008799791336
-0.014637398533523083
-0.03248712420463562
-0.028974927961826324
-0.005771007388830185
-0.006662515923380852
-0.007093458902090788
0.007870931178331375
-0.002365551656112075
-0.04216613993048668
0.057131197303533554
0.027591831982135773
0.09305121004581451
-0.03912331908941269
0.012185881845653057
0.011021318845450878
-0.022996604442596436
-0.012823043391108513
0.024634499102830887
0.03941013291478157
0.05252687260508537
0.01422225870192051
-0.01282789558172226
-0.012633802369236946
-0.061330556869506836
-0.06442071497440338
0.038705311715602875
-0.017340343445539474
-0.021103110164403915
-0.004240531474351883
-0.008809283375740051
-0.018864978104829788
0.06445401906967163
-0.006398076191544533
0.05252508446574211
0.002668328583240509
0.04694053530693054
0.043921567499637604
-0.04155069962143898
-0.015181093476712704
-0.010880845598876476
-0.0028703692369163036
0.05866329371929169
-0.0678175762295723
-0.013260258361697197
0.07679721713066101
-0.03888273611664772
0.029466016218066216
0.0004453180299606174
-0.0722009539604187
0.012328198179602623
-0.05755935236811638
-0.04441633075475693
-0.03414822369813919
0.042441144585609436
-0.010890679433941841
-0.017371688038110733
0.04831213504076004
-0.012414357624948025
0.038967546075582504
0.05651809275150299
-0.01395013090223074
0.01095215231180191
0.01235397718846798
-0.08415969461202621
-0.002336751203984022
-0.03342827782034874
-0.06659919023513794
0.02919209748506546
0.018855992704629898
0.04041921719908714
0.025667397305369377
-0.05249544978141785
-0.04983333870768547
0.0010584605624899268
0.07787774503231049
0.08827342838048935
-0.0027084515895694494
0.05187791585922241
0.04029820114374161
0.048932164907455444
0.011306441389024258
0.02979305014014244
-0.037554413080215454
0.04229661449790001
-0.014743411913514137
0.027770493179559708
-0.0664757490158081
-0.05904683098196983
-0.013324366882443428
-0.029789961874485016
0.07044023275375366
-0.017985187470912933
0.025491368025541306
-0.02633453533053398
0.02015448734164238
-0.0230852123349905
0.026589930057525635
0.024785127490758896
0.021884849295020103
0.01150461658835411
-0.017231373116374016
0.031412385404109955
0.026823434978723526
-0.0006963019259274006
-0.013340244069695473
-0.013177279382944107
-0.016156211495399475
0.02250213921070099
-0.03816118836402893
0.019648317247629166
0.027113445103168488
-0.0378006212413311
-0.022084450349211693
0.028879567980766296
-0.0034134944435209036
0.06630518287420273
-0.009918163530528545
0.009630016051232815
0.023865561932325363
-0.09040707349777222
-0.02121121995151043
-0.01414985116571188
0.028694793581962585
-0.031238719820976257
-0.04583480954170227
0.04557843133807182
0.048791006207466125
0.013204485177993774
-0.04355105757713318
0.023944607004523277
0.009575597010552883
0.0751316249370575
-0.001491812989115715
0.022010400891304016
0.03293222188949585
-0.07273006439208984
0.04749462753534317
-0.07253826409578323
-0.021479513496160507
-0.04972776025533676
-0.049880605190992355
-0.05139852315187454
0.007535935845226049
0.008998408913612366
-0.002522767521440983
-0.006608638446778059
0.042770322412252426
-0.07770853489637375
-0.03419763967394829
-0.05240871012210846
0.0011625295737758279
-0.04870263487100601
-0.014983806759119034
-0.08153606206178665
0.05594963580369949
0.016284123063087463
-0.08701784908771515
-0.019002864137291908
0.043311119079589844
0.022162549197673798
0.022713761776685715
-0.07235265523195267
-0.07235386967658997
-0.055165812373161316
0.025028571486473083
0.04879933223128319
-0.04932603985071182
0.04569898173213005
-0.009899124503135681
0.025681205093860626
-0.03337527811527252
0.011238384991884232
0.10889789462089539
-0.005177142098546028
0.028759008273482323
0.03445515036582947
-0.0023419347126036882
0.022832155227661133
0.013534205965697765
-0.07569840550422668
-0.02511267177760601
0.09119891375303268
0.02103428542613983
-0.05895612761378288
0.013604599982500076
-0.02117808163166046
-0.014665735885500908
0.053711604326963425
-0.04636629670858383
-0.01042116992175579
-0.00010948403360089287
-0.030541380867362022
-0.04864571988582611
0.05584803223609924
-0.05800323933362961
0.039345428347587585
0.02443704567849636
0.007893254049122334
0.009391617961227894
-0.03949064761400223
0.03145695850253105
-0.04525678977370262
0.0021673960145562887
-0.04687200114130974
-0.06514380872249603
0.02173650823533535
0.026074450463056564
0.05041598901152611
-0.010589834302663803
0.024849852547049522
-0.020045191049575806
-0.027168694883584976
-0.028826724737882614
0.019940577447414398
0.021049436181783676
0.05593173950910568
0.04423339664936066
0.016093233600258827
0.023219462484121323
-0.03907185047864914
-0.01316097378730774
0.0036921182181686163
-0.05595683306455612
0.046840276569128036
0.003160085529088974
-0.07036162912845612
-0.05664999783039093
-0.055610500276088715
-0.0007975298212841153
0.01749279722571373
0.030984774231910706
-0.06389729678630829
0.014447255060076714
0.04478112980723381
0.020334912464022636
0.019134242087602615
0.04105927050113678
-0.003466058289632201
0.011522818356752396
0.00742720440030098
-0.017214804887771606
-0.014078362844884396
0.08357008546590805
0.03368194401264191
-0.041316013783216476
0.021191205829381943
0.004255661740899086
0.08986331522464752
-0.014741851016879082
0.03092239424586296
-0.1118411049246788
0.03643058240413666
-0.03781163692474365
0.03910791128873825
0.018561379984021187
0.060536883771419525
0.027386805042624474
0.032420188188552856
0.028299834579229355
-0.08681847900152206
0.037074461579322815
0.027807479724287987
0.0440341979265213
-0.04826369881629944
-0.06864716112613678
-0.01074163056910038
0.03790462762117386
-0.03734267130494118
0.014531235210597515
-0.015262885950505733
0.013459442183375359
-0.008832361549139023
-0.044810038059949875
0.01019255444407463
0.04009398818016052
-0.040565475821495056
-0.029748698696494102
0.031960420310497284
-0.07349705696105957
-0.012826642952859402
-0.03750631958246231
-0.01366230845451355
0.00464966194704175
0.08018498867750168
0.07932513952255249
0.06453873217105865
-0.015155840665102005
0.010105433873832226
0.05580267310142517
0.027474679052829742
0.03192712366580963
-0.03247848525643349
0.04032372683286667
0.02450910583138466
0.05236897990107536
-0.06256157904863358
-0.08403356373310089
-0.025025634095072746
0.014663681387901306
-0.011119859293103218
0.036363568156957626
-0.02694135531783104
0.02325896918773651
-0.00666393106803298
-0.015428314916789532
0.04674922674894333
0.03137484937906265
-0.031555842608213425
-0.08324818313121796
0.05197031795978546
0.017669588327407837
0.06726379692554474
-0.031565990298986435
0.024878060445189476
0.00481716264039278
-0.0030185922514647245
-0.04119740426540375
0.09274458885192871
-0.053288280963897705
0.002593514509499073
0.040768418461084366
-0.02302744798362255
0.02711893990635872
0.021987279877066612
-0.028530916199088097
-0.0686691552400589
0.027954239398241043
-0.04675561189651489
-0.05568506568670273
-0.06286986172199249
0.0728442519903183
-0.018751632422208786
0.06508836150169373
0.025724701583385468
0.08777328580617905
0.028343576937913895
-0.002680018078535795
0.026890985667705536
0.07070232927799225
0.005322906654328108
0.0303911454975605
0.02432386390864849
-0.028604626655578613
-0.018313748762011528
-0.03291255980730057
-0.010834111832082272
0.07905427366495132
-0.02307075262069702
0.06075407192111015
-0.021364916115999222
0.02139325812458992
-0.008177075535058975
0.07252474874258041
-0.038607221096754074
0.02357412688434124
0.04467320069670677
-0.03989590331912041
0.020634464919567108
-0.04331844672560692
0.07868622243404388
0.006581521593034267
-0.061460480093955994
-0.030430352315306664
0.0065285442396998405
0.0031587136909365654
-0.036933328956365585
0.0004728478961624205
0.004063487984240055
0.045236870646476746
-0.02545846812427044
-0.0028501548804342747
0.028724104166030884
-0.045271843671798706
-0.05905868113040924
0.043444447219371796
0.0974530503153801
-0.00456803385168314
0.04085167124867439
-0.06515855342149734
0.02843056619167328
-0.03247920423746109
-0.05081471800804138
-0.027186639606952667
0.0312608927488327
-0.1105923280119896
-0.009471984580159187
0.0688786506652832
0.0028699557296931744
0.016168534755706787
0.01849200949072838
-0.05782465636730194
0.007920751348137856
0.01991637796163559
-0.014888196252286434
-0.02152663841843605
-0.007604874204844236
-0.02865423634648323
0.04653320461511612
0.014555219560861588
0.021246831864118576
-0.011061037890613079
-0.02584061585366726
0.016956165432929993
-0.006087077781558037
-0.009180698543787003
-0.07535777986049652
-0.04918267950415611
0.011703009717166424
-0.01505460124462843
-0.022092845290899277
0.01684729754924774
0.02655932307243347
0.039766885340213776
0.02316569909453392
0.047031380236148834
-0.05050203949213028
0.03919219970703125
0.007672569714486599
-0.0802149772644043
0.004738303367048502
-0.005024818703532219
0.0025402377359569073
-0.04501708969473839
0.05355086550116539
0.003381214803084731
0.002302305307239294
-0.03008383885025978
0.05841081961989403
0.026676569133996964
-0.09045745432376862
0.018000464886426926
0.06514906883239746
-0.02554745227098465
-0.040855035185813904
-0.026286108419299126
0.09203033894300461
-0.01190922036767006
0.07177004963159561
0.013629196211695671
-0.054323457181453705
-0.06673996150493622
-0.031626805663108826
-0.04880863055586815
-0.05915214866399765
0.06199496611952782
0.04147963970899582
-0.034195151180028915
0.04987965524196625
0.03845103830099106
0.02966988831758499
0.005693342071026564
-0.07976134866476059
0.014332404360175133
0.010393479838967323
-0.00640109134837985
0.0663122907280922
-0.007943759672343731
0.05581063777208328
0.011220414191484451
-0.013493533246219158
-0.0434318482875824
-0.004904899746179581
-0.020170515403151512
0.02566136047244072
-0.03987564146518707
0.08407972753047943
0.00243670423515141
-0.01737203076481819
-0.004168384708464146
0.020134758204221725
0.048951294273138046
0.057448044419288635
0.017798781394958496
-0.061837464570999146
-0.03817751631140709
-0.02482728473842144
0.0017293435521423817
0.014430630952119827
-0.05476408451795578
0.06186414510011673
-0.030588801950216293
-0.03583372384309769
-0.01389321219176054
0.01673291064798832
-0.025770284235477448
0.004647638648748398
-0.04047488048672676
-0.09180667251348495
-0.0016061252681538463
-0.06615346670150757
-0.014921541325747967
-0.007962759584188461
-0.02003186196088791
0.05742567777633667
-0.011882065795361996
-0.017827890813350677
0.1356157511472702
-0.05693162977695465
-0.050974808633327484
0.021965209394693375
-0.010644488036632538
-0.03159032762050629
0.005360191222280264
-0.06256091594696045
-0.047781579196453094
-0.04515904188156128
0.07601609826087952
0.0010531095322221518
0.055530644953250885
-0.07649573683738708
-0.014535831287503242
0.0005377181805670261
-0.002488226629793644
0.03299994766712189
-0.048424072563648224
-0.03969673439860344
0.030042268335819244
0.06138021498918533
-0.031465448439121246
-0.03254931420087814
-0.021803762763738632
0.02379748597741127
0.009929290972650051
0.055317118763923645
-0.009986286982893944
-0.015649424865841866
0.08210515975952148
0.0365462489426136
-0.029621172696352005
-0.0010932469740509987
0.054090797901153564
-0.037215713411569595
-0.04937531054019928
0.001339391223154962
-0.05075908452272415
0.04026252031326294
-0.02688124030828476
-0.0017431669402867556
-0.06343002617359161
0.03958098962903023
-0.01607496105134487
0.03431808948516846
-0.020350929349660873
-0.007027365267276764
-0.021212268620729446
0.059634000062942505
-0.01601455919444561
0.02443060837686062
-0.0557950995862484
1.0455535459641396e-07
-0.06902862340211868
0.07119964063167572
0.02210208587348461
-0.01312410831451416
0.04201866686344147
0.03189901262521744
0.004571179859340191
-0.027323145419359207
0.05377460643649101
0.04096449911594391
-0.015747958794236183
-0.0259779691696167
-0.07787829637527466
0.02721821330487728
-0.025291603058576584
0.06547045707702637
0.07454097270965576
0.003017782000824809
-0.018190160393714905
0.019224656745791435
-0.07299138605594635
0.027407120913267136
0.04619473218917847
0.03635493665933609
-0.07209064811468124
0.03806590288877487
-0.001915479893796146
0.047238148748874664
0.02911701425909996
-0.014776068739593029
0.012875188142061234
0.08580082654953003
0.016413461416959763
0.045941080898046494
0.05580286681652069
0.036412037909030914
0.034377895295619965
-0.05785944312810898
-0.02961920201778412
0.028522539883852005
0.023840907961130142
0.12901727855205536
0.005307603161782026
0.0074459258466959
-0.1158074364066124
-0.023774776607751846
-0.08456967771053314
0.04070352762937546
0.027168719097971916
-0.05395691841840744
-0.03723638877272606
-0.02949155867099762
0.023636071011424065
0.024848734959959984
0.041828468441963196
-0.014646759256720543
-0.028097357600927353
0.03250445798039436
-0.013124804943799973
0.0057905386202037334
-0.01612667180597782
0.08920381963253021
0.021799180656671524
0.027122817933559418
-0.050412505865097046
0.08881562948226929
-0.026187513023614883
-0.011391709558665752
0.023845916613936424
0.005898279137909412
-0.020914925262331963
-0.03175479173660278
0.0011320653138682246
-0.01706799864768982
-0.01940322294831276
-0.03973715007305145
-0.009464237838983536
0.08915174007415771
-0.01947544515132904
0.05244293063879013
0.01642373576760292
0.006631364114582539
0.041922878473997116
-0.07096363604068756
0.0028371824882924557
-0.0696520283818245
-0.04929526150226593
0.10679170489311218
-0.022681673988699913
-0.06856949627399445
0.05574857443571091
-0.013898114673793316
-0.04490843415260315
0.034710563719272614
0.07514891773462296
0.030775925144553185
0.05722523480653763
0.05218146741390228
-0.06445252150297165
-0.0009501272579655051
0.059648122638463974
-0.023331422358751297
0.0031302371062338352
0.03819448500871658
0.0295235775411129
0.019447483122348785
0.016095655038952827
0.010412423871457577
-0.03451182693243027
-0.033350445330142975
-0.026109155267477036
0.16378256678581238
-0.020934414118528366
0.00395301915705204
0.0602598637342453
-0.04256979376077652
0.026015616953372955
-0.008941341191530228
0.043388914316892624
-0.02792571857571602
0.01441584900021553
-0.06103706359863281
0.012505663558840752
-0.02987525425851345
0.08444126695394516
-0.048086028546094894
0.03223959729075432
0.03212105482816696
0.019054461270570755
0.016044219955801964
0.03479241207242012
-0.04638378322124481
0.0933239609003067
0.01191722508519888
-0.03074393793940544
-0.04733382165431976
-0.02869943156838417
-0.07371649146080017
-0.015094997361302376
0.009187905117869377
0.0015500565059483051
-0.0736548900604248
-0.04803277552127838
0.003710577031597495
-0.07075262069702148
0.0104718878865242
0.01739351637661457
0.04840594530105591
0.03339282423257828
0.014726080000400543
0.010265601798892021
0.018231282010674477
-0.0019367848290130496
-0.004828333389014006
-0.013818502426147461
0.07080616801977158
-0.0911204144358635
0.0070682307705283165
0.06448890268802643
0.09823170304298401
0.02964652329683304
-0.022139236330986023
0.042862698435783386
0.07051696628332138
0.011820017360150814
-0.01716359704732895
-0.07326298952102661
-0.027435479685664177
0.029860159382224083
0.02256905287504196
-0.05552618205547333
0.030753061175346375
0.0034137233160436153
0.023920252919197083
0.06941238045692444
-0.01678488776087761
-0.028850331902503967
-0.010671432130038738
-0.0410165935754776
0.00850912369787693
-0.0207865908741951
-0.03817055746912956
-0.024455592036247253
0.08597013354301453
0.025499043986201286
0.07322810590267181
0.004828197415918112
-0.005338654853403568
-0.06373525410890579
0.024136044085025787
-0.0312128197401762
0.0018996543949469924
-0.06382007151842117
0.006670020055025816
0.04357533901929855
0.029986603185534477
0.04523126035928726
-0.028218036517500877
0.08240954577922821
-0.009869175963103771
-0.029512908309698105
0.01569313369691372
0.014087093994021416
0.0025828799698501825
0.03004666231572628
0.008286449126899242
-0.00282985414378345
-0.06625107675790787
-0.004232530947774649
-0.03858324885368347
0.015455225482583046
-0.04056945815682411
0.0004519796639215201
0.0014208148932084441
0.012602411210536957
-0.0463990718126297
0.004944231361150742
-0.031307972967624664
0.09507036209106445
-0.11077815294265747
-0.06170506775379181
-0.0004478970658965409
0.02123427763581276
0.029346764087677002
-0.00526274461299181
0.008085468783974648
0.04818713665008545
0.01285293698310852
-0.002843450289219618
0.022297311574220657
-0.04480069503188133
-0.012753926217556
0.008930733427405357
0.02879440411925316
-0.060328587889671326
0.03592575341463089
0.018282800912857056
0.02329486981034279
0.013835538178682327
-0.04946261644363403
-0.073214091360569
-0.027522511780261993
-0.05047076195478439
-0.006525089964270592
-0.011395002715289593
0.03396371379494667
0.06530478596687317
0.042341120541095734
-0.015702715143561363
0.029036562889814377
0.0037923576310276985
0.017285507172346115
-0.021933799609541893
-0.008712438866496086
0.10642736405134201
0.028693530708551407
0.09985609352588654
0.01554151251912117
0.051396191120147705
0.054970838129520416
-0.0446728877723217
0.07107923924922943
0.0306652020663023
-0.031196696683764458
-0.03217872977256775
-0.02664251998066902
-0.006561175920069218
0.03951574116945267
-0.04343223199248314
-0.03131159394979477
-0.023487864062190056
0.030253201723098755
0.03862020745873451
0.025793123990297318
0.03931974992156029
-0.00018256859038956463
0.020566361024975777
0.04001624137163162
-0.0848599225282669
0.11143016070127487
-0.021310342475771904
-0.02914784662425518
-0.011472497135400772
-0.04440651834011078
-0.007445936091244221
0.01195948850363493
-0.024934638291597366
0.004664847627282143
0.015375558286905289
0.008828166872262955
-0.015548499301075935
0.013208085671067238
0.021378234028816223
0.060534652322530746
-0.06083165854215622
0.08058148622512817
-0.03088592365384102
0.04627637192606926
-0.009976886212825775
0.033575788140296936
-0.03612285107374191
0.0011956696398556232
0.024029580876231194
-0.004966124426573515
-0.04893741011619568
0.013444065116345882
-0.09468114376068115
-0.017228351905941963
0.00046251638559624553
-0.022386379539966583
-0.017693227156996727
-0.06314369291067123
0.050394680351018906
0.043494369834661484
0.03210953250527382
-0.023456983268260956
-0.07923166453838348
-0.029595373198390007
0.004655822180211544
0.008261668495833874
0.059918299317359924
-0.013711503706872463
-0.06134183332324028
0.051968835294246674
-0.015564646571874619
0.0342976376414299
-0.0027918354608118534
0.007638010196387768
0.03862786665558815
-0.07067131251096725
0.07776041328907013
-0.06489620357751846
0.0700681135058403
-0.02950124256312847
-0.0658266618847847
-0.0505223423242569
0.021981915459036827
0.02242177352309227
0.018575001507997513
0.11499222368001938
0.020035546272993088
0.014048103243112564
0.10133327543735504
0.03151653707027435
0.037099409848451614
-0.04629509896039963
0.00019673629140015692
0.028139812871813774
0.0185738205909729
0.008868880569934845
0.04346809908747673
-0.016963783651590347
0.0335329994559288
-0.052371248602867126
-0.07486923038959503
0.017659522593021393
-0.021581334993243217
-0.008341725915670395
-0.014606027863919735
-0.00012539481394924223
0.06224773824214935
-0.06533139944076538
0.041950326412916183
-0.0785418450832367
-0.008098524063825607
-0.0010407560039311647
0.022839350625872612
0.06792638450860977
0.0046239932999014854
-0.0030971290543675423
-0.027438219636678696
-0.025275494903326035
-0.10107292979955673
0.019046295434236526
-0.10141628235578537
0.04028139263391495
-0.010228036902844906
0.014746380969882011
-0.06304404139518738
0.013245850801467896
-0.01961967535316944
0.05542018264532089
-0.013789692893624306
0.003254590556025505
-0.01690443977713585
-0.08108941465616226
-0.015733737498521805
-0.06378881633281708
0.020061533898115158
-0.02490871772170067
-0.03669746220111847
-0.0034763701260089874
-0.004042014013975859
-0.07245554774999619
0.014591829851269722
-0.013180654495954514
0.09026381373405457
0.006727080792188644
0.010459888726472855
-0.03841796889901161
0.046300843358039856
-0.02658649906516075
-0.03430434688925743
-0.02703048661351204
-0.0001601619296707213
0.022958960384130478
0.04915983974933624
-0.01005610916763544
-0.01678391546010971
0.012517131865024567
0.02863895520567894
-0.03694818168878555
0.02401864528656006
0.03473244234919548
0.0037031692918390036
-0.0037948526442050934
0.00941300205886364
-0.021938055753707886
-0.10680534690618515
-0.01670236326754093
-0.004420755431056023
0.01989336684346199
-0.0067957802675664425
0.02056533470749855
0.00801856443285942
-0.04121385142207146
0.003777422709390521
-0.0315922349691391
0.02953460067510605
-0.02738725207746029
0.021718895062804222
0.06311208009719849
-0.05105515569448471
-0.01160789467394352
-0.027084164321422577
-0.024214673787355423
-0.0037071043625473976
-0.00023421132937073708
-0.07084741443395615
0.06933657824993134
0.059849098324775696
-0.03858020901679993
-0.024372324347496033
-0.035459842532873154
-0.010564098134636879
-0.021437641233205795
0.02390104904770851
-0.016178680583834648
0.004712899215519428
0.06112934276461601
0.042968444526195526
0.03540489822626114
0.032945841550827026
0.0007930520223453641
-0.05883825942873955
-0.04120221361517906
0.033023279160261154
0.03702041879296303
-0.0622759684920311
-0.02286902815103531
-0.00888913869857788
0.017552241683006287
-0.03165223449468613
0.09561960399150848
0.04530137777328491
-0.001982547575607896
-0.01920478045940399
-0.05438130348920822
0.03680591285228729
0.053574636578559875
-0.02854558825492859
0.0012576556764543056
-0.06295891106128693
-0.019516319036483765
-0.03840189427137375
-0.03886253759264946
0.015813585370779037
-0.03016311675310135
0.061943184584379196
0.09785719215869904
-0.03323390334844589
0.011705620214343071
0.04404900223016739
-0.0026757647283375263
-0.0649755597114563
0.01704416796565056
0.008737592026591301
-0.0033884800504893064
0.0038210744969546795
0.017785590142011642
-0.08949373662471771
-0.019309740513563156
0.02119879238307476
0.04053916409611702
0.016458986327052116
-0.014135810546576977
0.01876767724752426
0.013018432073295116
0.057773031294345856
0.06403040885925293
0.02418811433017254
-0.04575444385409355
0.05886925384402275
0.0065439315512776375
0.08879202604293823
0.020642831921577454
-0.05196870118379593
-0.03163347393274307
-0.01594698801636696
-0.0575278103351593
-0.006391496863216162
-0.00988241471350193
-0.026801131665706635
0.005799857899546623
-0.049720145761966705
0.02821781300008297
-0.036347389221191406
-0.007561712525784969
0.014363369904458523
0.009926501661539078
0.04026063159108162
0.030845126137137413
-0.028100108727812767
-0.08720441907644272
-0.030177868902683258
-0.05355895683169365
0.05208706855773926
-0.02428440749645233
0.02833295240998268
0.040158648043870926
-0.05743329972028732
-0.04340912401676178
-0.010227900929749012
0.001677104621194303
-0.03312423452734947
-0.047970738261938095
0.033571742475032806
0.0714288204908371
0.05235699936747551
-0.03681274875998497
-0.011656580492854118
0.00991801917552948
-0.09175708144903183
0.03369162231683731
0.02985662966966629
-0.05394272133708
-0.005238612648099661
0.07169209420681
-0.04103844612836838
-0.0456145703792572
0.019417133182287216
-0.03627369552850723
0.0754968672990799
0.03217651695013046
-9.920401498675346e-05
-0.05006910488009453
-0.05259951576590538
-0.022530367597937584
-0.04924921318888664
0.08534681051969528
-0.0459660142660141
0.032626792788505554
-0.03686879947781563
0.008035160601139069
0.009172716177999973
-0.005249429028481245
0.0016656894003972411
0.007161163724958897
-0.08560793846845627
0.05051698535680771
0.02279513143002987
0.017913583666086197
-0.019640188664197922
0.06067874655127525
-0.0259427260607481
0.018476266413927078
-0.014625012874603271
0.0476851761341095
0.03715125843882561
-0.020924223586916924
-0.05952584743499756
0.017148345708847046
-0.07328791171312332
0.02898292802274227
-0.01788588985800743
-0.023806333541870117
0.027951005846261978
0.005543163046240807
0.09662764519453049
0.018297284841537476
-0.05828095227479935
0.012543125078082085
-0.0037097656168043613
0.030333517119288445
-0.020426861941814423
0.008274128660559654
0.020236343145370483
0.028287701308727264
-0.00960192084312439
-0.02225371077656746
-0.014403233304619789
0.022646192461252213
0.0038699328433722258
0.010129570960998535
0.0002800112124532461
-0.016826853156089783
0.034854453057050705
-0.02969619259238243
-0.06754477322101593
0.05673189088702202
-0.046608567237854004
0.026581821963191032
0.02055465616285801
-0.014984182082116604
-0.03073740378022194
-0.016070161014795303
0.008134311065077782
-0.03871294856071472
-0.0034618452191352844
-0.027946924790740013
0.08796703070402145
0.03822219371795654
0.006837875582277775
0.10659410804510117
0.006939943879842758
0.02394895814359188
0.04079505056142807
-0.029331376776099205
-0.04366157948970795
0.06296966969966888
0.04563525319099426
-0.04977530986070633
0.04568861052393913
0.011953788809478283
-0.009839851409196854
-0.0552227720618248
-0.035498861223459244
-0.0335962250828743
-0.007206518203020096
0.026157669723033905
0.08266493678092957
0.017044220119714737
0.08166089653968811
-0.03967304900288582
0.013060811907052994
0.03177438676357269
0.020710645243525505
-0.04397553205490112
0.03509197384119034
-0.04290679097175598
-0.04905002564191818
0.05242497846484184
0.058945100754499435
0.09666886925697327
-0.07566436380147934
-0.04821197688579559
-0.007194343023002148
-0.04397047311067581
-0.01649293676018715
-0.017059726640582085
0.018989454954862595
0.01077965646982193
-0.0007066968828439713
0.07015372067689896
-0.08421508967876434
0.03451377898454666
0.014647594653069973
-0.007186299189925194
0.02163766697049141
-0.02139335125684738
-0.015793122351169586
-0.0031066741794347763
0.027221698313951492
0.006473311688750982
-0.05190166085958481
-0.036357998847961426
0.03100811503827572
-0.08123926818370819
0.019674453884363174
0.062156662344932556
-0.007692755665630102
-0.06567852199077606
0.009488604962825775
-0.00606004660949111
-0.07473204284906387
-0.009128273464739323
0.03043491765856743
-0.024529723450541496
0.0018451767973601818
-0.03871062397956848
0.06709610670804977
0.07420366257429123
0.012641236186027527
0.030540689826011658
0.01768726296722889
-0.016225017607212067
-0.061006706207990646
-0.029185159131884575
0.07496090978384018
-0.0839558094739914
0.09643897414207458
0.07593397051095963
-0.057330936193466187
-0.055611953139305115
-0.03189288452267647
-0.016884468495845795
-0.049537964165210724
0.01768592931330204
-0.004524173215031624
-0.058066707104444504
-0.039247751235961914
0.012688742950558662
-0.05759067460894585
-0.04063740000128746
-0.029154730960726738
-0.061069414019584656
-0.05583920329809189
-0.04416021332144737
-0.026287321001291275
-0.05131923779845238
0.005841507576406002
-0.005876199807971716
-0.015450851991772652
-0.003052839543670416
0.006905016954988241
0.034939032047986984
-0.02475307695567608
-0.026759905740618706
0.03363934904336929
-0.021406710147857666
-0.03357634320855141
-0.045646198093891144
-0.024337831884622574
-0.01984536275267601
0.07647357136011124
-0.028337299823760986
0.0059717148542404175
0.02981320023536682
-0.054742809385061264
-0.03113332763314247
-0.006793114822357893
-0.046370070427656174
0.004219354595988989
0.0932670384645462
0.09549081325531006
0.008615151047706604
0.04830525442957878
-0.08784499019384384
-0.04330853745341301
0.016261350363492966
-0.009162996895611286
0.04024767503142357
-0.03370264172554016
0.005356130190193653
-0.05675731226801872
0.02701720967888832
-0.023910604417324066
-0.07441054284572601
-0.06996866315603256
-0.047876425087451935
-0.032509807497262955
0.024108029901981354
-0.040993738919496536
-0.017353719100356102
-0.06227455660700798
0.040965307503938675
-0.047132886946201324
0.0017022759420797229
-0.0026153717190027237
-0.019576814025640488
-0.0711774230003357
0.01176315825432539
0.012409765273332596
-0.0010687736794352531
-0.058156903833150864
0.016986265778541565
-0.00809160154312849
0.06194254755973816
0.027284858748316765
-0.0483924001455307
0.008082138374447823
-0.10055627673864365
0.03140100836753845
0.0074377357959747314
-0.015528032556176186
0.05394580215215683
-0.033672936260700226
0.005434488411992788
-0.009288426488637924
0.02557983249425888
0.017024895176291466
-0.014156516641378403
-0.007081094663590193
0.04070555791258812
-0.02522752806544304
0.011998563073575497
-0.0027924668975174427
0.011541469022631645
0.02569611184298992
0.045234739780426025
-0.02721722237765789
-0.03287612274289131
0.014718926511704922
-0.01164436899125576
-0.01063559204339981
0.09913507103919983
0.027243677526712418
-0.0010870505357161164
-0.019643357023596764
-0.04495490714907646
-0.0025774333626031876
0.0002594587276689708
0.013956411741673946
-0.018643606454133987
0.027656875550746918
0.010427670553326607
0.01729735918343067
0.013266293331980705
-0.02391921356320381
-0.01267201453447342
-0.004802979063242674
0.046066492795944214
0.056675367057323456
0.029925130307674408
-0.03703813999891281
-0.034784138202667236
0.011412953957915306
-0.01106081809848547
0.06907437741756439
-0.001916396664455533
0.007672752253711224
-0.025405433028936386
0.03318845480680466
-0.0028487476520240307
-0.07236796617507935
0.020731205120682716
0.014283211901783943
-0.023519497364759445
0.011694236658513546
-0.05772086977958679
0.004914671182632446
0.021520063281059265
-0.0037860888987779617
-0.005169140174984932
0.027627229690551758
-0.0023245622869580984
-0.0437423437833786
0.007784826681017876
-0.004632719326764345
0.07675619423389435
0.01119263470172882
-0.016125593334436417
0.052245479077100754
-0.0005979062989354134
0.05893968045711517
-0.08268473297357559
-0.054063424468040466
-0.06130263954401016
0.07255861163139343
-0.006769753526896238
-0.03849298134446144
-0.03556327149271965
-0.04265940934419632
0.025962181389331818
0.010337527841329575
-0.008642302826046944
-0.050336748361587524
0.02533266693353653
-0.06120748445391655
0.03197988495230675
-0.020657381042838097
0.009415785782039165
-0.006642246153205633
-0.02109474688768387
0.0011313727591186762
0.1135360598564148
0.019478123635053635
0.040122464299201965
0.05670291930437088
0.09550090879201889
0.04732183367013931
-0.018873464316129684
0.08228065073490143
-0.004263035953044891
-0.0647093653678894
-0.03425085172057152
-0.016389768570661545
-0.07675021886825562
0.016283387318253517
0.017240101471543312
-0.04035865515470505
0.0017217108979821205
0.0066635748371481895
-0.036455102264881134
-0.07689853012561798
-0.018622389063239098
-0.08091534674167633
0.018997222185134888
-0.006857816129922867
-0.02932455763220787
-0.11736844480037689
-0.0020381167996674776
-0.018613150343298912
-0.061760153621435165
-0.032639384269714355
-0.01285134069621563
-0.014944590628147125
-0.021296795457601547
0.04653855413198471
0.04393003135919571
0.09124162793159485
-0.029523542150855064
0.04824064299464226
-0.007704766467213631
-0.045688726007938385
0.06561914831399918
0.008940368890762329
-0.07931853830814362
-0.0398688018321991
0.06486056745052338
0.06576597690582275
0.07351498305797577
0.02249015122652054
0.07519613206386566
-0.041103295981884
-0.04327965900301933
-0.030485570430755615
-0.07982943952083588
0.004213172942399979
-0.010921201668679714
0.05779718607664108
-0.01920974999666214
-0.031096812337636948
-0.004264804068952799
-0.007464160211384296
0.037978194653987885
-0.01778688281774521
-0.0019979472272098064
-0.023694483563303947
-0.03864212706685066
0.026647811755537987
-0.035251639783382416
0.07519499212503433
0.037826016545295715
0.10050474107265472
0.04772626981139183
-0.05306129902601242
0.06365875899791718
-0.0023496518842875957
-0.0487743616104126
-0.018789418041706085
0.0024655242450535297
0.045316338539123535
0.0401260107755661
0.07429274916648865
-0.08015336096286774
-0.004525443539023399
-0.04108568653464317
0.005215249489992857
9.394765947945416e-05
0.07633741945028305
-0.03764905408024788
0.03305760771036148
-0.027662647888064384
-0.02809075638651848
-0.06272982060909271
-0.026379313319921494
-0.05635610222816467
0.007518666796386242
-0.04026003181934357
-0.14387498795986176
0.0794210433959961
-0.01592160016298294
0.04487986862659454
-0.00026942091062664986
0.11798189580440521
-0.019053040072321892
0.004504131618887186
-0.0020283982157707214
0.0024143680930137634
-0.09012380242347717
-0.05649725720286369
-0.0050846487283706665
0.1288415789604187
0.010950090363621712
-0.0547916404902935
-0.03101474791765213
0.007295367307960987
0.03755969554185867
-0.010724999010562897
-0.02822319231927395
-0.0140630342066288
0.017708610743284225
-0.023793164640665054
-0.031883154064416885
0.02240317314863205
-0.0016346448101103306
0.0706886574625969
-0.0014160381397232413
0.04897051677107811
0.028168313205242157
0.002646347275003791
0.039446115493774414
-0.011448431760072708
0.010910789482295513
-0.0164119191467762
0.055993955582380295
0.0353432334959507
0.05155645310878754
0.047709863632917404
-0.05968835949897766
0.0019204963464289904
-0.06059093773365021
-0.010962603613734245
0.008103029802441597
-0.0003596991009544581
0.060837388038635254
-0.05306806415319443
0.048016976565122604
0.00365348975174129
0.03910667449235916
0.03901461511850357
-0.03893604129552841
0.058222439140081406
-0.01876537688076496
-0.024462668225169182
0.08738803118467331
0.038886718451976776
0.014676360413432121
0.03845677152276039
-0.05637792870402336
0.08215422928333282
0.054290205240249634
-0.01629393920302391
-0.018231507390737534
0.020687337964773178
-0.010371079668402672
0.022410651668906212
0.012414105236530304
0.04857315123081207
-0.005405328702181578
-0.018756160512566566
-0.0402032807469368
-0.030583878979086876
-0.009810056537389755
0.027249058708548546
-0.015084253624081612
-0.002179953269660473
0.013894210569560528
-0.0017993610817939043
-0.012314620427787304
0.026884131133556366
0.006065885536372662
-0.09096227586269379
-0.030530786141753197
-0.05587143450975418
-0.02895757183432579
-0.0014212410897016525
0.02309308759868145
0.02092842012643814
-0.0006027873605489731
0.03318554908037186
-0.04356355592608452
-0.04862658679485321
-0.036679141223430634
-0.046828415244817734
-0.008558204397559166
0.08667600154876709
0.03765846788883209
0.012994232587516308
-0.008300954475998878
0.05196356028318405
0.06517951935529709
-0.020943185314536095
0.03735651820898056
-0.041117869317531586
-0.007236937992274761
-0.04017644003033638
-0.05445656180381775
0.03918728977441788
0.02208084985613823
0.03185734152793884
-0.00953748356550932
-0.007347642909735441
-0.023073140531778336
-0.020202763378620148
0.0019375415286049247
0.032812319695949554
-0.06123097985982895
-0.06336460262537003
0.06748975813388824
0.0462251715362072
-0.02845599129796028
-0.016459664329886436
0.046180158853530884
0.008332770317792892
-0.024176565930247307
-0.11869409680366516
0.11561863869428635
-0.021336963400244713
-0.05179703235626221
0.060456253588199615
0.02617490105330944
-0.009176749736070633
0.08451581001281738
0.026193808764219284
-0.010913505218923092
0.13148468732833862
-0.04563077911734581
0.045915596187114716
0.0034668061416596174
-0.002658060286194086
0.0020691093523055315
0.09485262632369995
0.04767082631587982
0.013574883341789246
0.04819314926862717
0.027689211070537567
0.05512513220310211
0.07055062055587769
0.08191052824258804
0.003413437632843852
-0.05269424617290497
0.018018759787082672
-0.03390374779701233
-0.01229061372578144
-0.062219858169555664
-0.059122633188962936
0.016942204907536507
0.02446388080716133
-0.05084460228681564
-0.0757756307721138
0.007611602079123259
0.0070778182707726955
0.046634115278720856
0.04416321963071823
0.008539967238903046
-0.024426063522696495
-0.016619376838207245
-0.010220805183053017
0.02524566277861595
-0.003842310979962349
0.006739947944879532
0.0687846839427948
0.0007752128294669092
-0.11108004301786423
0.08051605522632599
0.03737255185842514
0.026925738900899887
0.013481346890330315
-0.06117267161607742
0.048405736684799194
0.03659961372613907
0.030324678868055344
0.03875339776277542
0.032422468066215515
0.0008572352817282081
0.0024543520994484425
0.013234514743089676
0.018540259450674057
-0.02861439809203148
0.045400798320770264
-0.04232718050479889
0.07341871410608292
-0.044649168848991394
0.06121206283569336
-0.03658293932676315
0.03377529978752136
0.021206757053732872
-0.05082954466342926
0.0584455281496048
0.04981056600809097
-0.004566732328385115
-0.02069644257426262
-0.016351409256458282
0.051566265523433685
0.013696609996259212
-0.0517692044377327
0.10140468180179596
0.0030760213267058134
0.009983301162719727
-0.004469706676900387
-0.020543845370411873
-0.027480846270918846
-0.025044512003660202
-0.06379258632659912
0.010862110182642937
0.039975717663764954
0.060834914445877075
-0.009094847366213799
-0.01775694638490677
0.0013285798486322165
0.02410661056637764
0.026159852743148804
0.0364815853536129
-0.0557047501206398
0.01899140328168869
0.010517504066228867
0.05845781788229942
0.007644633762538433
0.01907942444086075
-0.001475639408454299
0.025041816756129265
-0.008313802070915699
0.00929265283048153
-0.020560886710882187
-0.03564022108912468
0.014129853807389736
-0.023498494178056717
0.10694523900747299
-0.008234977722167969
0.018337920308113098
-0.006266410928219557
0.01890229620039463
-0.01436410378664732
-0.014445650391280651
-0.03434307500720024
0.1021331399679184
0.06975960731506348
0.005822456441819668
-0.061723701655864716
0.010360142216086388
-0.04648597538471222
-0.0027722592931240797
-0.03322623670101166
-0.05494053289294243
0.019828319549560547
0.031286828219890594
0.0012417722027748823
0.030350450426340103
0.0355476513504982
0.016071777790784836
0.02461296319961548
-0.09641498327255249
0.08231307566165924
0.004019316751509905
-0.03552894666790962
0.023018289357423782
-0.019548436626791954
0.026656825095415115
0.042702462524175644
0.02796388976275921
0.04639613255858421
-0.03499846160411835
0.026580389589071274
0.06983687728643417
0.013503311201930046
-0.03040151856839657
-0.039307065308094025
0.07023365795612335
0.09689336270093918
0.004570942372083664
0.061479490250349045
0.024524647742509842
0.005111444741487503
-0.027353692799806595
-0.012309962883591652
0.033929139375686646
0.046158626675605774
0.04465104267001152
0.02653331682085991
0.02099449560046196
-0.02782435715198517
-0.05297820270061493
0.018492719158530235
-0.039083003997802734
0.041967034339904785
0.005272114649415016
-0.05142093449831009
0.04309301823377609
0.028665324673056602
0.02392495982348919
-0.02976270578801632
-0.031916990876197815
-0.023869728669524193
-0.027154702693223953
-0.05266749858856201
-0.005879133474081755
-0.0015220786444842815
-0.08826553076505661
0.00571691757068038
-0.024621743708848953
0.0452449694275856
-0.0524195097386837
0.035974279046058655
-0.017900103703141212
0.04545680806040764
0.0053766509518027306
0.0033298139460384846
-0.010966980829834938
0.06452088057994843
-0.009045002982020378
-0.002400475088506937
0.05232231318950653
0.07950476557016373
-0.011781434528529644
0.03704161196947098
-0.020548447966575623
0.013378214091062546
-0.06551636755466461
-0.03852163627743721
0.044363535940647125
-0.025140320882201195
-0.01878465712070465
-0.0074422224424779415
0.016021963208913803
0.012583861127495766
-0.0720948874950409
0.03974587842822075
-0.042336031794548035
-0.03583947569131851
-0.052124910056591034
-0.01765335537493229
-0.05626541003584862
0.030135594308376312
0.01043589599430561
0.0269416905939579
0.0008936337544582784
0.04704999923706055
0.04493875429034233
-0.1043744832277298
-0.009928222745656967
0.03127187490463257
-0.061605703085660934
-0.03708363324403763
-0.017015624791383743
-0.027279332280158997
0.027734622359275818
0.004578226711601019
-0.059984445571899414
0.002953877206891775
0.04233120009303093
0.007780745159834623
0.007143385708332062
0.022731158882379532
-0.030737359076738358
-0.002186777535825968
0.04567105323076248
0.021315105259418488
-0.042895540595054626
0.02428104728460312
-0.023235656321048737
-0.05500034987926483
0.011496278457343578
-0.01951480284333229
-0.04499737545847893
0.05464418977499008
0.023280642926692963
-0.028145236894488335
0.005198677070438862
0.09565550088882446
-0.01427467167377472
0.097645103931427
-0.014611306600272655
0.049307599663734436
0.01681210659444332
-0.004255663603544235
-0.09174882620573044
-0.03820411488413811
0.0641738772392273
0.000607611145824194
-0.06497377157211304
0.004460747353732586
0.07178981602191925
0.04164223372936249
-0.0371081717312336
0.013087982311844826
0.00437155133113265
0.009594589471817017
-0.06051993370056152
0.004350362345576286
0.019517701119184494
-0.04711787402629852
-0.03147166222333908
0.014719480648636818
-0.016280265524983406
-0.001113704638555646
-0.02249046042561531
0.013096376322209835
0.012257277965545654
-0.03927018493413925
-0.009966857731342316
-0.004015856422483921
0.10187874734401703
0.008180989883840084
0.011162254959344864
0.026433821767568588
-0.018684716895222664
-0.00518493726849556
-0.04547156020998955
-0.015577457845211029
0.12038000673055649
-0.009803947061300278
0.0017564932350069284
-0.019151346758008003
-0.01635175384581089
0.014295928180217743
-0.002066439250484109
-0.018529687076807022
-0.022074325010180473
-0.015222858637571335
-0.07031859457492828
0.011032532900571823
0.016006991267204285
0.07248029857873917
-0.0024793706834316254
0.023298010230064392
-0.030663181096315384
-0.06388943642377853
0.006485141813755035
-0.007040949072688818
0.0035709100775420666
0.02212599664926529
-0.008327259682118893
-0.010861257091164589
0.018899710848927498
0.020709961652755737
-0.01624329760670662
0.10037814825773239
0.0035434826277196407
-0.02663382515311241
-0.0006021385779604316
0.020220164209604263
-0.0288234930485487
0.020354013890028
-0.06666406244039536
-0.03811178356409073
0.012054482474923134
0.06964666396379471
0.0010313119273632765
0.05325622484087944
0.07516252994537354
0.03905283287167549
-0.06205302104353905
0.023852623999118805
0.026921257376670837
-0.0057625859044492245
-0.03425970301032066
0.006025397684425116
-0.02483513019979
-0.011913008987903595
0.005299873650074005
-0.005361402407288551
-0.002525513991713524
0.14860799908638
0.0708584412932396
-0.013864485546946526
-0.014376717619597912
-0.06588207185268402
0.02080252766609192
0.061097122728824615
-0.05477675423026085
0.033635448664426804
-0.03728105127811432
0.02712755650281906
-0.06561189889907837
0.03874737024307251
0.030182478949427605
0.03759729862213135
-0.03765646368265152
-0.006856975611299276
-0.0006211665458977222
-0.03552637994289398
0.008811949752271175
-0.11872484534978867
-0.004961904138326645
-0.001966562122106552
0.050897009670734406
0.025903312489390373
-0.01970866322517395
0.04905010387301445
0.014406180009245872
0.01769336685538292
0.05103622004389763
0.025869641453027725
-0.09239199757575989
0.05991153419017792
0.0056032477878034115
0.017550595104694366
0.02108006738126278
-0.0039151618257164955
-0.054863180965185165
0.04166118800640106
0.00319562922231853
-0.06710383296012878
0.0230170339345932
-0.024758964776992798
-0.03200586885213852
-0.05654638260602951
0.023486068472266197
0.0014505968429148197
-0.0024249544367194176
-0.019499506801366806
-0.03525706008076668
0.04886028170585632
0.003387794829905033
0.05111704021692276
0.030363809317350388
-0.004436652176082134
0.019931290298700333
-0.04117846488952637
0.01926713064312935
-0.07268181443214417
0.04307369515299797
-0.12601125240325928
-0.007348107174038887
-0.15199878811836243
-0.015626246109604836
-0.0015904293395578861
-0.05364648997783661
-0.06199843809008598
-0.02347051352262497
0.0064055584371089935
0.005050427280366421
0.04698754474520683
-0.0018340221140533686
-0.008813709020614624
-0.01306145265698433
-0.021139666438102722
-0.08065199851989746
-0.009379051625728607
0.00638087373226881
0.04544376581907272
0.07187600433826447
-0.0016093705780804157
-0.04906291887164116
0.0951179713010788
0.04009119048714638
0.03850337490439415
0.03658619150519371
0.13683877885341644
-0.04638969898223877
0.03029334917664528
-0.006103507708758116
0.014858141541481018
0.00037928082747384906
-0.006502182222902775
0.04092392697930336
-0.028299381956458092
0.10216715186834335
-0.06121518462896347
-0.020705511793494225
-0.024554841220378876
-0.009566010907292366
0.012475225143134594
0.046401530504226685
-0.05960717052221298
-0.011785454116761684
0.026789620518684387
-0.02721811644732952
-0.04548628255724907
0.011729257181286812
-0.04641638696193695
0.00762121332809329
-0.0364348441362381
-0.00540913175791502
0.04775694012641907
-0.02294330671429634
0.0288669615983963
-0.033627741038799286
0.08635571599006653
0.02135026827454567
-0.09703172743320465
0.026734022423624992
0.04095073416829109
0.030614612624049187
-0.003387430449947715
-0.020957252010703087
0.07635737955570221
-0.01568710058927536
-0.03400159627199173
0.02810603193938732
-0.027089208364486694
0.03171338140964508
0.01917117089033127
-0.03022916242480278
0.076112762093544
0.05137559399008751
-0.07499077916145325
-0.018075929954648018
0.048499759286642075
0.020086072385311127
-0.03920961171388626
0.019271455705165863
-0.03636261075735092
0.054420437663793564
0.0980355367064476
0.02899003028869629
0.044935256242752075
0.04189582169055939
0.027809590101242065
-0.015749670565128326
-0.012321863323450089
0.03989565744996071
-0.057517632842063904
0.016864418983459473
0.03158299997448921
0.03400273621082306
0.035102978348731995
0.022774726152420044
0.09326037764549255
0.009385635145008564
-0.06611474603414536
0.0602450929582119
0.02573607861995697
0.05919988080859184
0.055378418415784836
0.011175515130162239
0.05176682025194168
-0.04097987711429596
0.014995012432336807
0.027722731232643127
0.007604551501572132
-0.02734270691871643
0.11610227823257446
-0.0005191217642277479
0.04826322942972183
-0.01648136042058468
0.008290985599160194
0.002711596665903926
0.05761120468378067
-0.05485561490058899
-0.0490962415933609
0.1333855390548706
0.021929658949375153
-0.07353682070970535
0.07010997086763382
-0.05381891876459122
0.04651800915598869
0.007802798878401518
-0.029875999316573143
-0.1312221884727478
0.0213156770914793
0.01924387365579605
-0.053617194294929504
0.050606876611709595
0.05641268193721771
-0.013200799003243446
0.003122435649856925
-0.00639017578214407
0.006462510209530592
-0.012730073183774948
-0.004072835203260183
0.03749488294124603
0.00670672906562686
-0.0718473494052887
-0.05506444722414017
0.0008136755204759538
0.007101677358150482
-0.016676150262355804
-0.03511551022529602
0.02456430159509182
0.037733737379312515
-0.05903797969222069
0.017315175384283066
-0.005060460418462753
-0.017905840650200844
-0.05537949129939079
-0.01511225663125515
-0.009801351465284824
0.039949651807546616
0.034261398017406464
0.01662655547261238
-0.036843523383140564
-0.06135515123605728
-0.012165704742074013
-0.008281615562736988
0.04987543821334839
0.04391765221953392
-0.03651134669780731
-0.013958352617919445
0.04875108599662781
-0.04398667439818382
-0.0003929825616069138
0.03349021077156067
-0.048716261982917786
-0.010211298242211342
-0.02888432703912258
0.03318160027265549
-0.005137468688189983
0.006747101899236441
-0.010764575563371181
0.06574174761772156
-0.015328124165534973
-0.018507448956370354
0.023656470701098442
-0.009715129621326923
0.0028889388777315617
0.025000369176268578
-0.014549804851412773
0.011286715045571327
0.017826974391937256
0.050894539803266525
-0.008257362991571426
0.06697189807891846
0.0908639132976532
0.03155910223722458
0.08178786188364029
0.03317350149154663
-0.007876889780163765
0.05143844336271286
0.06831969320774078
-0.015276113525032997
-0.0014372700825333595
0.003280060365796089
-0.021232586354017258
-0.027087142691016197
0.02608131431043148
0.001476571662351489
-0.06094139814376831
-0.08909531682729721
0.025838656350970268
0.04290382191538811
0.02528480812907219
0.007127182092517614
-0.0035202628932893276
-0.01936245523393154
0.019925039261579514
-0.04053649306297302
-0.06957298517227173
0.03415805101394653
-0.06678451597690582
0.00029560484108515084
0.002107087289914489
0.1451491266489029
-0.036845285445451736
-0.011174233630299568
0.032293692231178284
0.029531439766287804
-0.02196100912988186
-0.0759168341755867
-0.06924913078546524
0.005869015119969845
-0.019691739231348038
-0.02632078528404236
-0.009306502528488636
-0.013582689687609673
0.07245758175849915
0.01604575477540493
0.07949087768793106
-0.029466520994901657
0.0892808735370636
0.04072314500808716
-0.03354320302605629
0.06517978012561798
0.05245477706193924
0.004904991947114468
-0.08414053916931152
0.015456918627023697
0.0229300856590271
-0.0075079165399074554
-0.0186830535531044
-0.06446503102779388
-0.06092844158411026
0.01530019473284483
-0.001370492740534246
-0.0012212226865813136
0.009287187829613686
0.027366526424884796
-0.026149718090891838
0.011924497783184052
-0.03810888156294823
-0.018329359591007233
-0.06266485154628754
0.0645860880613327
-0.07803768664598465
-0.0011437576031312346
0.04732392728328705
0.07276040315628052
0.004597753752022982
-0.08835040032863617
-0.06330501288175583
-0.04090485721826553
0.052015747874975204
-0.022839641198515892
0.07790724188089371
-0.05253155156970024
-0.003878370625898242
0.023994792252779007
-0.010704482905566692
0.03206793591380119
-0.042573168873786926
-0.01809193193912506
-0.05345219001173973
0.07524379342794418
0.04335255175828934
0.007230006158351898
0.0195920392870903
0.0683426558971405
0.011503065936267376
-0.08219252526760101
0.056412965059280396
0.015097340568900108
0.002656472846865654
0.006027917377650738
0.06925341486930847
-0.07910014688968658
0.017742345109581947
-0.022578999400138855
-0.08118519186973572
-0.011047003790736198
0.013119209557771683
-0.033420417457818985
-0.0028550864662975073
-0.01312156394124031
0.06946459412574768
-0.07923711091279984
-0.004523903597146273
-0.005412805825471878
-0.02649667114019394
0.04035921394824982
0.07816591113805771
0.07631515711545944
-0.007207044865936041
-0.015513899736106396
0.02478402853012085
0.0225865226238966
0.0029188646003603935
-0.000431573367677629
-0.02564387582242489
0.03820771351456642
0.05291958898305893
-0.0001538913493277505
-0.06086335331201553
-0.05067237839102745
-0.07301373034715652
0.017578793689608574
-0.0010692027863115072
0.03432659059762955
0.06537313759326935
0.031858716160058975
-0.02744322083890438
-0.019947130233049393
0.04060215502977371
0.03875267505645752
0.06145293638110161
0.035987090319395065
-0.012575581669807434
0.011104108765721321
-0.034992702305316925
-0.04960578680038452
0.04173146188259125
0.0317869707942009
0.012014350853860378
-0.03506525978446007
0.03184358403086662
0.02165481261909008
0.050000980496406555
-0.06976275146007538
0.04550154134631157
-0.00615668436512351
-0.08709439635276794
-0.011275192722678185
0.05329914018511772
0.026744596660137177
0.030947653576731682
-0.015717465430498123
-0.046583354473114014
-0.041683778166770935
-0.05885479971766472
0.02641402743756771
-0.03414018824696541
0.0076262387447059155
-0.04780122637748718
0.02859412133693695
0.015402434393763542
0.06292037665843964
0.004226628225296736
-0.008378506638109684
-0.059137046337127686
-0.015947964042425156
-0.09293707460165024
0.040283359587192535
0.029254145920276642
-0.04523536190390587
0.021705247461795807
-0.014266779646277428
0.07096684724092484
0.0396178737282753
-0.001092023216187954
-0.05415812134742737
-0.013866342604160309
0.05289783328771591
-0.086823008954525
0.03853708133101463
-0.06645350158214569
-0.03796342387795448
0.00171472632791847
-0.08398427069187164
-0.01123499684035778
-0.03447040170431137
0.09179769456386566
0.012846681289374828
-0.051232680678367615
-0.06844209879636765
0.01921950839459896
0.03955065459012985
-0.06725944578647614
0.021725498139858246
-0.002715549198910594
-0.059317853301763535
-0.011834467761218548
0.08006997406482697
-0.01170576736330986
-0.017058204859495163
-0.008480639196932316
-0.03511646017432213
-0.004411413334310055
0.022139539942145348
0.07015024125576019
-0.06227331608533859
0.027542976662516594
0.019197115674614906
0.0491335354745388
0.061314892023801804
-0.0037373118102550507
-0.0002002776018343866
0.015983661636710167
-0.04844772070646286
-0.007565916515886784
-0.017276056110858917
0.07297445833683014
0.004997938871383667
-0.01768946275115013
0.013456128537654877
0.019669290632009506
0.009310813620686531
0.07163955271244049
-0.012544391676783562
-0.008378241211175919
-0.02343089133501053
0.019452396780252457
-0.04789271205663681
0.044527605175971985
0.0031736502423882484
-0.06455548107624054
-1.470341067033587e-05
-0.0010035282466560602
0.03398938849568367
0.02393398992717266
-0.0042014289647340775
0.006429754197597504
-0.06011752411723137
-0.03007948212325573
-0.08158022910356522
-0.09569282829761505
0.025329705327749252
-0.08855727314949036
-0.03980071842670441
0.03885108232498169
0.008339932188391685
0.05133035406470299
-0.0010036451276391745
-0.042738549411296844
0.03336263447999954
0.006842912640422583
-0.03641057014465332
-0.02390313521027565
0.03332187235355377
0.01045249029994011
-0.01793617568910122
-0.02527204528450966
0.03502083197236061
-0.05226428806781769
-0.017391497269272804
0.010972178541123867
-0.012747904285788536
-0.0062834033742547035
0.0015297143254429102
0.004000634420663118
-0.07343935966491699
-0.01564229652285576
0.030675647780299187
0.011804725974798203
-0.04219935089349747
-0.008158119395375252
0.030901961028575897
-0.052072636783123016
0.04920388385653496
-0.06719567626714706
0.022462259978055954
0.01458082627505064
-0.10031627863645554
-0.03596249967813492
0.010546894744038582
5.2136667363811284e-05
0.01313262339681387
-0.003375310217961669
-0.05405624955892563
0.011577006429433823
-0.03144949674606323
0.023068150505423546
0.03633163496851921
0.05068047344684601
0.06861849129199982
-0.01749148964881897
0.06539451330900192
-0.040583811700344086
0.017635872587561607
-0.05626906082034111
0.0019355292897671461
0.008706150576472282
-0.03987204283475876
-0.00894336961209774
-0.07890965044498444
-0.05467923730611801
0.030944673344492912
-0.0427880696952343
-0.04303424060344696
0.02850136160850525
-0.03574420139193535
0.010740870609879494
0.09542205929756165
0.023495187982916832
0.027552766725420952
-0.06290136277675629
0.006031440105289221
0.029494058340787888
0.0037467412184923887
-0.04256647080183029
-0.049796633422374725
0.028551511466503143
-0.024034395813941956
0.08375507593154907
0.06030530482530594
-0.03530699014663696
-0.03234654664993286
-1.8849743355531245e-05
0.004936667159199715
-0.07540978491306305
0.017353974282741547
0.05422097072005272
0.06354395300149918
-0.03377193957567215
0.03345876559615135
0.02022658661007881
-0.0006218822672963142
0.039902761578559875
0.0057958150282502174
0.018110308796167374
0.08733074367046356
0.05805074796080589
-0.0013358457945287228
0.03580722585320473
0.005792703479528427
0.022700432687997818
0.04259667918086052
0.0016480064950883389
0.09223589301109314
-0.0026416783221066
0.02295900136232376
0.04694030433893204
0.022834807634353638
0.02307845652103424
0.01377391442656517
0.08082206547260284
-0.015183433890342712
0.0002624128828756511
-0.11163903772830963
-0.06174791604280472
-0.009183269925415516
0.0846337378025055
0.015364641323685646
-0.01197186391800642
0.0022220765240490437
0.059624359011650085
-0.014710633084177971
-0.05100296437740326
-0.04684336110949516
0.007028295658528805
0.03744681924581528
-0.003549715969711542
0.043559007346630096
0.04054586589336395
0.02305981144309044
0.052132945507764816
0.019239099696278572
0.03201023489236832
-0.0028014034032821655
0.01892634481191635
-0.05633335933089256
0.03058169037103653
0.029016990214586258
0.04635205119848251
-0.010535918176174164
0.026774663478136063
0.07212264835834503
0.03763250261545181
0.053712017834186554
0.018956946209073067
-0.06523005664348602
0.015340186655521393
-0.12104837596416473
0.0038634396623820066
-0.04166930913925171
-0.009310560300946236
0.011712460778653622
0.0710040032863617
-0.0016439678147435188
0.016041617840528488
0.04355207085609436
0.005015640519559383
0.07647757232189178
-0.032467521727085114
-0.011957177892327309
0.00939378421753645
0.003907006233930588
-0.019740423187613487
-0.006345804315060377
0.04266216605901718
-0.02474670112133026
-0.0019441896583884954
0.005848973523825407
-0.04166114330291748
-0.04921989142894745
0.009667197242379189
0.0070817433297634125
0.03271440044045448
0.037065647542476654
-0.06357116252183914
0.1343175172805786
-0.027821702882647514
-0.0589783750474453
-0.05468633398413658
0.040410399436950684
-0.01242772489786148
-0.032461781054735184
0.06243214011192322
0.028107881546020508
0.07594709098339081
0.013182086870074272
0.0521041676402092
-0.0028732237406075
-0.01605289615690708
0.012040533125400543
0.04058319702744484
0.020425230264663696
0.03400389850139618
-0.01702173799276352
-0.017260316759347916
-0.0071688462048769
-0.04354215785861015
0.0008411109447479248
-0.0023676003329455853
0.02085406892001629
-0.011820725165307522
0.003961809910833836
-0.07780282199382782
0.020762266591191292
0.0026623765006661415
0.029568005353212357
0.0068598585203289986
0.08966072648763657
-0.0436757430434227
-0.0559210442006588
0.050543807446956635
0.01459576841443777
0.011392191052436829
-0.03353085368871689
0.04402982443571091
-0.05095094069838524
0.00276409974321723
0.003976340871304274
-0.019244860857725143
-0.06024671345949173
-0.02865433692932129
0.0044508520513772964
0.03680778667330742
-0.015740135684609413
-0.06676685810089111
-0.03199619799852371
-0.0029742985498160124
-0.006644037552177906
0.05441053956747055
-0.05803016945719719
-0.0444512777030468
0.012246481142938137
0.03713059425354004
-0.02367357723414898
-0.03966532647609711
0.05922795832157135
0.009438296779990196
0.032705191522836685
0.06744585931301117
0.035464730113744736
-0.015234682708978653
0.02116691693663597
0.03505994379520416
-0.06726472079753876
-0.02032063528895378
-0.014374421909451485
-0.007743848022073507
0.08479186147451401
-0.019227903336286545
-0.005507481750100851
-0.037612445652484894
0.04949645325541496
0.004080335609614849
0.03795219212770462
-0.011279060505330563
0.00593817513436079
-0.0071088168770074844
-0.00591816334053874
0.010243349708616734
-0.003221020568162203
0.02446862868964672
0.006256169639527798
0.0430314801633358
0.005089739337563515
0.03389953449368477
0.01746738702058792
-0.061028532683849335
-0.009965077973902225
0.039405688643455505
0.0619688481092453
-0.04044739156961441
-0.011794663034379482
0.08389636129140854
0.000487015291582793
0.011051570996642113
0.07284652441740036
-0.06392999738454819
0.04259156435728073
0.0007174538332037628
0.025406157597899437
-0.006610152777284384
-0.012289749458432198
-0.03385236859321594
0.037485573440790176
0.012835787609219551
0.005516214296221733
-0.008992207236588001
-0.02771422080695629
-0.0028602422680705786
0.03722470998764038
-0.016097063198685646
-0.05708711966872215
-0.11858920753002167
-0.017032934352755547
-0.03143506124615669
0.029801979660987854
0.05027903616428375
0.019099071621894836
-0.06361396610736847
-0.0434485599398613
-0.04385028034448624
0.06907646358013153
-0.0336003303527832
-0.09145667403936386
-0.03510567918419838
-0.026543892920017242
-0.00035566958831623197
0.010234605520963669
0.00406022509559989
-0.01329111959785223
-0.032850880175828934
0.05282427370548248
0.00841699168086052
-0.01927524246275425
0.01282658614218235
0.003186651971191168
0.006416773423552513
-0.06675194948911667
-0.08156616985797882
0.0042450521141290665
0.02422175370156765
-0.04319768399000168
-0.004935319535434246
-0.006761203985661268
-8.45356480567716e-05
0.01564716547727585
-0.07199104130268097
0.07051832228899002
0.0035311521496623755
-0.05866003781557083
0.03937552496790886
-0.013095113448798656
-0.03022683970630169
0.01770610734820366
-0.07856163382530212
-0.08303942531347275
-0.0975208580493927
0.014022382907569408
0.025863884016871452
0.001425093738362193
0.013670619577169418
0.008092984557151794
0.021444547921419144
-0.019628912210464478
-0.011128617450594902
-0.0006115298019722104
-0.0023122765123844147
0.009464092552661896
-0.020962059497833252
-0.016024257987737656
-0.002175146248191595
0.10315763205289841
-0.004272876773029566
0.012358792126178741
-0.026742547750473022
0.10802355408668518
-0.01505870558321476
-0.020249275490641594
0.0609644316136837
-0.03250938653945923
-0.04615786671638489
-0.029728375375270844
0.002360719023272395
-0.0012635131133720279
0.02253146469593048
0.013300677761435509
-0.01444101333618164
0.05107857286930084
0.05237863212823868
0.06633289158344269
0.025951972231268883
-0.03267848491668701
-0.0015978259034454823
0.027341395616531372
-0.023558996617794037
0.05449727922677994
-0.015272241085767746
0.07025331258773804
0.04000997170805931
-0.04480142891407013
-0.009175289422273636
-0.07530452311038971
0.07160651683807373
-0.010947925969958305
-0.09702327102422714
-0.044904403388500214
-0.002264130860567093
0.01321461796760559
0.06061040610074997
-0.0471370629966259
-0.05225558206439018
-0.004734957590699196
0.048110418021678925
0.01234146486967802
-0.012703308835625648
-0.015338405035436153
0.03852322697639465
-0.010247191414237022
-0.08764958381652832
0.006493132095783949
0.03091951459646225
0.004059488419443369
0.06820730865001678
0.0035409543197602034
0.010022250935435295
0.03772951290011406
0.02035325951874256
-0.0030691714491695166
-0.015063541941344738
0.03317197039723396
0.028431665152311325
-0.09003191441297531
-0.036234527826309204
0.05383983254432678
-0.025650080293416977
0.02544345334172249
0.047854937613010406
0.04471956193447113
0.06553202867507935
0.01708531193435192
0.03477150946855545
-0.02815040573477745
0.0829673781991005
0.08276627957820892
-0.02407548390328884
0.019163699820637703
-0.01329504232853651
0.041057288646698
0.019415993243455887
0.005945037584751844
-0.02232191525399685
-0.06878038495779037
0.013724500313401222
0.047251325100660324
0.059797417372465134
0.06828154623508453
-0.012919962406158447
0.014329394325613976
0.006153292488306761
-0.02478860318660736
0.04006391763687134
-0.05024465173482895
0.048355139791965485
-0.052325665950775146
-0.02444533258676529
-0.01454714871942997
-0.048937421292066574
-0.010130539536476135
0.014475971460342407
0.018020112067461014
0.04018129035830498
0.0038126446306705475
-0.054384276270866394
0.012468839064240456
0.09654122591018677
0.08500546216964722
0.06440117955207825
0.06830208748579025
-0.03142411261796951
0.057592492550611496
-0.039632029831409454
0.010467493906617165
-0.008134101517498493
-0.07532478123903275
-0.06979063898324966
-0.049104027450084686
0.008900697343051434
-0.06519567221403122
0.030334537848830223
0.040446989238262177
-0.02125573717057705
0.035793647170066833
-0.01236078143119812
-0.08392328023910522
0.02778966724872589
-0.01578379236161709
0.03266468644142151
-0.045521266758441925
-0.036103200167417526
0.06466018408536911
0.020543141290545464
0.06588530540466309
0.022898100316524506
0.025424247607588768
-0.020680341869592667
-0.030715584754943848
-0.018115868791937828
0.021059811115264893
-0.02238186076283455
0.04786854237318039
-0.04448127746582031
0.05607214570045471
-0.011744560673832893
-0.008171193301677704
-0.022756297141313553
-0.014886070042848587
0.0804557278752327
-0.022873809561133385
0.08995062112808228
0.06467388570308685
-0.016132356598973274
0.000965836166869849
0.055388279259204865
0.09319436550140381
-0.03519028425216675
-0.00923793576657772
0.022491848096251488
0.004307647701352835
0.002348416019231081
-0.03214918449521065
0.04351266846060753
0.030028343200683594
0.003106706775724888
0.022530166432261467
0.0030210602562874556
-0.02858586423099041
0.024518754333257675
-0.019335903227329254
-0.05475149303674698
-0.009733953513205051
-0.07836300879716873
0.055978111922740936
0.01867612823843956
-0.07656127959489822
-0.04321567341685295
-0.05059242993593216
-0.04219473898410797
0.015031078830361366
-0.011856917291879654
0.03997661545872688
0.05282945558428764
-0.017640037462115288
0.022603996098041534
-0.04839564487338066
0.002626033965498209
0.0126518364995718
0.023043863475322723
0.00018331012688577175
-0.009351803921163082
-0.013775637373328209
-0.012099137529730797
-8.153830276569352e-05
0.03026830404996872
0.08233167231082916
0.04377013072371483
0.07118505239486694
-0.09163989871740341
0.06244015321135521
-0.0599740669131279
-0.015049896202981472
-0.040117036551237106
0.009893486276268959
0.0310130026191473
0.01232832856476307
0.017457664012908936
-0.003806468565016985
0.008571747690439224
-0.04060346633195877
-0.008825533092021942
0.0019933865405619144
-0.054023243486881256
-0.05464969202876091
0.03969291225075722
-0.02516593597829342
0.0027791797183454037
-0.05427713319659233
0.1357736736536026
0.026587195694446564
-0.0619700625538826
0.021002594381570816
0.06550173461437225
0.03538016229867935
-0.000428328406997025
0.12171526253223419
0.010473564267158508
-0.029974736273288727
-0.036239687353372574
0.0708068460226059
0.037563297897577286
0.01749573089182377
0.011729270219802856
0.025109319016337395
0.02667049691081047
0.045613616704940796
0.01198173500597477
0.011566313914954662
0.0030084382742643356
-0.04036039859056473
-0.002061980776488781
-0.04615117609500885
0.042072780430316925
-0.045816317200660706
0.03385639935731888
-0.06694119423627853
-0.01759020984172821
-0.0039297593757510185
-0.05132181569933891
-0.09492697566747665
0.10716886818408966
0.05093761906027794
-0.021103082224726677
-0.024799956008791924
-0.010916575789451599
-0.01228356547653675
0.01951649785041809
0.01575365662574768
-0.010965942405164242
0.008811773732304573
0.013765694573521614
0.08562883734703064
-0.017120342701673508
0.03350243717432022
0.056074172258377075
-0.002526759635657072
0.06176798790693283
-0.017511427402496338
-0.04450488090515137
0.01227404922246933
-0.03509226068854332
-0.015299197286367416
0.10216261446475983
0.03575658053159714
-0.021426644176244736
-0.05887415260076523
-0.07639744877815247
-0.06768111139535904
0.01861422136425972
-0.025338126346468925
0.027314171195030212
-0.03324597328901291
-0.013567651621997356
-0.03410279378294945
0.007476158440113068
0.049919769167900085
0.004860039800405502
0.08321625739336014
0.002577246632426977
0.04701896756887436
0.0847054123878479
-0.010993054136633873
-0.017415020614862442
-0.04879488795995712
0.04707103967666626
0.0430975966155529
-0.026607749983668327
0.011662520468235016
-0.008321542292833328
-0.016240928322076797
-0.015490991994738579
-0.0314529612660408
-0.03519294038414955
-0.0023199873976409435
0.04287632927298546
0.0006208909908309579
-0.02420642599463463
-0.04385189339518547
-0.11063702404499054
-0.0048535848036408424
0.009902115911245346
-0.032440558075904846
-0.07427054643630981
0.002313850913196802
-0.04506511241197586
0.02049778215587139
0.012764489278197289
0.026408053934574127
-0.04439517483115196
-0.014065591618418694
0.026365628466010094
0.002344914246350527
-0.015839271247386932
-0.010779168456792831
0.007665003649890423
-0.030418124049901962
0.012741876766085625
-0.05521930754184723
0.05603586137294769
0.10050250589847565
-0.04574727267026901
-0.02301771007478237
-0.026122532784938812
0.03603611886501312
-0.004416675306856632
0.04310869798064232
0.023049570620059967
0.05677109956741333
0.028503581881523132
-0.0020863343961536884
0.02371583692729473
-0.014803512021899223
-0.05029529333114624
-0.011825754307210445
-0.0018485784530639648
0.01316248532384634
0.048869457095861435
-0.03298089653253555
0.016882825642824173
0.02994482032954693
-0.08201291412115097
0.0033728182315826416
0.05910177156329155
-0.00021222108625806868
0.057842981070280075
0.012616947293281555
-0.05446070432662964
0.06849963963031769
-0.00640359241515398
-0.054426006972789764
0.0042142015881836414
-0.010037076659500599
0.06725572049617767
0.004437207709997892
-0.0019100046483799815
0.023209091275930405
0.011577444151043892
-0.005179096944630146
0.00869249738752842
0.0476699098944664
-0.058411598205566406
-0.02058151736855507
-0.011443871073424816
0.060991913080215454
0.055654317140579224
0.008331278339028358
-0.004183492623269558
-0.0014030223246663809
-0.041421130299568176
0.047918230295181274
-0.05107298120856285
-0.05509230121970177
0.0022641639225184917
-0.06077640503644943
-0.00035745493369176984
-0.036830391734838486
0.040296521037817
0.012846141122281551
0.04645147547125816
0.01803915947675705
0.05487712845206261
-0.09098316729068756
0.017846401780843735
-0.02984345518052578
-0.07651236653327942
0.035287950187921524
0.03409550338983536
0.017011437565088272
-0.060690827667713165
-0.05300720036029816
-0.05370033532381058
0.040338464081287384
-0.013197816908359528
-0.036461807787418365
-0.0027867979370057583
0.07037001848220825
0.009321482852101326
0.0236822497099638
0.042593710124492645
0.060952819883823395
-0.07326429337263107
0.006065611727535725
0.06124911829829216
-0.042003314942121506
-0.026852525770664215
0.05550645291805267
-0.07301939278841019
-0.05776964873075485
-0.019775617867708206
-0.0629677027463913
-0.006393382325768471
-0.04194357991218567
0.03970746695995331
-0.015316126868128777
0.06625822186470032
-0.0349801704287529
-0.029319999739527702
-0.030308105051517487
0.1013837605714798
0.011842737905681133
-0.02339285984635353
-0.07727453112602234
0.02602686733007431
0.06771273910999298
0.022986290976405144
0.06212207302451134
-0.042819347232580185
-0.0356903150677681
-0.04401165992021561
0.06119729205965996
0.012796452268958092
0.0005649079103022814
-0.03855930268764496
-0.03497115522623062
-0.05168692767620087
-0.03486599773168564
0.03407277911901474
-0.013076938688755035
0.02448689565062523
0.0042014047503471375
0.005528259556740522
-0.06568983197212219
0.010060057044029236
-0.015145139768719673
-0.01424473524093628
0.03705810755491257
-0.05456842482089996
-0.029468512162566185
0.015618456527590752
0.0019602891989052296
-0.048754047602415085
0.027878213673830032
-0.04035747051239014
-0.0451643131673336
-0.07451089471578598
0.007796281948685646
0.011647244915366173
0.005164710804820061
-0.05583591014146805
-0.010876575484871864
0.09060272574424744
0.019033152610063553
-0.06000291928648949
-0.008657591417431831
-0.05085315555334091
0.0405937060713768
-0.03173274174332619
-0.01240210048854351
0.006033286452293396
-0.046245962381362915
-0.023513054475188255
-0.0585075244307518
0.05705096945166588
-0.013033026829361916
0.06169990822672844
-0.07435813546180725
0.061250921338796616
0.045984067022800446
-0.020593833178281784
-0.02432861737906933
0.018806584179401398
0.09564079344272614
0.015504388138651848
-0.04476117715239525
0.04815083369612694
-0.031783509999513626
-0.0031424500048160553
0.0911034345626831
0.06624524295330048
0.04225672408938408
0.03295612707734108
-0.016574939712882042
0.002212270861491561
0.010136236436665058
0.003754101460799575
0.07176263630390167
-0.024014994502067566
-0.024012193083763123
0.04185264930129051
0.016565168276429176
-0.02945120632648468
-0.055194105952978134
-0.08415576815605164
0.0011956838425248861
0.0018895933171734214
0.07682661712169647
-0.03269028663635254
-0.016791867092251778
-0.018226884305477142
-0.028059398755431175
-0.006056507118046284
0.009772185236215591
0.009953077882528305
-0.07240015268325806
-0.0008879059460014105
0.044486429542303085
0.036223940551280975
-0.08308810740709305
-0.038342662155628204
0.00043217436177656054
0.008516881614923477
0.003935282118618488
-0.004656132776290178
0.0009200229542329907
0.05947238951921463
-0.0213923379778862
0.03194423019886017
0.04933543503284454
0.09008044004440308
0.08130574226379395
0.03375803306698799
-0.022553613409399986
0.04028104245662689
0.06793151795864105
-0.030141741037368774
0.010207668878138065
-0.013666342943906784
-0.0025414624251425266
-0.025166761130094528
0.0654628649353981
0.03303225710988045
0.057611510157585144
0.029310494661331177
-0.06475779414176941
0.025592949241399765
-0.02742007188498974
0.014347657561302185
-0.004954352043569088
-0.006332113407552242
0.012705436907708645
0.07111968100070953
-0.04204830527305603
0.09258599579334259
-0.00389668857678771
0.006615093909204006
0.00834711268544197
-0.004292512312531471
0.02590513974428177
0.000203304152819328
0.003933024127036333
0.03905493766069412
-0.03787021338939667
0.014919070526957512
-0.008928956463932991
-0.0525323860347271
0.015188110992312431
-0.01679251715540886
0.030947258695960045
0.037086308002471924
-0.0026513617485761642
0.008769853040575981
0.01155227329581976
-0.06077487766742706
-0.007232539355754852
0.00033594141132198274
0.07686549425125122
-0.004299628548324108
-0.011120157316327095
0.034044764935970306
0.0546925812959671
0.018520798534154892
-0.0020048744045197964
0.09760488569736481
0.029603231698274612
-0.023289702832698822
-0.02464432083070278
-0.05920545756816864
-0.016232717782258987
0.01118366327136755
-0.03870788961648941
-0.023960642516613007
-0.02850249968469143
-0.029855770990252495
-0.04922785609960556
-0.03852507472038269
-0.037385180592536926
-0.007266401778906584
-0.0019673150964081287
0.05588730424642563
0.03412332758307457
-0.057749755680561066
-0.0010066251270473003
0.08273837715387344
0.018939794972538948
0.006739381700754166
0.0662693977355957
0.011069163680076599
0.03004508465528488
0.04114842414855957
0.00048708455869928
-0.013097027316689491
0.02878386527299881
-0.10268737375736237
0.011627483181655407
-0.02212066948413849
-0.010999282822012901
0.01632562465965748
0.025723006576299667
0.011853806674480438
-0.05447015166282654
0.07752503454685211
0.08059697598218918
0.0030335085466504097
0.04021984338760376
0.07513896375894547
0.06443656980991364
-0.030421746894717216
-0.03738299012184143
-0.04980096220970154
0.045868318527936935
0.0694383904337883
0.07246983796358109
-0.013612685725092888
-0.006723986938595772
0.03881329670548439
-0.04776662215590477
0.029045455157756805
-0.05524279177188873
-0.0775173008441925
0.00269707920961082
0.004199865739792585
0.0011188031639903784
-0.0029235787224024534
0.010173547081649303
-0.008547570556402206
0.0755307674407959
-0.044455334544181824
-0.01916848123073578
0.030263464897871017
0.05334640294313431
0.04593852162361145
-0.05688897892832756
-0.038501348346471786
-0.021584894508123398
0.03920987248420715
0.005682108458131552
-0.009828263893723488
-0.002300100401043892
0.0015544745838269591
0.018786482512950897
-0.00629369355738163
0.01736314594745636
-0.025536581873893738
0.03748346120119095
-0.0032284636981785297
0.011920921504497528
-0.016946982592344284
0.040195051580667496
-0.055491071194410324
-0.0764971375465393
0.028164416551589966
0.03432163596153259
-0.06486065685749054
0.0018123270710930228
0.04240265488624573
-0.04023350775241852
-0.0066961972042918205
0.05325482040643692
0.026461046189069748
0.015702225267887115
-0.04712315648794174
-0.06070708483457565
0.04745744913816452
-0.050093766301870346
0.03893416002392769
0.02406715601682663
-0.05605463683605194
-0.07020160555839539
-0.028195973485708237
-0.021982654929161072
-0.007779588922858238
-0.026024971157312393
-0.09343747794628143
-0.05559724196791649
0.021946586668491364
-0.03206880763173103
0.03930240124464035
-0.04453031346201897
-0.015967722982168198
0.010811351239681244
-0.04205954819917679
-0.03533622995018959
-0.018693361431360245
-0.02839706465601921
-0.027617696672677994
-0.0227176696062088
0.035819776356220245
-0.012295889668166637
0.09915582835674286
-0.013238116167485714
-0.014802373945713043
-0.007859735749661922
0.054366059601306915
-0.03928152099251747
-0.018271079286932945
0.005376056768000126
-0.0013563752872869372
-0.02117118611931801
0.019568942487239838
-0.07356515526771545
0.04562724754214287
0.023625051602721214
-0.050022564828395844
0.058839067816734314
0.009658314287662506
-0.04716566205024719
0.033225852996110916
-0.08669590204954147
-0.06481219083070755
-0.004037217237055302
0.026291048154234886
-0.020753934979438782
0.016846615821123123
-0.08251792192459106
0.0009838445112109184
-0.030762270092964172
0.048659056425094604
-0.01883240044116974
0.05140182375907898
-0.03316568583250046
0.10111138224601746
-0.012920483946800232
0.02853693626821041
0.0192837156355381
0.017408370971679688
-0.020362691953778267
-0.021341975778341293
0.019910940900444984
0.01747526042163372
-0.030671391636133194
-0.08211649954319
-0.05462011694908142
0.0166337750852108
-0.005594448186457157
-0.002245252951979637
-0.049695588648319244
0.00960545614361763
0.034960195422172546
0.0016269201878458261
-0.022341152653098106
-0.014891854487359524
0.01704024337232113
-0.07324616611003876
-0.07669258117675781
0.05013803765177727
-0.008545717224478722
-0.04957013949751854
0.002739470452070236
-0.04334087669849396
-0.014003586024045944
-0.027996685355901718
0.06294280290603638
-0.029831556603312492
0.01204952783882618
0.015818916261196136
-0.0821293294429779
0.028574150055646896
0.045539259910583496
-0.007687831297516823
-0.020438479259610176
0.13674885034561157
0.04266129061579704
-0.08522742986679077
0.05231277272105217
-0.011200981214642525
0.02165921777486801
-0.018692512065172195
-0.0012940815649926662
0.040042243897914886
0.015294641256332397
-0.03710504248738289
-0.05086667463183403
-0.054484959691762924
-0.043013498187065125
0.009212939068675041
-0.030780892819166183
-0.008203256875276566
0.013656847178936005
0.028126999735832214
-0.012466094456613064
-0.03371163457632065
-0.011757335625588894
-0.01162496767938137
0.06148263067007065
-0.06534238904714584
-0.041917577385902405
-0.02204050123691559
-0.02923012338578701
-0.01538169663399458
0.005486468784511089
-0.015137061476707458
0.022032480686903
-0.05228123813867569
0.06756290793418884
0.08417012542486191
0.003265236970037222
0.011479273438453674
0.047706253826618195
0.0840754434466362
0.0497615709900856
-0.026157794520258904
0.04626420885324478
-0.014701779931783676
-0.07278861850500107
-0.013127981685101986
0.017346391454339027
0.012743588536977768
-0.04728548228740692
-0.0007639541290700436
0.046473950147628784
0.018269646912813187
0.06977410614490509
-0.033780552446842194
0.03732369840145111
0.027536191046237946
-0.02481394074857235
0.061377596110105515
0.019158868119120598
-0.07521964609622955
0.01661371812224388
-0.0060136578977108
0.04422636330127716
0.06510975956916809
0.037816159427165985
0.00016851327382028103
0.0023941239342093468
-0.05502179265022278
-0.014699182473123074
0.00042715296149253845
0.035056836903095245
-0.010669911280274391
0.006601040717214346
0.07764367014169693
-0.02560940384864807
0.0041894796304404736
0.0036817179061472416
-0.0037143840454518795
-0.014084802940487862
0.038409434258937836
-0.05950009450316429
0.01064918003976345
0.06509414315223694
0.08936344087123871
0.022539407014846802
-0.03700826317071915
-0.01979045569896698
-0.004151734057813883
0.0025603570975363255
-0.012915370985865593
0.010688209906220436
-0.017832960933446884
0.03216242417693138
-0.05135563760995865
-0.0287091713398695
0.020202476531267166
0.04528263956308365
0.0035356124863028526
-0.015483762137591839
0.017804183065891266
0.001853202935308218
-0.010289357975125313
-0.004747163504362106
0.05097588151693344
-0.023364944383502007
0.019539732486009598
-0.022389359772205353
0.06626027822494507
0.02040455862879753
0.0686250552535057
0.03239959850907326
-7.108967110980302e-05
0.019192151725292206
-0.052624382078647614
0.037902265787124634
-0.012877180241048336
0.004682151600718498
0.0334264300763607
0.016273602843284607
0.13151466846466064
0.006123117636889219
-0.05350140854716301
0.0543053075671196
0.01168107520788908
-0.022410742938518524
-0.030843203887343407
-0.035048406571149826
-0.04871762543916702
-0.03407014533877373
0.02101130783557892
0.030207082629203796
-0.02423405461013317
0.06762506067752838
-0.04769483953714371
0.10259222239255905
0.00835681613534689
0.0029073748737573624
-0.004910551942884922
0.07698522508144379
0.06243148073554039
-0.046178217977285385
0.05890865623950958
-0.036146946251392365
0.0069148950278759
-0.0381823368370533
0.007333518471568823
0.025071028620004654
-0.0089218495413661
0.022496594116091728
-0.0640176385641098
-0.04273954778909683
0.022973865270614624
0.06644163280725479
0.059856489300727844
0.06447554379701614
0.0240720734000206
0.05974477529525757
0.020073190331459045
0.0032743732444941998
-0.07528939843177795
-0.056846871972084045
-0.013397547416388988
-0.019217580556869507
-0.018535573035478592
0.0368189662694931
-0.01394105888903141
-0.039279475808143616
0.04820288345217705
-0.011503360234200954
-0.03724062070250511
-0.008586606942117214
0.003899984760209918
-0.03254639729857445
0.05644657462835312
-0.04580642282962799
0.0398489385843277
-0.05105511099100113
-0.015643492341041565
0.035985007882118225
0.02106086164712906
0.07708292454481125
-0.03859961777925491
-0.007182244211435318
0.02019253373146057
-0.05833469331264496
0.02823552116751671
0.005825567524880171
-0.003053738735616207
-0.028524404391646385
0.019010059535503387
-0.029613381251692772
-0.06087992712855339
-0.04225281998515129
-0.037816278636455536
-0.004053271375596523
-0.05671967193484306
0.05363040789961815
-0.01722566783428192
0.05073802173137665
0.014217449352145195
-0.008064148016273975
0.03446276858448982
0.04915497824549675
-0.03685895726084709
-0.004169116728007793
-0.00778679084032774
0.0353609137237072
-0.0008010101737454534
0.013662690296769142
0.015646183863282204
-0.06043991073966026
0.05156281590461731
0.015269411727786064
-0.03715634346008301
0.04055824130773544
0.06493855267763138
0.061054959893226624
-0.011342119425535202
-0.05876677855849266
0.034847140312194824
0.03423359990119934
-0.006055682431906462
-0.01482291892170906
-0.02920692227780819
-0.0390026718378067
0.07364736497402191
0.016535352915525436
0.0380629301071167
-0.0001564265985507518
0.03275971859693527
0.011185059323906898
0.0018209177069365978
0.014183131977915764
-0.040128931403160095
-0.010465128347277641
0.021623648703098297
-0.0073414212092757225
-0.03770286589860916
-0.00441939290612936
-0.014965884387493134
-0.03558875620365143
-0.002597193233668804
0.004035681486129761
-0.07493600249290466
-0.027500344440340996
-0.06922280788421631
0.013395121321082115
0.053201936185359955
0.016332736238837242
0.05817483365535736
-0.0018259574426338077
-0.024169793352484703
0.048829980194568634
-0.0025313289370387793
0.029049102216959
0.02466699294745922
-0.029066508635878563
0.04788101464509964
-0.0018532390240579844
-0.017999302595853806
-0.02124929055571556
-0.10045146197080612
0.011493111029267311
-0.07432171702384949
-0.011511921882629395
-0.05988496541976929
-0.008379695005714893
0.028606947511434555
-0.03113030456006527
-0.04368823394179344
-0.059630509465932846
-0.012960693798959255
-0.009529346600174904
0.012971529737114906
-0.043053701519966125
-0.011773656122386456
0.014571964740753174
0.025463834404945374
-0.0393647626042366
-0.02458244375884533
-0.004060367122292519
-0.02746543101966381
0.024424873292446136
0.03637399896979332
0.06782861799001694
-0.07574872672557831
-0.0193307064473629
-0.025294629856944084
0.06493149697780609
-0.02704683318734169
0.0025408004876226187
0.010265025310218334
0.01104903593659401
-0.04249319061636925
0.06368531286716461
-0.07029370963573456
0.03417421132326126
0.03245995193719864
0.004083331674337387
0.07770369946956635
-0.02701473981142044
0.07031148672103882
0.05219952389597893
-0.04071789234876633
-0.04424574226140976
0.08761496841907501
-0.06423642486333847
0.13273264467716217
-0.00750763900578022
0.030725110322237015
-0.004814495798200369
0.028969330713152885
-0.005505699198693037
0.03735259547829628
0.046083882451057434
0.0014496350195258856
-0.022750645875930786
0.010438068769872189
-0.006393272429704666
0.07909391820430756
-0.010884882882237434
-0.003917297814041376
0.04596254229545593
-0.007454674690961838
-0.003637271700426936
-0.06287366896867752
-0.05760771036148071
-0.025283170863986015
0.03887771815061569
0.008561094291508198
-0.025391286239027977
-0.008493365719914436
-0.015877729281783104
0.02736632525920868
0.02066214196383953
0.0030331085436046124
0.004492458421736956
0.01327897422015667
-0.01646389439702034
0.0459345243871212
-0.017257608473300934
-0.005666948854923248
0.0664355531334877
0.03965833783149719
0.020072609186172485
0.001805123290978372
-0.07945962250232697
0.04899771511554718
-0.016311850398778915
-0.077609583735466
-0.04652341455221176
-0.07039303332567215
-0.009878800250589848
-0.03551614284515381
-0.05406130105257034
0.012507317587733269
-0.03651997819542885
-0.061281707137823105
-0.04725898429751396
0.06002936512231827
0.012325550429522991
-0.009893353097140789
-0.003894624998793006
-0.04996307194232941
0.0010050202254205942
0.08258476853370667
-0.04726129770278931
-0.04700562357902527
0.03998264670372009
0.05375562235713005
0.05681987851858139
0.05583581328392029
0.032186463475227356
0.005005957093089819
-0.0007872809073887765
-0.011913723312318325
-0.004863749723881483
0.028555627912282944
0.025144649669528008
-0.0017732627457007766
-0.022952742874622345
-0.03238639980554581
0.09380683302879333
-0.02625313773751259
-0.007967335171997547
0.0646887868642807
0.1034107431769371
-0.015244845300912857
0.02646690607070923
-0.0025348765775561333
0.033541418612003326
0.020189136266708374
-0.013019466772675514
0.017762796953320503
0.016542911529541016
-0.025233125314116478
-0.00424935482442379
-0.025814441964030266
-0.0454762801527977
0.1345171481370926
0.012228645384311676
0.0429568886756897
0.040865782648324966
-0.016111038625240326
-0.017172276973724365
-0.07339763641357422
-0.06057014688849449
-0.021075468510389328
0.0353877879679203
4.8605572374071926e-05
0.02193036675453186
-0.04293206334114075
0.015507563948631287
-0.011005150154232979
0.05410775542259216
0.03761095553636551
-0.05747693032026291
-0.0026021588128060102
0.12581124901771545
-0.02584517002105713
-0.09609183669090271
0.0727926641702652
0.010757612995803356
0.00041191207128576934
-0.033618003129959106
0.026274776086211205
0.052861105650663376
-0.014621014706790447
0.03777610510587692
-0.030727148056030273
-0.02109014242887497
0.047803059220314026
-0.06357438117265701
-0.06495775282382965
-0.06403229385614395
-0.030586767941713333
-0.010026619769632816
0.057102665305137634
-0.07354377210140228
-0.024531392380595207
-0.001211993396282196
-0.08970308303833008
-0.0443287268280983
-0.014870695769786835
-0.0067792488262057304
-0.04269682988524437
0.04162442311644554
0.07319746166467667
-0.039073050022125244
0.02133689820766449
0.03534603491425514
-0.015014810487627983
0.005017564631998539
-0.05327686667442322
0.044217661023139954
-0.06452539563179016
0.03661871701478958
-0.0006123101338744164
-0.03946494311094284
-0.005272505339235067
-0.015284355729818344
0.012239131145179272
-0.03521287813782692
-0.012923229485750198
0.04262445494532585
-0.11077442020177841
-0.02194807305932045
-0.011330842040479183
-0.0025351345539093018
-0.05411189794540405
-0.02147139422595501
-0.00873771496117115
0.07972443103790283
0.014344025403261185
0.007097817957401276
-0.09501875936985016
0.013449459336698055
0.026431750506162643
-0.001691172132268548
0.0005898667732253671
-0.0003286705759819597
0.0008365946705453098
-0.0018413688521832228
0.009638241492211819
0.005916237365454435
-0.06623761355876923
-0.005380256101489067
-0.0047126878052949905
-0.03998973220586777
0.019706089049577713
0.049927499145269394
-0.033619508147239685
0.004654047079384327
-0.013091407716274261
-0.041810449212789536
-0.012021705508232117
-0.01544501818716526
0.07215038686990738
-0.03449263796210289
-0.051762960851192474
-0.09692463278770447
-0.04563252255320549
-0.09915852546691895
0.002062337938696146
-0.0860641822218895
-0.040842100977897644
0.03454805910587311
-0.014071903191506863
-0.07004161179065704
0.04808072745800018
-0.02065698243677616
0.014874245040118694
-0.021436363458633423
-0.07326915860176086
-0.06863758713006973
0.0003902923781424761
0.02184382639825344
-0.034705981612205505
0.03716505691409111
0.07667817175388336
-0.0517154335975647
0.038449205458164215
0.024887142702937126
-0.07430179417133331
0.009366920217871666
-0.007931572385132313
-0.011709778569638729
0.016162607818841934
0.010665345005691051
0.022357216104865074
-0.04054173082113266
0.0026940545067191124
0.002213398227468133
-0.017741940915584564
-0.04747511446475983
-0.055003657937049866
-0.08272983878850937
0.020790796726942062
0.017696049064397812
