-0.07283303886651993
0.043791308999061584
-0.042850807309150696
0.030847640708088875
-0.0017559851985424757
0.00884162075817585
-0.04216417297720909
0.011323998682200909
-0.05175122991204262
0.0784798189997673
0.01150545384734869
-0.04290761053562164
0.04542065039277077
0.04586578533053398
-0.021089695394039154
0.022000906988978386
-0.13803830742835999
0.06179601699113846
-0.06246229633688927
0.0406290702521801
-0.12928567826747894
-0.019290585070848465
0.1329190582036972
0.0846441313624382
0.055377911776304245
-0.044837772846221924
-0.0275926124304533
0.0505773201584816
-0.08150734752416611
-0.05068065598607063
-0.04876355454325676
0.1143837422132492
-0.04714945703744888
0.11484643816947937
0.07634315639734268
0.002792486222460866
0.14530521631240845
0.03134327754378319
0.01416000910103321
0.07489275932312012
0.0029420696664601564
0.10249873995780945
-0.03297225758433342
0.033789172768592834
0.009809471666812897
-0.04066801071166992
0.02256515435874462
-0.06522144377231598
-0.05942096561193466
-0.15818239748477936
0.08245403319597244
-0.011053447611629963
0.046698808670043945
-0.003370379563421011
0.09044370800256729
-0.009750588797032833
0.05301504209637642
0.007240432780236006
0.09290830045938492
-0.005616920534521341
0.0746774673461914
-0.11143425852060318
-0.10176719725131989
0.005943517200648785
0.06246224790811539
0.029419273138046265
-0.02248404733836651
-0.041506923735141754
-0.06911376863718033
-0.0642528310418129
-0.12098900228738785
-0.03475485369563103
-0.04542018100619316
-0.1032620370388031
0.03981388732790947
-0.024240292608737946
-0.07162076234817505
0.0012843628646805882
-0.08998103439807892
-0.012043967843055725
-0.0320739783346653
0.015031174756586552
-0.058325204998254776
-0.1830034703016281
0.08257448673248291
0.012558012269437313
0.006353997625410557
0.061747957020998
-0.1590133160352707
0.07839362323284149
-0.01485644280910492
-0.03895839676260948
-0.02002016454935074
0.017917603254318237
-0.00217736535705626
-0.03787318617105484
-0.0449322871863842
-0.046123843640089035
-0.00011345170787535608
-0.017873592674732208
-0.03202018886804581
-0.05766483023762703
0.06832044571638107
0.03078441321849823
-0.04297708719968796
-0.015470171347260475
0.06700531393289566
-0.06324068456888199
0.02230669930577278
-0.009596317075192928
0.007045079953968525
0.011268963105976582
0.031949374824762344
0.010293751023709774
0.06840728223323822
-0.09453393518924713
-0.022954395040869713
-0.06902050971984863
-0.037115056067705154
0.11486995220184326
-0.06560931354761124
0.02915377728641033
0.008491674438118935
-0.14631816744804382
0.053794652223587036
-0.09451603144407272
-0.009253960102796555
-0.031608790159225464
0.06761278957128525
-0.04561061039566994
-0.053341422230005264
-0.05078853294253349
-0.014485412277281284
0.013934276066720486
-0.06867576390504837
0.042784471064805984
0.034818198531866074
0.021985819563269615
-0.0806446373462677
-0.018016938120126724
-0.07542544603347778
0.006846265401691198
-0.015322140417993069
-0.018149273470044136
-0.14260606467723846
0.005602853372693062
0.045410849153995514
0.07683967053890228
-0.011306690983474255
0.0003738136438187212
0.037595413625240326
0.010282442905008793
-0.0594186894595623
0.016189711168408394
0.02886556088924408
0.01089849229902029
-0.05265655741095543
-0.030824773013591766
0.03198687359690666
0.07461313903331757
0.046704985201358795
0.04324318468570709
-0.006801517680287361
0.010280976071953773
-0.03673267737030983
-0.040276866406202316
0.007890342734754086
0.09727824479341507
0.0849255695939064
0.009587254375219345
-0.02877252921462059
-0.10261567682027817
-0.04805173724889755
0.024116260930895805
-0.07115279883146286
0.06456597149372101
-0.010519027709960938
0.12812413275241852
0.11669839173555374
0.12116272002458572
-0.0055911969393491745
0.05907822772860527
0.0993434339761734
-0.06061823293566704
-0.026989836245775223
0.08392975479364395
-0.0037077039014548063
0.08206872642040253
-0.039242055267095566
0.05037495121359825
0.06877119839191437
-0.02231243997812271
0.07685290277004242
-0.1455710530281067
-0.02844616211950779
0.08645597100257874
-0.06337117403745651
-0.015842391178011894
-0.07139262557029724
-0.061578892171382904
-0.08903495967388153
0.060687992721796036
0.10793868452310562
0.04959937930107117
0.009139550849795341
-0.086957186460495
0.10249102860689163
0.07800881564617157
0.04712396487593651
-0.02865757793188095
0.0612320639193058
-0.03165966272354126
0.010201324708759785
-0.004055263940244913
-0.046215128153562546
-0.003981554415076971
-0.010280135087668896
0.052392758429050446
-0.08242471516132355
-0.03744494169950485
0.0351283997297287
0.010408316738903522
-0.017520710825920105
0.06938139349222183
0.06132280081510544
0.006754171568900347
-0.04745492339134216
0.06814456731081009
0.006362934596836567
-0.004700940102338791
-0.079171322286129
-0.07747452706098557
0.020693030208349228
0.012727194465696812
-0.06410796195268631
0.0987996980547905
0.09147601574659348
-0.0257796011865139
-0.03707945719361305
-0.015957705676555634
-0.058970481157302856
-0.09027687460184097
-0.0231926292181015
0.02050013467669487
0.022742033004760742
0.07849909365177155
0.015053542330861092
-0.08374160528182983
-0.0980822741985321
-0.018260808661580086
0.007063792087137699
-0.046641577035188675
-0.012357700616121292
-0.030397024005651474
0.0031772064976394176
-0.05346949025988579
-0.04079446196556091
-0.05718246102333069
0.08762437850236893
-0.0460137203335762
0.06520423293113708
-0.02440781332552433
-0.07914696633815765
-0.007888882420957088
-0.009117098525166512
-0.12376204133033752
0.08281536400318146
-0.01708434894680977
-0.03973788022994995
-0.06467553228139877
0.07544632256031036
0.11280079185962677
-0.040443986654281616
-0.07014048844575882
-0.11852534115314484
0.13735690712928772
-0.03059845045208931
-0.12260641902685165
-0.035260558128356934
0.015165735967457294
-0.014562157914042473
-0.006950813811272383
0.015352492220699787
0.029583845287561417
0.025605175644159317
-0.11181425303220749
0.04356589913368225
0.030553458258509636
0.015012198127806187
-0.02011018432676792
-0.049485594034194946
0.016529494896531105
-0.031824395060539246
0.03134458512067795
0.038917917758226395
-0.02312653511762619
0.08003953844308853
0.00022039274335838854
-0.10324138402938843
-0.034283388406038284
0.03347136825323105
-0.04862796887755394
-0.08475533872842789
-0.05960932746529579
0.02380197122693062
-0.11822192370891571
-0.059865355491638184
-0.043613798916339874
-0.018896646797657013
-0.047943275421857834
-0.03588678687810898
-0.023027069866657257
-0.0051578558050096035
-0.00530521385371685
-0.13114622235298157
0.16923537850379944
-0.033941783010959625
0.030763676390051842
-0.00897485576570034
0.04091702029109001
-0.002502082847058773
0.06283435225486755
-0.10892345011234283
-0.05808549001812935
0.04727352410554886
-0.07058791816234589
0.012406714260578156
-0.031946778297424316
-0.025408722460269928
0.0035749583039432764
0.06668758392333984
-0.017912670969963074
0.062828429043293
0.006280180066823959
0.001829023938626051
0.0343785434961319
-0.0026173791848123074
0.007078766822814941
-0.03970747068524361
-0.07819755375385284
-0.015874996781349182
-0.010041753761470318
-0.06889261305332184
-0.11432824283838272
-0.05160228908061981
-0.004831512458622456
-0.045062556862831116
0.017090965062379837
-0.018828801810741425
0.11257091164588928
0.028492912650108337
0.01723068207502365
0.021975532174110413
0.08092354238033295
-0.09393269568681717
-0.15878161787986755
-0.0520508848130703
-0.06641020625829697
0.0058344891294837
-0.0006944118649698794
0.015247024595737457
-0.01158731896430254
-0.019705504179000854
0.03469314053654671
-0.054831936955451965
-0.0043288846500217915
0.00526324613019824
-0.021418893709778786
-0.025130724534392357
-0.06053229421377182
0.02367706224322319
-0.005247087683528662
-0.06678026914596558
0.027745839208364487
-0.058756113052368164
0.08280936628580093
0.012577105313539505
0.11757820099592209
0.032965872436761856
-0.05713522434234619
0.09946965426206589
0.07220020145177841
-0.056543655693531036
-0.021820595487952232
-0.0031001910101622343
0.0619283951818943
-0.12474250793457031
-0.00649140914902091
-0.02658194862306118
-0.003342788200825453
-0.056296560913324356
-0.03185029327869415
-0.0743720531463623
-0.12441299110651016
-0.05436204373836517
0.004761149175465107
0.0568450428545475
0.03630894795060158
-0.005556294694542885
-0.053914591670036316
0.2443215698003769
-0.02262800931930542
0.044016283005476
0.008418829180300236
-0.09093283116817474
0.1136249303817749
-0.09599284827709198
0.06691787391901016
-0.0029157812241464853
-0.020157666876912117
-0.039264414459466934
0.009504239074885845
0.022610899060964584
0.026898624375462532
-0.07530060410499573
-0.031459271907806396
-0.11651543527841568
0.015693942084908485
0.0067191109992563725
-0.11013534665107727
-0.011858878657221794
-0.04182589799165726
0.030705587938427925
0.04788077250123024
0.037191201001405716
0.07869914174079895
-0.05816766619682312
0.0009210747084580362
-0.004920113366097212
-0.007429111748933792
0.01242242380976677
0.02759290114045143
0.03519141301512718
-0.11848302185535431
-0.018477270379662514
0.04879351705312729
-0.032149236649274826
0.058744072914123535
0.004213217180222273
0.00011769186676247045
-0.005452767945826054
-0.027636386454105377
-0.06266091763973236
0.02572716400027275
0.02463638223707676
0.031122535467147827
0.0719318687915802
0.05745071917772293
0.1048315092921257
-0.058807238936424255
0.09278721362352371
0.0034618566278368235
0.008614727295935154
-0.03138527646660805
0.030851928517222404
-0.13296982645988464
0.05750129744410515
-0.007969517260789871
-0.1230887919664383
0.15739037096500397
0.04297270625829697
0.0338677242398262
-0.0696830227971077
-0.029829204082489014
0.08092652261257172
0.04024446755647659
-0.05290782451629639
-0.018593594431877136
-0.051254913210868835
0.03122258558869362
-0.03075414150953293
-0.019939862191677094
-0.0532216802239418
-0.04899413138628006
-0.061100903898477554
0.0666421502828598
0.018149128183722496
-0.08721760660409927
0.0700349360704422
0.04487350210547447
-0.05304885655641556
0.08318008482456207
0.05259661003947258
-0.004448441788554192
-0.10468189418315887
-0.06206745654344559
-0.07004105299711227
0.022898010909557343
0.0064843459986150265
0.1773468554019928
-0.013784770853817463
0.05971404165029526
0.035629820078611374
-0.05680881068110466
-0.07799653708934784
-0.028481680899858475
-0.04071031138300896
0.015250038355588913
0.03310638293623924
-0.040076132863759995
0.035051699727773666
-0.009620611555874348
0.005772407632321119
0.048155441880226135
-0.027286307886242867
0.06367453187704086
0.029217366129159927
0.038636911660432816
-0.014922037720680237
0.03363833948969841
0.029852181673049927
-0.02125411480665207
-0.03716007247567177
0.0029037892818450928
-0.024211207404732704
-0.02018311619758606
0.012103053741157055
-0.04408711567521095
-0.07085975259542465
0.006792217027395964
0.03526085615158081
0.015128707513213158
0.03500136733055115
0.0517902672290802
0.012763460166752338
-0.029167242348194122
0.03005196712911129
0.03479785472154617
0.013890334405004978
0.025562988594174385
-0.0516197644174099
0.0749310851097107
-0.06336305290460587
-0.07225488126277924
-0.03679630160331726
-0.01579047553241253
-0.037888213992118835
0.052431415766477585
-0.0038052923046052456
-0.011586050502955914
0.05362844094634056
-0.015254252590239048
-0.013295280747115612
0.05281202122569084
-0.05890883132815361
0.056086812168359756
-0.04430147632956505
0.002408807398751378
-0.005341573618352413
-0.06030677258968353
0.0011982660507783294
0.012988501228392124
-0.03689749911427498
0.002520035021007061
-0.025091025978326797
-0.01899597980082035
0.007679780945181847
-0.02604898065328598
0.0689942017197609
-0.1497313231229782
-0.0313754566013813
-0.007830376736819744
-0.05931023880839348
-0.0089297816157341
0.09174346178770065
0.053967345505952835
-0.04664214327931404
-0.010276668705046177
0.03321376070380211
-0.052290190011262894
-0.003524164902046323
0.06684722751379013
-0.10648297518491745
-0.0366433821618557
0.058521997183561325
0.041080065071582794
0.003973816521465778
0.03273024037480354
-0.08270993828773499
0.05340616777539253
0.04974409192800522
-0.032154571264982224
0.12375182658433914
0.012581105343997478
-0.05520542338490486
0.09530698508024216
0.007159339264035225
-0.023888524621725082
0.012001732364296913
-0.024122901260852814
0.07439043372869492
0.1202998086810112
0.06443458795547485
-0.10936560481786728
-0.019405612722039223
-0.003468884387984872
-0.026725737378001213
-0.06930429488420486
0.0837988406419754
0.004640336614102125
-0.004120165016502142
-0.11544691026210785
0.040499500930309296
0.01542577799409628
0.08205733448266983
0.017459731549024582
-0.0972321480512619
-0.14049814641475677
0.028623705729842186
-0.06832729279994965
0.09332603216171265
0.000769881356973201
-0.04392142593860626
0.12495297193527222
0.03195562586188316
0.06709777563810349
0.07084441930055618
-0.06904478371143341
0.049878641963005066
-0.044392991811037064
0.029453042894601822
-0.07644275575876236
-0.013129574246704578
0.03623645380139351
0.07018044590950012
-0.015391233377158642
0.08140207082033157
0.028322158381342888
-0.054944559931755066
-0.017993351444602013
-0.038340579718351364
-0.011922413483262062
-0.01000740472227335
0.031982120126485825
0.08425437659025192
0.05121497064828873
-0.020187262445688248
0.03537420928478241
-0.003045647870749235
0.018832223489880562
0.13649722933769226
-0.10676702111959457
-0.08096278458833694
0.03005853109061718
-0.0449066087603569
0.047809697687625885
-0.013468943536281586
0.12414862960577011
0.0020961021073162556
-0.027092132717370987
0.007290864363312721
-0.008667629212141037
-0.0036441911943256855
0.014978192746639252
-0.05053329840302467
0.0045543210580945015
0.10333828628063202
-0.0883212611079216
-0.04623504355549812
0.036376263946294785
0.07913222908973694
0.03967294469475746
0.007028219755738974
-0.014844569377601147
-0.03327922523021698
0.04478868469595909
-0.006980705540627241
-0.03569651022553444
0.021811727434396744
0.03954780474305153
-0.0558202788233757
-0.05891428515315056
0.006796414498239756
0.003385279793292284
-0.02894265577197075
-0.052010491490364075
-0.04652320221066475
-0.005785004235804081
0.02032560668885708
0.05848493427038193
0.07062634825706482
-0.0010146856075152755
0.036399442702531815
0.09712961316108704
-0.028860950842499733
0.05170372873544693
-0.009720460511744022
-0.03131585568189621
-0.12177795171737671
-0.0037426461931318045
0.03144070878624916
0.05248919501900673
-0.09804683923721313
0.022404933348298073
0.06460275501012802
-0.1054457277059555
-0.04510483518242836
0.010595038533210754
0.0004144486738368869
0.007624101359397173
-0.03203791379928589
0.027000125497579575
0.04936128854751587
-0.020989950746297836
0.02852814272046089
-0.04139086231589317
-0.012421227991580963
-0.05597006157040596
0.10458556562662125
0.07295200973749161
-0.10882250219583511
-0.04665099084377289
-0.06496361643075943
-0.05449359491467476
0.06850968301296234
0.04586723819375038
0.017705343663692474
-0.03620157018303871
0.019278226420283318
-0.0455050989985466
-0.0662107989192009
-0.002073488896712661
-0.008557391352951527
-0.004250979050993919
0.020826304331421852
-0.017765557393431664
-0.045371364802122116
0.11055439710617065
0.043267372995615005
-0.0534856803715229
0.004954806994646788
-0.15658129751682281
0.0004488973645493388
0.009519620798528194
-0.018888847902417183
0.02478933334350586
-0.022120200097560883
-0.001671878737397492
0.061882179230451584
-0.10605444759130478
0.0035016373731195927
0.0599534697830677
0.05122460797429085
-0.08670228719711304
0.10148042440414429
-0.04864272102713585
-0.003181240987032652
0.07516451179981232
0.014421207830309868
-0.04849095642566681
0.06442193686962128
0.05731234326958656
-0.1177661120891571
0.018035411834716797
-0.030538855120539665
-0.08570471405982971
0.020303530618548393
0.10326855629682541
-0.00265011889860034
0.015375316143035889
-0.08069667220115662
-0.03199823945760727
-0.036443933844566345
-0.07533144950866699
-0.0807354673743248
-0.06600593030452728
-0.019023047760128975
-0.03497624024748802
0.06462633609771729
0.031082598492503166
-0.05444394424557686
0.048324208706617355
0.03188524767756462
-0.06925726681947708
-0.051374487578868866
-0.0695405974984169
0.05166822671890259
-0.03935232758522034
0.02987087331712246
-0.0016561709344387054
0.016973135992884636
0.1048249676823616
0.042818762362003326
-0.04884845018386841
0.18988268077373505
0.019233906641602516
-0.003075956366956234
0.07761223614215851
-0.028344759717583656
-0.10064713656902313
0.03629053011536598
0.15941494703292847
-0.08696720749139786
-0.12823888659477234
0.028075002133846283
0.07707381993532181
0.07577129453420639
-0.041367679834365845
-0.043317001312971115
-0.1139562651515007
0.012243513949215412
0.06774403154850006
0.014712040312588215
-0.014812463894486427
0.0741913840174675
-0.04301577806472778
-0.029064951464533806
0.03082411177456379
-0.06896251440048218
-0.04336348548531532
-0.01367894560098648
0.025937383994460106
-0.019779512658715248
-0.035656530410051346
0.03386768326163292
-0.0635179951786995
-0.02578156813979149
0.008393694646656513
-0.023483173921704292
-0.04296116903424263
-0.021568717435002327
0.08588612079620361
-0.02164001762866974
0.07012469321489334
0.004908484406769276
-0.08825112134218216
-0.0019793526735156775
-0.09765226393938065
-0.024195058271288872
0.07870873063802719
0.00839164573699236
-0.02094506286084652
0.026429707184433937
-0.03161197155714035
0.05737924575805664
0.12593261897563934
0.010772979818284512
-0.028475118800997734
-0.08288692682981491
-0.055824004113674164
-0.20024259388446808
-0.0037615676410496235
-0.030643383041024208
-0.06907893717288971
0.1060958206653595
0.039924751967191696
0.04967372119426727
-0.09728380292654037
-0.07564307004213333
-0.010520173236727715
-0.01790497824549675
-0.12129908055067062
0.030706163495779037
0.05659908801317215
0.02685537375509739
-0.03570239990949631
0.023002751171588898
0.07543616741895676
-0.06422152370214462
-0.07529175281524658
0.0012751605827361345
-0.05030064657330513
0.04623403027653694
0.14093773066997528
0.09126097708940506
-0.02427566424012184
-0.017513401806354523
-0.003877784823998809
-0.05348885804414749
0.005192059092223644
0.12092877924442291
0.031692489981651306
-0.06867344677448273
0.05237306281924248
0.0437227226793766
-0.0722622200846672
0.01940125599503517
0.11354034394025803
-0.11315551400184631
-0.1291319578886032
0.030360335484147072
0.00397774763405323
0.04650820791721344
0.13792504370212555
-0.025821639224886894
0.012873569503426552
-0.04163268208503723
0.0021537195425480604
-0.021707281470298767
0.004884275607764721
-0.10439107567071915
-0.04665312170982361
0.014202690683305264
-0.014556427486240864
-0.0037013995461165905
-0.049933940172195435
-0.005478417035192251
0.03524232283234596
0.1390181928873062
-0.01871214620769024
0.004835549276322126
-0.037656839936971664
-0.03180255368351936
0.013851628638803959
-0.0016963148955255747
-0.032556649297475815
0.09411053359508514
-0.04210130125284195
0.06498672813177109
0.04193662106990814
0.011100892908871174
-0.0163668692111969
0.05344255268573761
0.030296633020043373
0.03200500085949898
-0.05187206715345383
0.017640266567468643
0.10451046377420425
-0.06507744640111923
-0.10778374969959259
0.15919072926044464
0.04020574316382408
0.01614409312605858
-0.04092777520418167
-0.04905986413359642
-0.02837742306292057
-0.06476890295743942
-0.014807131141424179
0.02480112761259079
0.0037273343186825514
-0.027993306517601013
-0.04296242073178291
-0.05157240852713585
0.02391880564391613
0.018025504425168037
0.047219570726156235
-0.0046498412266373634
0.021899163722991943
0.032192789018154144
-0.05428127944469452
-0.020730644464492798
-0.01871873252093792
-0.007846062071621418
-0.023255236446857452
-0.10240129381418228
0.05337007716298103
-0.1135055273771286
-0.05841263756155968
-0.12883228063583374
0.07678168267011642
0.0055295974016189575
-0.14405246078968048
-0.029349325224757195
0.08490544557571411
0.0023429838474839926
-0.010282711125910282
-0.04826180264353752
-0.08151429891586304
-0.0704202800989151
0.04219229519367218
-0.09231363981962204
-0.09490418434143066
0.003559352131560445
0.00380506063811481
0.09900261461734772
0.07468398660421371
0.14857518672943115
0.039470478892326355
-0.0377826988697052
0.11383837461471558
-0.06327714771032333
0.06428779661655426
0.0017142491415143013
0.11977866291999817
0.06546052545309067
0.027872195467352867
-0.05150967836380005
0.14854107797145844
-0.09115646779537201
0.007632057648152113
-0.020638031885027885
0.021824108436703682
-0.07434149086475372
-0.0520312525331974
-0.0017381850630044937
-0.04359954968094826
-0.0888872742652893
-0.011530529707670212
0.00938622746616602
-0.04844004660844803
-0.003421312663704157
0.02011968195438385
0.07714627683162689
0.030967041850090027
0.022589487954974174
-0.050663385540246964
-0.03410828486084938
-0.05586288496851921
0.01608572155237198
-0.005410841666162014
0.05583304166793823
-0.07196392118930817
-0.08489426225423813
-0.014511476270854473
0.15148155391216278
0.0881565511226654
-0.13080525398254395
0.04900560900568962
-0.04004548117518425
-0.05820776894688606
-0.022418439388275146
-0.013226890936493874
-0.019343463703989983
-0.006787784863263369
0.017820721492171288
0.044598549604415894
0.015394152142107487
0.06308569759130478
-0.008486215025186539
0.02493528090417385
-0.09828075766563416
0.07885485887527466
-0.02331235073506832
0.02535875141620636
0.0021133022382855415
0.04336908832192421
-0.07317531108856201
-0.050489626824855804
0.022694190964102745
-0.13551543653011322
0.0850641280412674
-0.08915209770202637
-0.017001543194055557
0.017880339175462723
0.04358929768204689
0.04151880741119385
0.10934325307607651
-0.052828311920166016
0.025016335770487785
-0.06256209313869476
-0.026004521176218987
0.041201770305633545
-0.17550818622112274
-0.07507782429456711
0.06578762084245682
0.01663648523390293
-0.06017626076936722
0.0810747891664505
0.003334957640618086
0.030494794249534607
0.03493798151612282
0.012203861959278584
0.09260395169258118
-0.0022343150340020657
-0.11120463162660599
0.07868355512619019
-0.03653339669108391
0.03263336420059204
0.10921797901391983
-0.04689889773726463
0.12202344089746475
-0.13502255082130432
-0.07873839884996414
-0.009079406969249249
-0.04380178824067116
0.012360433116555214
-0.037608321756124496
-0.033369362354278564
-0.023625453934073448
-0.0032661932054907084
0.014583616517484188
0.023532463237643242
-0.033061571419239044
0.011776524595916271
0.06394495069980621
0.006562102120369673
0.022732658311724663
0.002891477197408676
0.09708000719547272
0.06469390541315079
0.04893450438976288
-0.06146933138370514
-0.02276988886296749
-0.05356701463460922
-0.008045537397265434
-0.000751451647374779
-0.024502979591488838
0.00020720130123663694
-0.024505091831088066
0.058406468480825424
-0.026324022561311722
-0.008911360055208206
-0.011428938247263432
0.11270526796579361
-0.0047425501979887486
0.008750366047024727
0.007293812930583954
-0.018813490867614746
-0.016139568760991096
0.007954222150146961
0.03415130078792572
0.02532903477549553
0.052046310156583786
0.02118719182908535
0.049194835126399994
-0.06717992573976517
-0.02598557062447071
0.044764161109924316
0.0322578027844429
-0.08767411857843399
0.0660080760717392
-0.07205350697040558
0.04349284619092941
0.023382654413580894
-4.9683589168125764e-05
-0.1532890349626541
-0.11484543234109879
-0.037611622363328934
0.08716470748186111
0.035429589450359344
-0.02229810692369938
0.07583682984113693
0.07886385917663574
-0.10647149384021759
-0.014386001043021679
-0.06712279468774796
0.018977293744683266
0.02032618410885334
0.00988153088837862
-0.02360175922513008
0.010994726791977882
-0.14829814434051514
0.03520029038190842
0.023568814620375633
0.014259620569646358
0.0036907026078552008
-0.05893419310450554
-0.03748423233628273
0.039000216871500015
-0.08878711611032486
0.09282601624727249
0.05806361511349678
0.025544045493006706
0.014570953324437141
0.05491744354367256
0.020559147000312805
-0.06667983531951904
0.10804293304681778
-0.03612837195396423
0.010864784941077232
0.03215096890926361
0.10681600868701935
-0.06452919542789459
-0.006008731666952372
0.06201906502246857
0.07378026098012924
-0.1414867490530014
-0.09175172448158264
-0.07036642730236053
0.06734056025743484
0.11619532853364944
0.03174784779548645
0.010099201463162899
-0.0630493015050888
0.0702625960111618
0.022458573803305626
0.001465412206016481
-0.05370767414569855
0.06435231119394302
0.0337195098400116
-0.06193747743964195
-0.004076256882399321
-0.07506230473518372
0.03894855082035065
-0.018993226811289787
0.025936096906661987
-0.11001627147197723
0.03200753033161163
-0.01576894149184227
0.012829653918743134
0.07736226916313171
-0.0700639933347702
-0.006815268658101559
-0.030258167535066605
0.0647532045841217
0.0344553142786026
0.06301148235797882
0.08959481120109558
0.035643868148326874
0.045342035591602325
-0.07747529447078705
-0.12470059841871262
0.04789472743868828
0.09264936298131943
-0.045511238276958466
-0.03031052090227604
-0.04383816197514534
0.06702392548322678
-0.08519505709409714
-0.02448403835296631
0.006555650383234024
-0.03577195852994919
0.035817477852106094
0.05647018924355507
0.009759858250617981
-0.002332285512238741
0.016671979799866676
0.09097031503915787
-0.045235127210617065
0.03801608830690384
-0.026344265788793564
0.01262248121201992
-0.00393629539757967
-0.006878927815705538
0.008504850789904594
0.03563424199819565
-0.019319334998726845
0.017553145065903664
-0.06927952170372009
-0.08950234204530716
0.024565545842051506
0.003719724016264081
0.13152006268501282
-0.1058584526181221
-0.03895927593111992
0.11706803739070892
-0.03833240643143654
-0.010396002791821957
0.04378635808825493
0.05471792072057724
0.12748312950134277
-0.029933296144008636
0.013355852104723454
0.023400867357850075
0.029705611988902092
0.013044997118413448
-0.01181891467422247
0.15411849319934845
-0.045025791972875595
-0.03211810812354088
0.05594538897275925
0.04371699318289757
-0.008861858397722244
0.02105662040412426
-0.06250012665987015
-0.03925669193267822
-0.033656224608421326
-0.0038616391830146313
-0.007441844325512648
0.012595396488904953
0.06543081998825073
0.11791099607944489
0.021180467680096626
-0.042047012597322464
-0.05968891456723213
-0.016310369595885277
-0.06970540434122086
-0.04425188526511192
-0.002130192704498768
-0.08413862437009811
-0.04131172224879265
-0.031594038009643555
0.03790590539574623
0.040722496807575226
-0.05988558754324913
-0.004628378432244062
0.01480951439589262
0.13031217455863953
-0.015331951901316643
0.06130753830075264
0.05711792781949043
-0.08478035032749176
-0.06262918561697006
-0.013925469480454922
0.0062523698434233665
0.032290808856487274
0.02097061648964882
-0.02333260513842106
0.004810863174498081
0.05537363141775131
-0.0038854731246829033
0.07318821549415588
-0.1134113296866417
0.021766111254692078
0.058950282633304596
0.06898289173841476
0.060304924845695496
-0.009627342224121094
-0.008710590191185474
-0.06193304434418678
-0.0567074678838253
-0.040589313954114914
0.041855569928884506
0.11541259288787842
0.05989178270101547
-0.014452758245170116
0.12493525445461273
-0.0725020170211792
0.052183493971824646
0.03500434383749962
-0.07820391654968262
-0.03228660672903061
0.06005631014704704
0.013515026308596134
-0.00854273047298193
0.06978744268417358
-0.05051406845450401
-0.0007315329858101904
-0.016551686450839043
-0.026863308623433113
0.02558862417936325
-0.05108935385942459
0.05812647566199303
-0.0749884843826294
-0.05974556878209114
0.09520215541124344
-0.05228165537118912
0.06950070708990097
0.017933622002601624
0.020165245980024338
0.07400337606668472
0.018691523000597954
-0.00039934017695486546
0.034061264246702194
-0.048980869352817535
0.05523217096924782
-0.06895487010478973
0.04990531876683235
0.026399537920951843
0.07175811380147934
-0.027391517534852028
-0.010002308525145054
0.03942802920937538
0.0372367762029171
0.033941663801670074
0.053444165736436844
-0.033189158886671066
-0.03264820948243141
-0.04362458363175392
0.05449782684445381
0.04515453428030014
0.032501623034477234
-0.017239075154066086
-0.040392499417066574
-0.0074296691454946995
-0.08890295773744583
-0.011587628163397312
0.02931211143732071
-0.03968566656112671
-0.032575685530900955
-0.11905130743980408
-0.007041833829134703
-0.023994537070393562
-0.05624854937195778
-0.045340150594711304
-0.04230561852455139
0.02320086769759655
0.08884407579898834
0.02746567502617836
0.11849550157785416
-0.05118605121970177
-0.04874258115887642
0.03775341436266899
0.004146039951592684
-0.013993990607559681
-0.057678479701280594
-0.027014203369617462
-0.04291420429944992
0.021347040310502052
-0.12110617756843567
-0.0005650355597026646
0.005720307119190693
0.013158370740711689
-0.0437423475086689
0.019687164574861526
-0.0017454639310017228
0.025632482022047043
0.06400062143802643
-0.03171691298484802
-0.018220610916614532
0.05767378583550453
-0.008757111616432667
0.12572051584720612
0.020897898823022842
-0.012744820676743984
0.026078224182128906
-0.062458932399749756
-0.09712260961532593
0.008106534369289875
0.010998548939824104
0.01978832483291626
-0.07788699865341187
0.019333044067025185
0.13298004865646362
-0.0009420980932191014
-0.007486814167350531
0.0181317999958992
-0.027565788477659225
-0.054360851645469666
0.014843801967799664
0.07174749672412872
-0.06753522902727127
0.009654558263719082
0.0049970801919698715
0.024611065164208412
-0.05273847281932831
-0.12819252908229828
-0.043281085789203644
0.041166819632053375
0.09531877189874649
0.042387861758470535
0.03424710035324097
-0.04565122723579407
-0.001994283404201269
-0.025300772860646248
-0.027231894433498383
0.04323318973183632
-0.10104508697986603
-0.11678483337163925
0.005936358589679003
0.05313876271247864
0.0364266075193882
0.05493416264653206
0.08072694391012192
-0.027802759781479836
-0.011573836207389832
0.008497322909533978
-0.09837406128644943
0.025570115074515343
0.041451502591371536
0.03399317339062691
-0.042201876640319824
-0.06981542706489563
-0.004584196954965591
0.0007272576331160963
-0.03285570070147514
-0.03996267542243004
-0.007265056949108839
0.12334699183702469
-0.07207468152046204
-0.009641163051128387
0.06607557088136673
-0.0821881890296936
0.022608403116464615
-0.0019361348822712898
-0.0034949365071952343
0.036174386739730835
0.040805377066135406
0.0656275749206543
0.05678637698292732
-0.056216221302747726
0.106496661901474
0.008650516159832478
0.0051172394305467606
0.03224756568670273
0.0601186528801918
0.0364132821559906
-0.03121865913271904
0.0057057226076722145
0.009029676206409931
-0.0028467481024563313
0.07157402485609055
-0.01052340492606163
-0.05669628828763962
-0.012246973812580109
0.0796787366271019
0.017005452886223793
-0.05791860446333885
-0.06946130096912384
0.06207503005862236
0.002313033677637577
0.014081006869673729
0.06299716979265213
0.03695978969335556
0.027424447238445282
-0.018038451671600342
0.13058406114578247
0.011643915437161922
0.07795294374227524
0.08852051943540573
0.045718755573034286
-0.010471372865140438
-0.010424420237541199
0.08849739283323288
-0.09272391349077225
-0.017973553389310837
-0.00014577065303456038
-0.05058686435222626
-0.09084124118089676
-0.025747278705239296
0.019942104816436768
-0.052679575979709625
0.022457757964730263
-0.1110503226518631
0.06203123927116394
0.030780257657170296
-0.039995674043893814
0.01047210767865181
-0.0550103485584259
0.034177280962467194
-0.06077102944254875
0.08087338507175446
0.010396349243819714
0.02791419066488743
0.0015537600265815854
-0.02023262344300747
-0.04898937791585922
0.01270404551178217
-0.0018102491740137339
0.020346246659755707
-0.003990848548710346
-0.006610714364796877
0.007140338886529207
-0.004520530346781015
-0.04926615208387375
-0.022212166339159012
-0.07916135340929031
-0.10002021491527557
-0.012252678163349628
-0.018039656803011894
-0.04160306975245476
-0.11998016387224197
-0.0049245464615523815
-0.026464931666851044
0.061008792370557785
0.0012725840788334608
0.07630759477615356
-0.04912080988287926
0.12183796614408493
0.056629374623298645
-0.05640338733792305
0.05728704854846001
0.024225052446126938
0.027073713019490242
0.036455415189266205
-0.01711767539381981
-0.05734821408987045
-0.1289813220500946
0.025679893791675568
-0.01172367949038744
0.05453013256192207
-0.025898829102516174
0.02597285620868206
-0.019612053409218788
0.11326490342617035
0.03656965121626854
0.026844210922718048
-0.07060237973928452
-0.04466670751571655
0.10362353920936584
0.03494641184806824
-0.0030335234478116035
-0.09462098777294159
-0.05382176861166954
0.07259832322597504
0.03115503489971161
0.03179171308875084
0.056525781750679016
0.024142615497112274
-0.037844158709049225
0.0724620595574379
-0.1356484293937683
-0.06777270138263702
0.026483694091439247
-0.008215469308197498
0.046334657818078995
0.04527461901307106
-0.02326294220983982
-0.025571465492248535
0.020425884053111076
-0.006850659381598234
-0.051172614097595215
-0.00662609189748764
-0.020872801542282104
0.17271800339221954
-0.07435397803783417
0.07982098311185837
-0.046055953949689865
0.05372317507863045
0.03644968569278717
-0.07735582441091537
0.03392067551612854
-0.06742577254772186
-0.040337562561035156
-0.019632015377283096
-0.015491276048123837
-0.019396981224417686
-0.001226681750267744
0.06036060303449631
-0.043789755553007126
0.06777158379554749
0.05243225768208504
0.053613148629665375
0.07144607603549957
-0.015396103262901306
-0.007034825161099434
0.06906870007514954
-0.015438278205692768
-0.033160652965307236
0.0008812399464659393
0.0788448303937912
0.038290269672870636
-0.031519677489995956
-0.041009917855262756
0.0900520533323288
0.06281110644340515
0.03730595484375954
0.05777089297771454
-0.07017926126718521
-0.00851668231189251
-0.041514839977025986
-0.03566792607307434
0.008846708573400974
0.06595975905656815
-0.023530807346105576
-0.006957630626857281
0.06460394710302353
0.08194959908723831
0.01688263565301895
-0.0099073750898242
-0.02020406909286976
-0.06751444190740585
-0.061249203979969025
-0.09144451469182968
0.012561297044157982
-0.04712797701358795
0.004645008128136396
-0.042197879403829575
0.04656090959906578
0.012715685181319714
0.0754559263586998
-0.031472790986299515
-0.0973917543888092
-0.03811127319931984
-0.00927377212792635
0.013495943509042263
-0.017734574154019356
0.01540397759526968
-0.017840728163719177
-0.06688860058784485
-0.016512567177414894
0.06899882107973099
-0.060040589421987534
0.00696670264005661
-0.018969496712088585
0.10278069227933884
-0.0452304370701313
-0.004422563593834639
0.014376053586602211
0.04578636959195137
0.08537005633115768
-0.01912129856646061
-0.008743908256292343
-0.04232830926775932
0.03773251920938492
-0.020603099837899208
-0.02903926372528076
0.10802311450242996
-0.04139073193073273
0.05158044025301933
-0.009700722061097622
-0.03854876756668091
0.0410347618162632
0.12423627823591232
0.08306208997964859
-0.005112546030431986
0.05939410626888275
-0.04789207875728607
-0.031518056988716125
0.02242075838148594
0.00035423834924586117
0.04715710133314133
-0.07871882617473602
0.11272180080413818
0.06355892866849899
0.06859169900417328
0.061305589973926544
-0.036433473229408264
-0.01905900426208973
-0.04225405305624008
0.03152865543961525
-0.04439542442560196
-0.02410859242081642
0.01519777812063694
0.05692319944500923
-0.03384854272007942
-0.04073693975806236
0.06829425692558289
-0.05274937301874161
-0.07888475060462952
-0.07587847858667374
0.006923822220414877
-0.043657444417476654
-0.05295224115252495
0.12002073973417282
-0.05971435084939003
0.09319619834423065
-0.07007577270269394
0.04894178733229637
-0.05558941885828972
-0.03043285198509693
-0.07811883836984634
0.03411865234375
0.11624977737665176
-0.08055038005113602
0.0264214426279068
-0.055350933223962784
0.05987036973237991
0.015915855765342712
0.08165296167135239
-0.057108569890260696
-0.03312292322516441
0.035869136452674866
0.01436500996351242
0.003374893916770816
0.019237743690609932
-0.06650091707706451
-0.016697198152542114
0.02773188054561615
0.008524443954229355
-0.02723611518740654
-0.01649468019604683
0.07702668756246567
-0.05826762318611145
-0.025240588933229446
0.06538540124893188
-0.08931456506252289
-0.05957891047000885
0.02778165601193905
0.007204717956483364
0.013911837711930275
-0.030033208429813385
0.0072431303560733795
0.07773485779762268
-0.009379323571920395
0.007548455148935318
-0.05268299952149391
-0.05180627107620239
0.020603451877832413
-0.021145682781934738
-0.01838301308453083
0.10458608716726303
-0.023629719391465187
0.022878408432006836
-0.05987996608018875
-0.002293853322044015
-0.032106079161167145
-0.04890839383006096
0.0762895718216896
-0.04809042438864708
0.039355240762233734
0.13856272399425507
0.04540621489286423
-0.071994349360466
0.015019344165921211
0.00873834639787674
-0.053161345422267914
0.04985171929001808
-0.04832819104194641
-0.1415894329547882
-0.07915721088647842
0.03073960728943348
0.04079478979110718
-0.030848423019051552
-0.013421336188912392
-0.06977265328168869
-0.04163572937250137
-0.013883394189178944
-0.11892861127853394
0.017051752656698227
0.040283963084220886
-0.06482075154781342
0.10390973836183548
-0.06130564585328102
-0.02290799282491207
-0.0634511262178421
-0.0002618866856209934
0.03079596906900406
-0.006564281415194273
-0.03794236481189728
-0.12382698059082031
-0.006245345808565617
0.02302512899041176
-0.08452890068292618
-0.09115634113550186
-0.007261987309902906
-0.03396718576550484
0.00847617443650961
-0.0550081692636013
-0.11234158277511597
0.037455346435308456
-0.03105512633919716
-0.02253829687833786
-0.03607536479830742
-0.0050590988248586655
0.09580957889556885
-0.06604990363121033
-0.023380447179079056
-0.04744105041027069
0.03519364818930626
-0.03778298199176788
-0.007576591335237026
-0.0040758224204182625
0.05236367881298065
-0.06565340608358383
-0.04631197825074196
0.13093264400959015
0.0890343189239502
0.043374307453632355
-0.05554024130105972
-0.0324825644493103
-0.010326317511498928
-0.009329400025308132
-0.013281077146530151
0.11179232597351074
-0.06555170565843582
-0.018706297501921654
-0.0813128650188446
0.005472009070217609
0.005617049057036638
0.05352572351694107
-0.004249187186360359
-0.03455338627099991
-0.02366342768073082
0.024872681125998497
-0.07215005159378052
0.09015294909477234
-0.0278430487960577
0.04244736209511757
0.004229935351759195
0.05408840253949165
-0.0659196674823761
-0.011905140243470669
0.010763554833829403
-0.026544220745563507
0.01010996475815773
0.026541700586676598
0.03616676107048988
-0.042663875967264175
-0.0054793283343315125
0.062078267335891724
0.05854338780045509
-0.0365372970700264
0.12306927889585495
-0.061164651066064835
-0.025985585525631905
-0.05748710036277771
0.03761223331093788
-0.045395199209451675
-0.03480689600110054
-0.03258415311574936
-0.005130579695105553
-0.08848079293966293
0.0381949357688427
-0.042412277311086655
0.013504447415471077
-0.0359480082988739
-0.03825443610548973
0.012347607873380184
-0.05451051518321037
0.006061111576855183
-0.0002217191067757085
-0.06342422217130661
0.03194323554635048
0.029245993122458458
-0.018566587939858437
0.01668272353708744
-0.020715830847620964
0.03133143484592438
0.026577426120638847
0.0345049612224102
0.01802412047982216
0.04625406116247177
-0.014290997758507729
0.007123939227312803
-0.055607959628105164
0.04969572648406029
-0.08623213320970535
0.01142910122871399
0.14101195335388184
0.07165974378585815
-0.05707983300089836
0.05216808244585991
-0.03298741579055786
0.02652866393327713
-0.017513804137706757
-0.007581152953207493
0.04596405103802681
0.06870013475418091
-0.035459306091070175
-0.0006832748185843229
0.022441448643803596
0.0355258546769619
0.09651556611061096
-0.023885196074843407
-0.1362391710281372
0.006130410358309746
0.07194475829601288
0.04613746702671051
0.12549450993537903
0.09075666964054108
-0.011551525443792343
0.09628483653068542
-0.036224931478500366
-0.047588806599378586
-0.03961449861526489
0.11744686961174011
-0.05280330404639244
-0.011534776538610458
-0.042069584131240845
-0.0025266024749726057
0.029468216001987457
-0.1253615915775299
0.11148782074451447
-0.004755217116326094
-0.0031388166826218367
-0.0455842949450016
-0.05368401110172272
0.08856124430894852
-0.0016878533642739058
0.08271363377571106
-0.09389844536781311
-0.02077280916273594
0.08032640069723129
-0.019769594073295593
-0.020885489881038666
0.02710031159222126
-0.08443919569253922
0.03054112382233143
-0.0738125741481781
-0.040516264736652374
0.044176533818244934
0.04367454722523689
0.016219500452280045
0.01451860461384058
0.02437104471027851
-0.006756824441254139
0.07087931782007217
0.014523993246257305
-0.016217680647969246
-0.023243173956871033
0.04908714070916176
0.002519324654713273
0.009188106283545494
-0.0024207609239965677
0.07086636126041412
-0.09231439977884293
0.017763402312994003
-0.018907509744167328
-0.07066954672336578
-0.0464986227452755
-0.03022236004471779
0.09558826684951782
-0.008026550523936749
0.03766125440597534
-0.026868192479014397
0.014295866712927818
-0.05623750761151314
0.013229736126959324
-0.12461231648921967
-0.07856974750757217
-0.08493190258741379
-0.03754131868481636
0.0818726122379303
0.024246037006378174
0.009977935813367367
-0.04245063662528992
0.04552600905299187
-0.0028312380891293287
-0.08197329193353653
-0.06896810233592987
-0.045680511742830276
-0.012038727290928364
-0.08278109133243561
0.03215455636382103
0.012856020592153072
-0.10545965284109116
-0.0903557538986206
-0.06433717906475067
0.028861183673143387
-0.012941688299179077
-0.028681127354502678
0.06441311538219452
0.020183762535452843
0.04593094810843468
0.06498242169618607
-0.02326078526675701
-0.07633128017187119
-0.004611402750015259
-0.0287867970764637
0.029907435178756714
-0.04235587269067764
-0.022911131381988525
0.09000986814498901
-0.012071655131876469
-0.04510490968823433
-0.028572510927915573
-0.059649717062711716
-0.10858351737260818
-0.09984450787305832
-0.025652000680565834
-0.08060985803604126
-0.10774323344230652
-0.057198431342840195
0.10562659054994583
0.06396087259054184
-0.07524220645427704
-0.047651927918195724
0.028937384486198425
-0.0647004246711731
0.024496199563145638
-0.012355083599686623
0.03158339485526085
0.0051392377354204655
-0.029322635382413864
-0.03637058660387993
0.0029680277220904827
-0.007576147094368935
0.05738210678100586
-0.005327655468136072
-0.0033265845850110054
0.008685125969350338
-0.024863416329026222
0.03284824267029762
0.011850632727146149
-0.015198458917438984
-0.06838846206665039
0.04695325717329979
0.06842997670173645
0.04818856343626976
-0.08153539896011353
-0.006752112880349159
0.0499502569437027
0.04854310303926468
-0.04622780159115791
-0.1317799687385559
-0.023824645206332207
-0.019451461732387543
-0.026417911052703857
-0.04845162481069565
-0.008995883166790009
-0.029352441430091858
-0.003940213937312365
0.042786478996276855
-0.13860160112380981
-0.0027445510495454073
-0.04817012697458267
-0.03489314764738083
-0.07513594627380371
-0.04538409784436226
-0.09683217853307724
-0.07128915935754776
0.053250689059495926
0.0010819139424711466
-0.007660800125449896
0.036068305373191833
0.04881346970796585
0.05187080428004265
-0.05303557589650154
0.02001827582716942
-0.05078506842255592
0.05376298725605011
0.0006006737239658833
0.06959281116724014
-0.041377101093530655
0.020183738321065903
-0.05204134061932564
-0.07035287469625473
-0.04486830532550812
0.07537315040826797
0.019179338589310646
0.06581594049930573
-5.2258918003644794e-05
-0.02282855659723282
0.05749419331550598
0.005038110073655844
-0.1465660035610199
0.015051700174808502
-0.028439102694392204
0.041437432169914246
-0.05772131308913231
0.051644571125507355
0.030061127617955208
0.045910995453596115
-0.007369568571448326
-0.15321001410484314
-0.017464017495512962
0.009360109455883503
-0.01245754212141037
-0.02917276881635189
-0.048371970653533936
-0.010529633611440659
-0.0014541256241500378
-0.08276408165693283
0.032722994685173035
0.07384833693504333
0.06982581317424774
-0.0376880057156086
-0.04715543985366821
-0.0337827205657959
-0.05610337480902672
-0.024853534996509552
-0.01160272303968668
0.01781551167368889
0.0796440914273262
-0.05387156829237938
-0.014275021851062775
-0.02704748511314392
-0.017442652955651283
0.09889458119869232
0.07935276627540588
-0.024618783965706825
-0.0032967061270028353
-0.02686227113008499
0.027033735066652298
0.007348120212554932
0.07061301916837692
-0.0162105280905962
0.006904048379510641
0.08429212868213654
-0.03136754035949707
0.06339186429977417
-0.06063556298613548
0.016581470146775246
-0.08507266640663147
0.07538279891014099
0.0036443958524614573
0.01751847378909588
-0.0435132198035717
0.03701562434434891
-0.05730681121349335
0.009748299606144428
0.022721020504832268
0.13915249705314636
0.031236883252859116
0.06514928489923477
-0.07106929272413254
-0.016323497518897057
-0.07856999337673187
0.08529671281576157
0.04302244260907173
0.009055971167981625
0.06073586270213127
-0.07990919798612595
-0.054284971207380295
-0.007102474104613066
-0.06265608966350555
-0.06802792847156525
-0.044036880135536194
-0.029849300161004066
-0.05371756851673126
0.12437199056148529
0.040288377553224564
0.03594737872481346
-0.03978603333234787
-0.058508582413196564
-0.0444214753806591
7.186835864558816e-05
0.032358258962631226
-0.02582206390798092
-0.07119941711425781
0.058662544935941696
0.011331429705023766
0.08601140975952148
0.14795607328414917
-0.09454693645238876
-0.04342826083302498
-0.008770761080086231
0.10854838043451309
-0.011810149066150188
0.03561586141586304
-0.004187603015452623
-0.16202817857265472
-0.03679879009723663
0.047083694487810135
0.04662465304136276
0.03007965162396431
0.027734532952308655
0.01932152919471264
0.04731777310371399
-0.009037484414875507
-0.025894545018672943
-0.028442278504371643
-0.14982189238071442
-0.01103271171450615
0.03203151747584343
-0.0434073880314827
0.06564056128263474
-0.054941628128290176
-0.049508631229400635
-0.04443962872028351
-0.05878680199384689
0.004489223472774029
0.07633322477340698
-0.02898414433002472
0.0866386815905571
0.04724893718957901
-0.05305907875299454
-0.11359769850969315
-0.021871143952012062
-0.07743851840496063
-0.015822041779756546
0.017451705411076546
0.024595659226179123
0.1037018746137619
0.09406713396310806
0.03630312159657478
0.01892584003508091
-0.023619506508111954
0.10683691501617432
-0.0743788331747055
0.07242461293935776
-0.042868077754974365
0.020479027181863785
-0.023899637162685394
0.05942908674478531
0.03385232016444206
-0.07911154627799988
0.03729056566953659
-0.03720227628946304
-0.06155066192150116
0.015268523246049881
0.006292593665421009
-0.0840953066945076
-0.02264360524713993
0.06448886543512344
-0.0485704205930233
-0.023266330361366272
-0.07496002316474915
0.051033150404691696
-0.1507321000099182
-0.08830910921096802
-0.046872880309820175
0.024530379101634026
-0.042574454098939896
-0.01020913477987051
-0.04696805030107498
-0.018181968480348587
0.1157684251666069
-0.02052987925708294
-0.032741934061050415
0.07481171190738678
-0.005164959002286196
0.1113649383187294
-0.06154700741171837
-0.060764677822589874
0.10207224637269974
0.06741592288017273
-0.06523898243904114
-0.042808692902326584
-0.008140874095261097
0.008834563195705414
0.028896329924464226
-0.03607553988695145
-0.01937553845345974
-0.04887448623776436
-0.0778626874089241
0.09712791442871094
0.11815261840820312
-0.0014925060095265508
-0.07868722081184387
0.03460933268070221
0.09529439359903336
-0.05204910784959793
0.11776106804609299
0.0036750538274645805
-0.06195186451077461
-0.049756310880184174
0.004626153502613306
0.031232209876179695
-0.06512441486120224
0.12027356028556824
0.06820187717676163
-0.03207184746861458
0.055482469499111176
-0.06312132626771927
-0.00013959786156192422
-0.06416808068752289
0.029780147597193718
-0.011904487386345863
0.02165333926677704
-0.018319910392165184
-0.020955068990588188
0.07372473180294037
0.1070474311709404
0.03804381191730499
0.03902129828929901
0.004457153379917145
0.06140867620706558
0.1312478929758072
0.036417070776224136
0.10271521657705307
-0.08664688467979431
0.04876711219549179
-0.003264280268922448
-0.061910904943943024
0.018789269030094147
0.1058022677898407
-0.005363855976611376
0.03342081978917122
-0.12085028737783432
-0.05713537335395813
0.042861633002758026
0.09495314210653305
-0.041184406727552414
0.025501245632767677
-0.01932503655552864
0.03492690622806549
-0.07397440820932388
-0.05418767035007477
-0.10057137161493301
-0.05701439827680588
0.040826160460710526
-0.009208177216351032
0.045199085026979446
-0.028398720547556877
0.03743406757712364
-0.03711714223027229
0.034367047250270844
-0.02273363433778286
0.015864383429288864
0.037403304129838943
-0.03479930758476257
0.056071557104587555
0.024815354496240616
0.16232147812843323
0.08312772214412689
0.07432874292135239
-0.008329888805747032
-0.0751519724726677
-0.03223424404859543
-0.07146774977445602
0.04573855921626091
0.03711487352848053
-0.08200564980506897
-0.08313729614019394
0.02572225034236908
0.052503570914268494
0.012863295152783394
-0.002323806518688798
-0.00546279177069664
-0.0032353836577385664
-0.023478569462895393
0.09176390618085861
-0.02174633927643299
0.019001616165041924
-0.01369831059128046
0.04660936817526817
-0.002528103534132242
0.09612929821014404
0.13236774504184723
-0.039898354560136795
0.022778281942009926
0.00018448983610142022
0.11055929958820343
-0.056713711470365524
-0.06647367030382156
-0.052625011652708054
-0.07185186445713043
-0.03394901007413864
0.04016856476664543
0.04736701399087906
0.006996492855250835
0.007004607003182173
-0.06561450660228729
0.03721112385392189
-0.004490550607442856
0.03352093696594238
-0.06629933416843414
0.011427132412791252
-0.007346087135374546
0.0017953590722754598
0.02861558273434639
-0.04464103281497955
-0.007729367818683386
0.0056669823825359344
-0.058242470026016235
0.016345815733075142
0.017498278990387917
-0.03706234693527222
-0.009297613985836506
0.0041715968400239944
-0.036723196506500244
-0.1341555118560791
-0.01787746325135231
-0.07194017618894577
-0.0065870811231434345
-0.0013884131330996752
-0.014183803461492062
0.07214970886707306
0.07650862634181976
-0.023089397698640823
0.07658706605434418
-0.040029097348451614
-0.14195729792118073
-0.025892581790685654
-0.1717221736907959
0.0888366848230362
-0.02537091262638569
-0.1408429741859436
-0.011223775334656239
-0.06987202167510986
-0.05465763807296753
0.09425433725118637
-0.10146180540323257
0.016351928934454918
0.06447035074234009
-0.01812809891998768
0.06431961059570312
-0.031937126070261
0.0781596451997757
0.024037374183535576
0.04804826155304909
0.022190703079104424
-0.08582880347967148
-0.16247807443141937
-0.10296721756458282
-0.024545123800635338
-0.01815406046807766
-0.05690605193376541
-0.006669302936643362
-0.16357852518558502
-0.06285247951745987
0.06646816432476044
0.04361642524600029
-0.10956898331642151
0.06286479532718658
0.059713803231716156
-0.0024941517040133476
0.10375487804412842
0.016191087663173676
-0.011022747494280338
0.02399503067135811
-0.0022496723104268312
0.08100033551454544
0.05082499980926514
-0.06773432344198227
-0.022025058045983315
-0.050633203238248825
0.03483192250132561
0.023243311792612076
-0.07731837779283524
0.004543873481452465
-0.006894826889038086
-0.015493473038077354
-0.028647733852267265
-0.022120056673884392
0.07535284757614136
-0.004919121973216534
0.0027468926273286343
-0.04347360134124756
0.0007264908053912222
-0.08269063383340836
0.07936637848615646
0.043061647564172745
-0.019896214827895164
0.01167638972401619
-0.0459069199860096
-0.060313332825899124
-0.0017093445640057325
-0.041617825627326965
-0.054522402584552765
0.052518803626298904
-0.03186783194541931
-0.023953035473823547
0.04344997555017471
0.024803748354315758
0.033298131078481674
-0.016486577689647675
0.0032453632447868586
0.05960657447576523
0.020871127024292946
-0.015622129663825035
0.050650764256715775
0.01904342509806156
0.0032992360647767782
0.029515666887164116
-0.05507435277104378
0.011202998459339142
0.007362682837992907
-0.007474267855286598
0.0534701906144619
-0.10131523013114929
0.026910478249192238
-0.012418298982083797
0.04280301183462143
-0.006672682240605354
0.022348565980792046
-0.052486784756183624
0.08018141239881516
0.14111436903476715
0.08338546752929688
0.002402119105681777
0.03087235987186432
0.056413691490888596
0.03541794791817665
0.07170198857784271
0.057941436767578125
0.06477351486682892
0.08754584193229675
-0.007704998832195997
-0.06714766472578049
-0.0747346505522728
0.022601714357733727
-0.012449739500880241
0.0012798478128388524
-0.061459291726350784
0.03210882097482681
-0.08212852478027344
0.04084472358226776
-0.017478803172707558
-0.013091911561787128
0.056627318263053894
-0.001393685583025217
0.04775601625442505
-0.10558437556028366
0.05708220228552818
-0.012341191992163658
0.005479556042701006
-0.05087310075759888
0.017927059903740883
-0.0847521722316742
-0.08820783346891403
-0.021775485947728157
-0.02595597878098488
0.029706789180636406
-0.1263255923986435
-0.058748431503772736
-0.06272297352552414
-0.03872175142168999
0.029972022399306297
0.005633399821817875
-0.03228554502129555
0.09717869013547897
-0.011968945153057575
0.0878511369228363
-0.09242229908704758
0.0865093395113945
-0.0124617088586092
-0.045102376490831375
-0.10408862680196762
0.0530138798058033
-0.048527639359235764
0.01974567584693432
0.06563330441713333
-0.07860352843999863
0.007430690340697765
-0.029437445104122162
0.0972733274102211
-0.08033351600170135
-0.0438150092959404
-0.04136783629655838
0.03487018868327141
-0.02257913537323475
-0.033292271196842194
0.003824519691988826
-0.058918535709381104
0.007898581214249134
0.022491419687867165
0.023473545908927917
0.013546629808843136
0.029666921123862267
0.020831312984228134
-0.013396548107266426
-0.07904130220413208
0.025821877643465996
-0.08702360838651657
0.012853158637881279
-0.04319871962070465
0.10153810679912567
-0.08719749748706818
0.03882811218500137
0.05365248769521713
-0.05368827283382416
-0.08139906078577042
0.09078192710876465
0.005643870681524277
-0.10127178579568863
-0.022775691002607346
0.0640728548169136
-0.0033272006548941135
-0.09277168661355972
0.07749152928590775
-0.0655367374420166
-0.009544786997139454
-0.06529980897903442
-0.07664532214403152
-0.05358955264091492
-0.015686698257923126
0.08310381323099136
-0.0859726294875145
-0.00425206683576107
0.08512355387210846
0.02717432752251625
-0.10390918701887131
-0.02698727510869503
0.07564414292573929
-0.05496881529688835
-0.02075815387070179
-0.04647449404001236
0.01180297788232565
0.08603978902101517
0.008637771010398865
0.023624368011951447
-0.09711802005767822
-0.03825987130403519
-0.0046581607311964035
-0.10275040566921234
0.016111070290207863
0.0676998645067215
0.0065798573195934296
0.0008680989849381149
-0.09438032656908035
0.011942452751100063
-0.04343152046203613
0.06914437562227249
0.0582277737557888
-0.036305226385593414
0.0030463640578091145
-0.00774187920615077
0.02964964136481285
-0.011320401914417744
0.049428753554821014
-0.022604817524552345
0.08409725874662399
0.005080779083073139
0.0904952734708786
0.02641202136874199
-0.01863894611597061
0.07366076111793518
-0.002814604202285409
-0.03467130288481712
0.005518742371350527
0.052664559334516525
-0.0213275458663702
-0.05061137676239014
-0.04271471127867699
-0.00567201804369688
0.06140868365764618
0.011392788030207157
0.010381869971752167
0.034663498401641846
0.06689124554395676
-0.018605966120958328
-0.042595066130161285
0.05189508944749832
0.04948556050658226
0.09220051765441895
-0.05237390473484993
0.022189069539308548
0.05599969998002052
-0.09126799553632736
0.027700573205947876
0.031463444232940674
0.01022901851683855
0.02100561559200287
-0.05891018733382225
0.050402652472257614
0.002964917104691267
-0.11604531854391098
-0.011721061542630196
0.09760365635156631
-0.004938036203384399
0.06009431183338165
0.0646171122789383
-0.043595291674137115
-0.07777240872383118
-0.06486571580171585
0.030233900994062424
-0.012637663632631302
0.03211231157183647
0.02860400266945362
0.01969769410789013
0.014001565985381603
0.0687175914645195
-0.026165025308728218
0.016933906823396683
-0.07948389649391174
0.03674163296818733
-0.005477813072502613
-0.01856951043009758
0.01574084535241127
0.13566730916500092
0.09560111910104752
0.05229473486542702
-0.005597375333309174
0.023981822654604912
-0.020719995722174644
-0.045533522963523865
0.07194514572620392
0.0483931265771389
0.03761840611696243
-0.014387274160981178
0.012074245139956474
0.02741822972893715
0.04122564196586609
-0.03472132608294487
0.061475448310375214
-0.03610123693943024
0.045187804847955704
0.0988001748919487
0.004639653488993645
0.019087575376033783
-0.08928481489419937
0.12853042781352997
-0.06561645120382309
0.0057152388617396355
-0.001295330235734582
-0.020963110029697418
-0.002989740576595068
-0.038399215787649155
0.021186919882893562
0.10497680306434631
0.029265452176332474
-0.04992036893963814
-0.0442582443356514
-0.09334312379360199
-0.07201452553272247
0.03759133070707321
-0.0628180131316185
0.06279705464839935
0.010249201208353043
-0.07296653091907501
-0.0540870726108551
0.04838721826672554
-0.09027796983718872
-0.051951635628938675
-0.055831827223300934
-0.10363837331533432
-0.04932364076375961
-0.024903977289795876
-0.12024251371622086
-0.05720865726470947
-0.012013359926640987
-0.011232178658246994
-0.07865028083324432
-0.06640897691249847
0.006496685091406107
0.0005300613702274859
-0.013766682706773281
-0.014707944355905056
-0.0030585238710045815
-0.02730986289680004
-0.07478385418653488
-0.008150148205459118
-0.1546524167060852
-0.010646349750459194
0.018847569823265076
0.03543815389275551
0.0566868931055069
-0.026890916749835014
0.07955551892518997
-0.03212524205446243
0.11572948843240738
-0.004450980108231306
0.1016257181763649
0.11082255840301514
0.05129067972302437
0.0860355868935585
-0.07005491852760315
0.05109022557735443
-0.023432999849319458
0.06977837532758713
-0.045667123049497604
-0.011681548319756985
0.06276804953813553
-0.09915271401405334
-0.05669531971216202
-0.031201720237731934
-0.15145212411880493
-0.01971147209405899
-0.05595688149333
-0.03650784492492676
-0.04365677759051323
0.10600057244300842
0.008273358456790447
-0.02624436467885971
-0.08076372742652893
0.016947265714406967
0.019297868013381958
-0.06991992145776749
-0.04868295043706894
0.05592597648501396
0.02750835008919239
0.07744960486888885
-0.010540558025240898
0.0529523640871048
0.04361991211771965
-0.08279252797365189
0.03643034026026726
0.021441712975502014
0.05092019587755203
0.0023615697864443064
0.034167733043432236
0.07389321178197861
0.032669756561517715
0.13257545232772827
0.008495423942804337
-0.034814298152923584
-0.04846779629588127
-0.10266794264316559
-0.0869097113609314
0.02847745455801487
0.04057606682181358
0.06476365029811859
0.09099476039409637
0.026866449043154716
0.03529609367251396
-0.03970291465520859
-0.04300418868660927
-0.02484995126724243
0.027254726737737656
0.07132716476917267
-0.06725163757801056
-0.048531536012887955
-0.019312743097543716
0.06907284259796143
-0.012655354104936123
0.007432862650603056
-0.002654001349583268
-0.017408842220902443
-0.11152681708335876
-0.008012634702026844
0.020945657044649124
0.09586498886346817
0.05697435885667801
-0.028369003906846046
-0.02892652526497841
0.04015995189547539
0.061105985194444656
0.036884188652038574
0.02919025719165802
-0.08127035945653915
0.07250609248876572
0.002846943913027644
-0.09035752713680267
0.04201578348875046
0.05274316295981407
0.05336976423859596
0.12636852264404297
-0.035359859466552734
-0.044552963227033615
0.0026338074821978807
0.029606008902192116
0.025602588430047035
0.027083538472652435
-0.02484864741563797
-0.05623188987374306
0.011934950016438961
-0.019309939816594124
-0.03900112956762314
-0.020859910175204277
-0.03392333164811134
-0.11778191477060318
0.00947659369558096
-0.024727895855903625
-0.04172484204173088
-0.048573412001132965
0.004648543428629637
0.09877175837755203
-0.16629661619663239
-0.003957970999181271
0.014909637160599232
-0.06982815265655518
0.03531201556324959
0.07378914952278137
0.12434949725866318
-0.15617774426937103
0.07133723795413971
0.01880623959004879
0.09196454286575317
0.007915385998785496
-0.01793639175593853
-0.07697951048612595
-0.007361607626080513
0.04192351549863815
-0.029437921941280365
0.028825605288147926
-0.008800145238637924
-0.05224671587347984
0.013312119990587234
0.10012492537498474
-0.06945163011550903
0.05174998939037323
-0.0761876031756401
-0.03262706473469734
0.0024301172234117985
-0.006182575132697821
-0.004803990013897419
-0.08050666749477386
0.009169449098408222
0.017214152961969376
0.08016708493232727
0.0052818856202065945
-0.00874809455126524
-0.08576055616140366
-0.029808422550559044
-0.05638169124722481
-0.03387823700904846
-0.0228594820946455
-0.042911529541015625
-0.020239779725670815
-0.07278122752904892
0.010480422526597977
0.022477887570858
-0.041473306715488434
0.022529415786266327
-0.13329540193080902
0.10260991007089615
0.13243578374385834
0.10360589623451233
-0.05453483760356903
-0.059777576476335526
0.07566603273153305
0.003624595468863845
0.04318594932556152
0.054738353937864304
0.03819076716899872
0.04438299685716629
0.022582657635211945
0.009559781290590763
-0.033509980887174606
0.03254135325551033
0.040144458413124084
-0.011094553396105766
-0.016764560714364052
-0.06177223473787308
-0.03560935705900192
-0.07504584640264511
0.12605637311935425
0.02750549092888832
-0.0007493087323382497
-0.002055964432656765
-0.08752674609422684
-0.13664588332176208
-0.015001865103840828
-0.013991058804094791
-0.02187543548643589
0.005599768832325935
-0.06748052686452866
0.12241619825363159
-0.043543655425310135
0.030292345210909843
-0.005025945138186216
-0.022071830928325653
0.038167137652635574
0.022581854835152626
-0.0365946888923645
-0.020664434880018234
0.01895580068230629
0.09486762434244156
-0.01967657543718815
0.05811486393213272
0.0916912630200386
-0.06754365563392639
-0.07334411144256592
0.04216982051730156
0.030913811177015305
-0.06645968556404114
-0.1324012577533722
-0.013693345710635185
-0.04938557744026184
-0.14478428661823273
-0.13297666609287262
0.01793062500655651
-0.10226687043905258
0.013568652793765068
-0.042915064841508865
-0.001887041493318975
-0.07426050305366516
0.003596080932766199
-0.03945885971188545
0.09657152742147446
0.025642547756433487
0.10074004530906677
0.11946414411067963
-0.04017731919884682
0.03870081529021263
-0.07070769369602203
-0.006185830105096102
-0.027277445420622826
0.029929976910352707
-0.11043139547109604
0.002190610161051154
0.052829157561063766
0.016675250604748726
0.06854210793972015
0.04220025986433029
0.06407657265663147
-0.025866175070405006
0.033027857542037964
-0.053031075745821
0.07112870365381241
0.055616144090890884
-0.08953529596328735
0.0393003448843956
-0.06830458343029022
-0.07042032480239868
0.04780988022685051
0.029380280524492264
-0.06798316538333893
0.038813475519418716
-0.035032931715250015
0.018733901903033257
0.03968978673219681
-0.05560985580086708
-0.01756085269153118
-0.07175112515687943
0.04339015856385231
-0.01693667285144329
0.018532374873757362
-0.021892044693231583
0.08109302818775177
0.03366413712501526
-0.1272697001695633
-0.11439705640077591
0.058392126113176346
0.008574542589485645
0.04218209534883499
0.08250065892934799
0.005311864428222179
-0.1203165128827095
0.10086141526699066
-0.08363017439842224
-0.031091133132576942
-0.07862461358308792
0.03638293966650963
0.01690693013370037
0.041534423828125
0.04428316652774811
0.030165057629346848
-0.013077176176011562
0.03435478359460831
-0.039206039160490036
0.024003544822335243
-0.04522307217121124
0.03419952094554901
0.03402826562523842
0.01762097142636776
0.03487004339694977
0.043811604380607605
0.03320711478590965
0.1293860822916031
-0.01430390402674675
0.04223484918475151
-0.043078623712062836
-0.020693562924861908
-0.011531032621860504
-0.07410416752099991
0.006806032732129097
-0.05080077424645424
-0.0854034572839737
0.004412496462464333
-0.04213313013315201
-0.03471885621547699
0.05751548334956169
0.04833931103348732
0.047041527926921844
-0.08732545375823975
-0.02059815637767315
0.023702463135123253
0.004308884963393211
-0.031147178262472153
-0.029657747596502304
-0.06389404088258743
-0.0990174412727356
-0.023848095908761024
0.03100927360355854
0.049517665058374405
-0.05693646892905235
0.02354898862540722
-0.02760854735970497
0.05536022037267685
-0.006857122294604778
-0.06538452953100204
0.01359901949763298
-0.03398802503943443
0.036702074110507965
-0.012710406444966793
0.023036109283566475
-0.03807311877608299
0.017749488353729248
-0.015120051801204681
-0.0068358867429196835
0.004578402731567621
0.007652015890926123
0.024031300097703934
-0.011205565184354782
0.08064157515764236
-0.04170002043247223
0.035806410014629364
-0.05781583860516548
0.02167738601565361
0.0008801957010291517
0.14325553178787231
0.00969331432133913
-0.021012596786022186
0.043814465403556824
-0.07210186868906021
-0.0845942571759224
-0.009240172803401947
0.06198904290795326
-0.019822316244244576
-0.09671992808580399
-0.08439993113279343
0.026392076164484024
0.07782798260450363
0.018228279426693916
0.022813139483332634
0.05345544591546059
-0.10940112918615341
-0.09008172154426575
-0.08653022348880768
0.1714838445186615
-0.007884513586759567
-0.06278593093156815
0.031571872532367706
0.0018927676137536764
0.026939669623970985
0.03635357320308685
-0.07162661105394363
-0.05369306728243828
0.053606078028678894
-0.03081873059272766
0.014499708078801632
-0.060501255095005035
-0.08539645373821259
0.058524295687675476
-0.00457903603091836
-0.036653850227594376
0.11521723121404648
0.015891021117568016
0.06970478594303131
0.0327489897608757
-0.015359263867139816
-0.07944347709417343
-0.022626977413892746
0.08440776914358139
-0.10521631687879562
-0.12532004714012146
0.008532286621630192
0.12292429059743881
0.034036267548799515
-0.07959061115980148
0.0983937606215477
-0.0837019607424736
-0.01288592629134655
-0.049906302243471146
0.05746680125594139
0.03413606807589531
0.04517145827412605
-0.018285518512129784
0.028486253693699837
0.060728903859853745
0.01896904967725277
-0.04663953557610512
0.0269011240452528
-0.07175828516483307
0.18418468534946442
0.02918262779712677
0.11242203414440155
-0.044092901051044464
-0.023134449496865273
-0.11841335892677307
0.03947017341852188
-0.016392558813095093
0.04156689718365669
-0.02789682149887085
-0.0800144225358963
-0.04844731092453003
-0.009999326430261135
-0.09872262179851532
0.005322697572410107
-0.05704664811491966
0.0912981778383255
0.021335817873477936
0.03426569327712059
0.024591300636529922
0.06760776787996292
-0.04052407667040825
0.054819829761981964
0.1354784518480301
-0.017340756952762604
-0.04149179905653
0.032075416296720505
0.025260400027036667
0.0651816874742508
-0.0383756048977375
-0.009212481789290905
0.04073387756943703
0.016673415899276733
-0.06070099398493767
-0.037042874842882156
0.0913870707154274
0.11106862127780914
0.0476333312690258
-0.04961502179503441
-0.0015814458020031452
-0.03886064887046814
0.009299180470407009
0.07561846822500229
-0.014480221085250378
0.0238893274217844
-0.0709872916340828
0.05300994589924812
0.09660010784864426
-0.020003512501716614
0.027468737214803696
0.048817362636327744
-0.08067400753498077
0.024263497442007065
-0.10602222383022308
0.0004933513118885458
-0.025515111163258553
-0.12064747512340546
0.041977912187576294
-0.06424924731254578
-0.04385577514767647
0.033680301159620285
-0.016213499009609222
0.08317898213863373
-0.05782650038599968
0.000527059193700552
0.02636902965605259
-0.07834108918905258
0.025936197489500046
0.08896986395120621
0.0049080559983849525
0.05422965809702873
0.04478076845407486
0.037479888647794724
-0.09029010683298111
0.030061107128858566
0.006160713732242584
-0.05061565712094307
0.021380918100476265
0.013292282819747925
0.00011640247248578817
-0.06894240528345108
-0.06434422731399536
0.031240038573741913
-0.106687992811203
0.11008293181657791
-0.045740675181150436
0.0889347568154335
0.11996295303106308
0.06975266337394714
0.041271600872278214
0.053270600736141205
-0.030232317745685577
-0.0396290197968483
0.011327882297337055
-0.10819026082754135
0.027339361608028412
0.03827940300107002
0.036119863390922546
-0.004176454618573189
0.11566245555877686
-0.07716801762580872
-0.018260672688484192
-0.0627739280462265
-0.10224972665309906
0.020165590569376945
-0.06596243381500244
0.03630993142724037
0.07366636395454407
-0.031471118330955505
-0.08119270205497742
-0.19228267669677734
-0.09641753882169724
0.001077165943570435
0.15255580842494965
-0.06433124095201492
-0.030565304681658745
-0.015060321427881718
-0.008157920092344284
0.11382932215929031
0.010401695035398006
-0.004756048787385225
-0.027043255046010017
-0.09475792944431305
0.0056849210523068905
-0.056746870279312134
-0.06514985859394073
-0.027033258229494095
0.013381368480622768
0.06212792545557022
-0.02305682562291622
0.0236270260065794
-0.012850182130932808
0.11995387822389603
0.013069725595414639
0.030834676697850227
0.07195538282394409
0.05401338264346123
-0.05448748543858528
0.02059033140540123
0.03774527460336685
0.008679846301674843
-0.020398620516061783
0.05230589583516121
0.017888300120830536
-0.045546628534793854
-0.009723669849336147
0.0816144198179245
-0.10936368256807327
0.006442605052143335
0.09624700248241425
0.047167688608169556
-0.0917801633477211
0.057233765721321106
-0.08335459977388382
-5.131837315275334e-05
0.06438504159450531
-0.03068985976278782
-0.03479411453008652
-0.04335859417915344
0.02000662498176098
0.012517527677118778
-0.0642380565404892
-0.027267033234238625
0.004931509029120207
0.00349143473431468
0.07286553829908371
-0.07037967443466187
-0.03307727351784706
0.06972522288560867
0.006902041845023632
-0.07520389556884766
-0.008259912021458149
0.05827297642827034
0.053116511553525925
-0.07046402245759964
0.0384247750043869
-0.03370258957147598
-0.05484713241457939
0.011755074374377728
0.008414871990680695
0.046967118978500366
0.06847795844078064
-0.017221031710505486
0.007436780724674463
-7.564186489616986e-06
0.04914739355444908
0.07706630975008011
0.08008907735347748
-0.036454737186431885
-0.03011632151901722
-0.09249576926231384
-0.07136020809412003
0.056679461151361465
0.05779527500271797
0.04013381153345108
-0.1289888620376587
0.029368996620178223
0.03304418921470642
-0.04460647702217102
-0.029730534180998802
-0.05811605602502823
-0.0333947017788887
0.017935357987880707
-0.08160743117332458
-0.050217170268297195
-0.010345677845180035
0.004290811717510223
0.05700129643082619
-0.038320403546094894
0.101009301841259
-0.08126354962587357
-0.026916714385151863
0.06770379841327667
-0.03922782838344574
-0.035955533385276794
0.008266846649348736
0.09583602100610733
0.07845507562160492
-0.05135462060570717
0.00815319363027811
0.06249827519059181
-0.05322280898690224
0.02763025090098381
-0.039117999374866486
0.030676275491714478
0.10526728630065918
0.04552008956670761
-0.004875533282756805
0.017280157655477524
0.0749979242682457
0.08179888874292374
-0.12115580588579178
0.08973303437232971
0.02358626388013363
-0.021935414522886276
-0.036745235323905945
0.07325457781553268
-0.027273692190647125
-0.13326396048069
0.02947411686182022
0.028345465660095215
0.001156582380644977
-0.003692439291626215
-0.030048830434679985
-0.03324452415108681
0.017604941502213478
0.08317066729068756
0.040237292647361755
-0.014730213209986687
-0.09946349263191223
0.06342768669128418
0.03569804131984711
0.008845229633152485
0.0015812000492587686
0.022067194804549217
-0.09538121521472931
0.006949681788682938
0.01796514354646206
-0.06263476610183716
0.0002540986752137542
-0.048504989594221115
0.022109827026724815
0.0945584774017334
-0.09284120798110962
0.06216094642877579
0.06698047369718552
-0.019704608246684074
-0.020304832607507706
0.012179514393210411
-0.034497592598199844
0.10228398442268372
-0.04638277739286423
0.035157475620508194
-0.0535946786403656
-0.03868189454078674
0.07629946619272232
0.052509017288684845
-0.02324943244457245
-0.1029968112707138
-0.004533309023827314
0.020371446385979652
-0.015216050669550896
-0.03504395857453346
0.012066190131008625
0.11418332159519196
0.06085558235645294
0.06294335424900055
-0.0853409692645073
0.0375695563852787
-0.005900637712329626
-0.008868256583809853
-0.04483933001756668
0.04297797009348869
-0.09654736518859863
0.06727221608161926
0.02043035253882408
0.032962728291749954
-0.08502677083015442
0.08019868284463882
0.026939235627651215
-0.024897444993257523
0.004682427272200584
-0.045925531536340714
-0.028390271589159966
0.09535157680511475
0.01112438179552555
0.023870104923844337
0.003304694779217243
-0.020522642880678177
-0.0008847815333865583
0.056668661534786224
0.0274723619222641
-0.03109614923596382
0.054024167358875275
0.08199042826890945
-0.028189081698656082
-0.06599109619855881
-0.03679463267326355
0.11560288816690445
-0.02086459845304489
-0.05269448086619377
0.06255559623241425
0.01877254620194435
0.037513796240091324
0.04300754517316818
0.0910959541797638
-0.06854315102100372
0.08287997543811798
0.08194464445114136
0.09339699894189835
0.04331459105014801
-0.05525911971926689
0.0823143795132637
-0.11487434059381485
-0.06273797154426575
-0.05130951106548309
-0.05679638311266899
-0.0820491686463356
0.019265037029981613
0.038257256150245667
-0.07244207710027695
-0.021693170070648193
-0.037949513643980026
-0.07924940437078476
-0.02713058516383171
-0.05250001326203346
0.0753890722990036
-0.05875065550208092
0.030548321083188057
-0.014054611325263977
0.0021759336814284325
-0.009886336512863636
0.04397233948111534
0.19756843149662018
-0.0571528822183609
0.057162076234817505
-0.1577615588903427
0.02266901731491089
0.009078226052224636
-0.012951124459505081
-0.038861971348524094
-0.06225590407848358
-0.059496719390153885
0.029330942779779434
0.022883711382746696
-0.0003229964931961149
0.05499426648020744
0.027441849932074547
0.0453876256942749
-0.0019493262516334653
0.04546293988823891
0.0022984789684414864
0.08480121940374374
0.004313525278121233
0.030059754848480225
-0.014905582182109356
0.001234562136232853
-0.05974889174103737
-0.048717908561229706
-0.03982360661029816
0.16796104609966278
0.15859276056289673
0.07817830890417099
0.11482912302017212
0.023403052240610123
0.034780047833919525
0.04858340322971344
0.00804826058447361
0.05000055208802223
-0.02902449667453766
0.08596889674663544
0.037751734256744385
0.00861387886106968
-0.055832285434007645
0.12096096575260162
0.041409775614738464
0.043719951063394547
0.03288436308503151
0.06793218106031418
-0.0329689159989357
-0.014222952537238598
0.07014773041009903
-0.017949435859918594
-0.0870935395359993
-0.0029162776190787554
-0.0500422827899456
0.05388598516583443
0.0840379148721695
-0.00016718942788429558
0.10245438665151596
1.722386878100224e-05
-0.023322975262999535
-0.06588371098041534
0.014375375583767891
0.0751599669456482
-0.017276745289564133
-0.03791290149092674
-0.09332685172557831
0.12711600959300995
-0.0074060652405023575
0.07274496555328369
0.03615006059408188
0.07854603230953217
-0.015708407387137413
-0.030727075412869453
0.001303375931456685
-0.04483015462756157
0.038770850747823715
-0.021701252087950706
-0.1294047087430954
0.07489657402038574
-0.00719538563862443
-5.627223799820058e-05
-0.022620441392064095
-0.05624210461974144
0.01618516817688942
0.0807131677865982
-0.03048029914498329
0.03785831481218338
0.15075042843818665
0.0013297473778948188
-0.008927300572395325
0.04752543941140175
0.013389692641794682
0.04590432718396187
0.0017744271317496896
0.046236928552389145
-0.10515690594911575
0.06092735007405281
-0.0008067946182563901
0.08609003573656082
-0.04435247927904129
0.04759823903441429
0.06559424847364426
-0.09511581063270569
-0.0291779525578022
0.08742881566286087
0.03428707644343376
0.056825123727321625
0.0996481329202652
-0.045870114117860794
0.028836820274591446
0.037196528166532516
0.02961089089512825
0.004444603808224201
-0.11166119575500488
-0.08639658242464066
-0.017690692096948624
-0.05094703659415245
-0.06582410633563995
-0.09059988707304001
-0.09305580705404282
0.04080282524228096
-0.021956916898489
0.05239599570631981
-0.08249662071466446
0.01563320681452751
0.09482741355895996
-0.04508184641599655
0.024775343015789986
-0.009837993420660496
-0.09314750880002975
0.032143183052539825
-0.10168713331222534
-0.04122539237141609
-0.03115670010447502
-0.0714557021856308
-0.014205683022737503
-0.034030474722385406
-0.06695488095283508
0.021592071279883385
0.0024333635810762644
0.014467841945588589
-0.019280042499303818
-0.030307859182357788
0.009198944084346294
-0.03496132045984268
-0.05282530188560486
0.05959988012909889
-0.05618349835276604
0.007916321977972984
-0.01706673763692379
0.0011426296550780535
-0.01876095123589039
-0.00646493025124073
0.02129836194217205
-0.09040231257677078
-0.07367802411317825
0.040944505482912064
-0.01980421505868435
0.012468625791370869
0.013387204147875309
-0.07361398637294769
0.011365382932126522
0.001938452711328864
0.019677333533763885
-0.06513560563325882
0.084597647190094
-0.012819476425647736
-0.03166665509343147
-0.07899946719408035
0.03891250118613243
0.022659696638584137
0.03233541548252106
-0.016992447897791862
-0.02848782017827034
0.1321539729833603
-0.11188669502735138
-0.0639934092760086
0.030885379761457443
0.1531124711036682
-6.20393839199096e-05
0.09633558243513107
0.005233209114521742
0.024516511708498
-0.02854030951857567
0.09127283096313477
0.1215134933590889
-0.0065118237398564816
-0.045818399637937546
-0.06882932037115097
0.12372380495071411
0.06568789482116699
0.016481788828969002
0.10367600619792938
0.0683596283197403
0.05378837138414383
0.04391364008188248
-0.05371422693133354
0.01174002606421709
-0.07915958762168884
-0.1098296195268631
-0.15049046277999878
-0.060417745262384415
-0.022652141749858856
-0.06632527709007263
-0.0050419955514371395
0.05899366736412048
0.002360355807468295
-0.012987487018108368
0.05651748180389404
0.0590185709297657
-0.05296402797102928
0.10047392547130585
-0.028708403930068016
0.01928962953388691
0.02226431295275688
-0.055163707584142685
0.13236969709396362
-0.03457144275307655
-0.03760945424437523
-0.08724671602249146
0.041738010942935944
0.04214298352599144
0.07697001099586487
0.010100719518959522
-0.0009276887867599726
0.08855906873941422
0.037196941673755646
0.03068198822438717
0.02358544059097767
-0.06233914941549301
0.027459923177957535
-0.06400488317012787
-0.05164732038974762
0.09875325858592987
0.059659335762262344
-0.06468947976827621
-0.045073337852954865
-0.08240684121847153
0.02500169537961483
-0.031743139028549194
0.03517758473753929
-0.12934014201164246
0.10390684753656387
-0.030367271974682808
0.038356903940439224
-0.019943932071328163
-0.008381053805351257
0.035451650619506836
0.0070473551750183105
-0.0037130455020815134
-0.02707606740295887
-0.030528059229254723
-0.006762105040252209
0.025753945112228394
0.015959765762090683
0.04719391465187073
-0.040094055235385895
-0.10473792999982834
0.04362087696790695
-0.07764527946710587
0.02969350852072239
0.020939113572239876
-0.0547817200422287
-0.03577755019068718
-0.06794089078903198
0.06105486676096916
-0.07445312291383743
-0.03789299726486206
0.10028799623250961
-0.06908378005027771
-0.009702470153570175
-0.10979800671339035
0.05739565193653107
-0.09093775600194931
0.027341781184077263
0.11968407034873962
-0.09123523533344269
-0.023940131068229675
0.03469138219952583
0.054354261606931686
0.0995870977640152
0.10900992900133133
-0.038571521639823914
-0.09145963937044144
0.039260994642972946
-0.06234201788902283
-0.022736435756087303
-0.054480332881212234
0.05400136485695839
0.10587583482265472
-0.016790935769677162
-0.020152684301137924
0.08833421021699905
-0.06799207627773285
-0.03429026156663895
0.05199538171291351
0.007689754944294691
0.11405052244663239
-0.0020050001330673695
0.013068241998553276
-0.03679914399981499
0.047026377171278
-0.13882562518119812
-0.005705546587705612
0.01374573539942503
0.0827041044831276
0.036567412316799164
-0.0006427132175303996
0.011792764998972416
-0.05283784121274948
-0.0909791961312294
0.03732080012559891
0.09033156931400299
-0.06640281528234482
0.05531623214483261
-0.039454907178878784
0.006206483114510775
0.03655462712049484
-0.043649159371852875
0.050091277807950974
-0.005160430911928415
0.06753741949796677
0.11131440848112106
0.07899650931358337
-0.0004872539429925382
-0.05219324305653572
-0.06272276490926743
0.025625793263316154
0.033419497311115265
0.014566363766789436
0.14134842157363892
-0.04378202185034752
-0.04777343198657036
-0.01630028523504734
-0.02091679722070694
0.055573780089616776
0.048500850796699524
-0.05167590454220772
0.08355626463890076
0.09617802500724792
-0.046365026384592056
-0.0688268318772316
0.014312355779111385
-0.03354239463806152
0.09194322675466537
-0.020889071747660637
-0.06572670489549637
-0.05248270556330681
0.062316201627254486
-0.045750826597213745
0.011947154998779297
0.048280276358127594
0.018311358988285065
0.10834994912147522
-0.00746495695784688
0.008575455285608768
-0.018711263313889503
0.029425673186779022
-0.00467992527410388
0.009370640851557255
-0.006136836484074593
0.02783343754708767
-0.0687163919210434
0.017637981101870537
0.020811613649129868
-0.0011348837288096547
-0.0651150792837143
0.03934169188141823
0.03597075119614601
0.1401853710412979
0.09092255681753159
0.09930019825696945
-0.024056261405348778
0.0679781511425972
0.08696812391281128
-0.10913917422294617
0.015284505672752857
0.014978010207414627
-0.07303494960069656
0.027320174500346184
-0.01885584555566311
0.1051553338766098
-0.08733680099248886
-0.01734600029885769
-0.042283765971660614
-0.056738998740911484
-0.0031695375218987465
0.03886403143405914
-0.055450428277254105
-0.02955642156302929
0.05030880495905876
0.03804667666554451
0.0001228365144925192
-0.08928468078374863
0.006582717876881361
-0.06484756618738174
-0.06567219644784927
0.019956568256020546
-0.04454867169260979
0.06081090494990349
0.054055701941251755
-0.03575022518634796
-0.024689296260476112
-0.06858393549919128
0.013236235827207565
-0.02880704775452614
0.04167257621884346
-0.028215523809194565
0.05966987833380699
0.05281265079975128
-0.03490571677684784
0.03261683136224747
0.07197978347539902
0.12178171426057816
0.06428291648626328
0.04995972663164139
0.09989815205335617
0.04507835581898689
0.09441536664962769
-0.012606378644704819
0.09446018934249878
0.01264212653040886
-0.0478338822722435
-0.020809384062886238
-0.05137727037072182
0.09318254142999649
0.012684878893196583
0.0398530438542366
-0.05432165414094925
0.07524822652339935
0.014120598323643208
0.0636058896780014
-0.005971059203147888
0.03172687441110611
-0.05623235926032066
-0.050013236701488495
-0.031986676156520844
-0.011674143373966217
0.08322863280773163
-0.04926171526312828
0.012290755286812782
-0.10287312418222427
-0.003240749705582857
0.06870327144861221
0.03331848233938217
-0.013389757834374905
0.002039258601143956
-0.021641215309500694
0.018395783379673958
0.09811893105506897
0.02621081843972206
0.0011945776641368866
0.020775774493813515
-0.086385078728199
0.027810104191303253
-0.04098274186253548
-0.00316282594576478
0.014582134783267975
0.035899121314287186
0.044956810772418976
-0.06165299937129021
0.05506909638643265
-0.007100958842784166
-0.019673392176628113
0.022802555933594704
-0.0013981088995933533
-0.043496910482645035
-0.06601876020431519
0.05004170536994934
-0.033097222447395325
-0.05204463750123978
0.07530035078525543
0.026761576533317566
0.06600255519151688
0.07621828466653824
0.10237321257591248
-0.02378402091562748
0.05903249233961105
-0.021985219791531563
0.01421741209924221
-0.06430516391992569
0.04225665703415871
0.07558398693799973
-0.0885411873459816
-0.030494751408696175
-0.09877888113260269
-0.1779387891292572
-0.052393291145563126
-0.13079896569252014
-0.09263632446527481
-0.03394783288240433
-0.006358473561704159
-0.017554430291056633
-0.03832189738750458
-0.031990401446819305
-0.03468086197972298
0.07752680778503418
0.0375177338719368
0.0007636214140802622
0.029746409505605698
0.00488846842199564
-0.014842107892036438
-0.021422944962978363
-0.021100610494613647
-0.08702388405799866
-0.02011863887310028
6.360875704558566e-05
0.026699578389525414
0.04913530498743057
0.11666692048311234
-0.06996314227581024
-0.005935044027864933
-0.16173739731311798
-0.0011714027496054769
-0.04690435528755188
0.009162966161966324
0.10722248256206512
-0.018085043877363205
0.020953571423888206
-0.07291968911886215
0.06615737080574036
0.020436881110072136
0.08818899840116501
-0.05202755331993103
0.0819782242178917
-0.046012211591005325
0.04314693436026573
0.005994947627186775
0.002678200136870146
0.10359509289264679
-0.011592680588364601
0.03246689587831497
0.004300233442336321
-0.028717538341879845
-0.010167710483074188
0.06579737365245819
-0.02645544335246086
-0.06908542662858963
-0.0769609734416008
-0.05164676904678345
-0.03658362850546837
0.023149343207478523
-0.07871992886066437
-0.11191020160913467
-0.024245265871286392
-0.07585090398788452
-0.012165245600044727
-0.01549809891730547
-0.0421694740653038
-0.006463997531682253
-0.06622450053691864
-0.01655009016394615
0.026754293590784073
0.04137985408306122
-0.12527288496494293
-0.003249290632084012
-0.05802902951836586
-0.03256111219525337
0.06069685518741608
0.0017179668648168445
-0.03455684334039688
-0.032262127846479416
0.09046510607004166
-0.0029822506476193666
0.021524371579289436
0.09196022897958755
-0.06894168257713318
-0.03431089594960213
-0.00914064235985279
0.048682644963264465
0.04440101981163025
0.12303079664707184
-0.04759737476706505
-0.0045333681628108025
-0.06574705988168716
-0.023185154423117638
0.10730630159378052
0.04726451262831688
-0.010176659561693668
-0.01151192095130682
0.016334015876054764
0.029677661135792732
-0.04342849925160408
0.00584619864821434
0.013634567148983479
-0.016982873901724815
-0.003996357321739197
0.0020600748248398304
0.0541924349963665
-0.00875051785260439
-0.07066185027360916
0.009086168371140957
-0.018400764092803
-0.01219979114830494
-0.08023657649755478
0.025339191779494286
0.04293661564588547
-0.022479509934782982
-0.0504893958568573
-0.025987671688199043
-0.05443050339818001
0.02859770879149437
0.025673914700746536
0.020046522840857506
0.04370366409420967
0.12917891144752502
0.051043201237916946
0.03431174159049988
-0.07010651379823685
0.031344860792160034
-0.013006487861275673
0.021392593160271645
-0.05454684793949127
0.07603936642408371
0.06252305209636688
-0.044409047812223434
0.08773329854011536
-0.024972034618258476
0.009614916518330574
-0.0527830608189106
-0.02894486114382744
0.01640450395643711
0.08863840252161026
0.03908886760473251
-0.10425113886594772
0.009701713919639587
-0.08809350430965424
0.033165279775857925
0.07284384220838547
0.037250783294439316
-0.059635747224092484
0.0015034542884677649
0.0627840980887413
0.024161560460925102
0.043923068791627884
0.0028222384862601757
0.0032977014780044556
-0.09089140594005585
-0.029014363884925842
-0.045796021819114685
0.03527816757559776
0.03218166530132294
0.10389408469200134
-0.006411598529666662
0.0151180075481534
0.046612128615379333
-0.013005468063056469
-0.04315413534641266
-0.04777466505765915
-0.04411235824227333
0.0036844927817583084
0.03144790604710579
-0.009067848324775696
-0.02535085380077362
-0.04680049791932106
-0.06059272587299347
0.021438993513584137
-0.06841292232275009
-0.04612632468342781
0.0907970517873764
0.03922795131802559
-0.04167607054114342
-0.05374804139137268
0.15814127027988434
0.06629520654678345
0.14629113674163818
-0.030088195577263832
0.00534307025372982
-0.03714084252715111
0.0013491694116964936
0.03953048959374428
0.04507814347743988
-0.12726514041423798
0.000459001719718799
0.04247380420565605
0.02967676892876625
0.020112305879592896
-0.047431912273168564
0.10809387266635895
0.04353760927915573
0.03434046357870102
0.013464565388858318
-0.05347561463713646
0.11528342217206955
0.000881500483956188
-0.13081617653369904
0.035297662019729614
-0.0270580742508173
-0.03983145207166672
0.20727108418941498
-0.049719080328941345
0.013617603108286858
0.027405472472310066
0.0035612802021205425
-0.04691334068775177
0.004280234221369028
0.05397015064954758
-0.1138727143406868
0.012426978908479214
0.07905787229537964
-0.1247422844171524
0.007101157680153847
0.040563683956861496
0.04345173016190529
-0.0021903589367866516
-0.02409575879573822
-0.008489514701068401
0.07139807939529419
0.07024548202753067
-0.04362718388438225
-0.041284095495939255
0.0126486262306571
0.05273136496543884
-0.10164260864257812
0.001788248191587627
0.0020089298486709595
0.06257535517215729
-0.0437006838619709
0.024714378640055656
-0.026607859879732132
0.008903146721422672
0.0325116403400898
-0.04206618294119835
-0.009887244552373886
-0.007253190502524376
-0.004068839363753796
0.07591274380683899
-0.02163277007639408
-0.004536513704806566
-0.029308300465345383
0.02653217315673828
0.056483618915081024
0.021370558068156242
0.12258262187242508
0.004721128847450018
-0.02829584665596485
-0.03258366510272026
-0.008801049552857876
-0.01774423010647297
-0.06838706880807877
-0.06814700365066528
0.03634575381875038
0.033973872661590576
-0.016161177307367325
-0.030805520713329315
0.07235896587371826
0.08104453235864639
-0.058658894151449203
-0.06649062037467957
0.1430358588695526
-0.11283077299594879
0.010474210605025291
-0.018434008583426476
0.07065002620220184
-0.006065017078071833
0.009855784475803375
0.03852064535021782
0.03549189493060112
-0.008762119337916374
-0.00933852232992649
-0.06008157506585121
-0.09348499029874802
-0.1310747116804123
0.032326336950063705
-0.08420810848474503
0.01603003405034542
-0.05530143156647682
-0.0978723093867302
0.06721647083759308
-0.08324839174747467
0.0495070144534111
0.08202048391103745
0.028833309188485146
-0.01692318357527256
-0.08601196110248566
0.029669547453522682
-0.1609974503517151
-0.02074103057384491
-0.03272343799471855
-0.01203237846493721
0.06358404457569122
-0.0842064693570137
0.06378723680973053
-0.026393916457891464
-0.0012877703411504626
0.045993998646736145
0.0042380690574646
-0.020743247121572495
0.07336379587650299
0.01836387626826763
0.012576033361256123
0.058427225798368454
-0.031601615250110626
-0.08984970301389694
-0.03758951649069786
-0.04335658997297287
0.007128381635993719
0.02052200585603714
0.009753965772688389
-0.036101747304201126
0.06962111592292786
-0.03108191303908825
-0.07232711464166641
0.02409345470368862
0.056935545057058334
-0.10954146832227707
-0.07043425738811493
-0.010013838298618793
-0.048778243362903595
0.004026278853416443
0.12388602644205093
0.11407645791769028
0.02091476507484913
0.05932534858584404
0.0036596234422177076
0.016204675659537315
0.12607228755950928
0.0021752696484327316
0.10251083225011826
0.04698496311903
-0.04530872777104378
0.06725335121154785
-0.03574160486459732
0.007327455561608076
-0.06595330685377121
-0.024759827181696892
0.1340063363313675
0.0207302775233984
-0.009057894349098206
0.18833208084106445
0.012658405117690563
-0.002511311322450638
0.02613590657711029
0.016237810254096985
-0.02173631452023983
-0.03744576871395111
0.04735627397894859
-0.06276487559080124
-0.13979360461235046
-0.04117840155959129
0.05384388566017151
-0.05779543146491051
-0.0018393754726275802
-0.0054093291983008385
0.01624155417084694
0.08811362087726593
-0.07759811729192734
-0.03622835502028465
-0.027165045961737633
0.06169716268777847
0.09204695373773575
0.039139632135629654
0.007909990847110748
-0.07843220978975296
0.07929129153490067
-0.0015229327837005258
-0.005347943399101496
-0.0021470666397362947
-0.033768944442272186
-0.013985119760036469
-0.0016335329273715615
0.01893046870827675
-0.13934248685836792
0.05107074975967407
0.03160886839032173
0.12307299673557281
0.06231415271759033
0.05501723289489746
-0.08120111376047134
0.09464848786592484
-0.08329234272241592
-0.03193974122405052
0.046632375568151474
0.030774110928177834
0.03850949555635452
0.09833095222711563
-0.014146284200251102
0.04171587899327278
-0.04928087815642357
-0.1853761374950409
-0.008177614770829678
0.02323010563850403
-0.044917553663253784
0.015274299308657646
0.04803183302283287
-0.10491777956485748
-0.0565689392387867
0.05895989388227463
0.030706210061907768
-0.030639560893177986
0.01364719308912754
-0.07132340222597122
-0.03089219704270363
0.02353653497993946
0.007635255344212055
-0.03704686090350151
-0.01082999911159277
-0.07064713537693024
-0.07723920792341232
-0.023106638342142105
-0.05725926533341408
0.015761876478791237
0.028353286907076836
0.07485061138868332
0.0017455244669690728
0.0615994893014431
-0.005272699054330587
0.11810007691383362
-0.12161758542060852
-0.015492115169763565
-0.0406755767762661
-0.16004057228565216
-0.001072088023647666
0.05633791908621788
0.11023424565792084
0.06733259558677673
-0.016405589878559113
0.024237487465143204
0.042149730026721954
-0.02678421325981617
0.08360575884580612
0.0012800190597772598
-0.01576109230518341
-0.07191303372383118
0.05425287410616875
-0.11655541509389877
-0.0037721991539001465
-0.06538092344999313
0.07985211908817291
-0.11942575126886368
-0.00839513260871172
0.1401427537202835
0.05650974065065384
0.09757930785417557
-0.027740873396396637
-0.03914976492524147
0.03768135979771614
0.1070839911699295
-0.008338356390595436
-0.020940743386745453
0.1103445440530777
0.0711551383137703
-0.027324572205543518
-0.019478386268019676
-0.038067497313022614
0.03027266263961792
-0.019856100901961327
-0.010807810351252556
-0.0014209646033123136
0.009181858971714973
-0.10517162084579468
0.040780723094940186
-0.03831592947244644
-0.08819021284580231
-0.08681625872850418
0.08679722994565964
0.02794565260410309
-0.006991331931203604
0.08266853541135788
0.037546101957559586
0.009077259339392185
-0.11589980870485306
-0.08171486854553223
0.0724974200129509
-0.041054654866456985
0.02033829316496849
-0.03996288403868675
0.034211933612823486
-0.022269276902079582
0.12532784044742584
0.10277639329433441
0.004318270366638899
-0.10414236783981323
-0.05059061944484711
-0.057947345077991486
-0.05122602358460426
-0.025337127968668938
-0.021955320611596107
0.06731512397527695
0.0053180609829723835
-0.017545286566019058
-0.01318977028131485
-0.017954468727111816
0.014969696290791035
-0.07590975612401962
0.08197257667779922
0.0594833642244339
-0.08026733994483948
0.08668118715286255
0.03727203607559204
0.02497597597539425
0.010552219115197659
0.07029789686203003
-0.019940713420510292
-0.005855341907590628
0.16129551827907562
-0.03162941336631775
-0.015567398630082607
-0.05360400304198265
-0.00858313124626875
0.017126452177762985
0.036392826586961746
-0.032137542963027954
-0.008480035699903965
-0.05558149144053459
-0.10561224818229675
0.01596803404390812
-0.00043360903509892523
0.10730470716953278
-0.0015857246471568942
-0.028182610869407654
-0.015571537427604198
-0.020176135003566742
-0.09818108379840851
0.033669691532850266
-0.00422193668782711
-0.02617587149143219
-0.10352901369333267
-0.06540314853191376
0.04714711010456085
-0.14526326954364777
-0.010214731097221375
0.09070811420679092
0.004542799200862646
-0.0575982965528965
0.013880247250199318
-0.01121472381055355
0.027836380526423454
0.05622640252113342
-0.019170185551047325
0.02561870962381363
0.05531220883131027
-0.13157899677753448
0.0013881407212466002
-0.0628092885017395
-0.042199645191431046
0.019258905202150345
-0.05065936967730522
-0.05627640709280968
-0.11493664234876633
-0.06059996783733368
-0.042244020849466324
0.009596201591193676
0.01185648050159216
0.0011703901691362262
-0.09280464798212051
-0.018011245876550674
-0.07097984850406647
-0.07631021738052368
-0.025493869557976723
0.06855456531047821
0.06767705827951431
0.10439469665288925
-0.04250446334481239
-0.02541302517056465
-0.049640052020549774
0.02668217569589615
0.11084915697574615
0.02755431830883026
0.021769436076283455
-0.017045050859451294
0.08652254194021225
0.12783971428871155
0.012416672892868519
0.05722707509994507
-0.010198402218520641
0.016559502109885216
0.06034746766090393
-0.07664324343204498
0.08719491958618164
0.09070057421922684
-0.05912841111421585
0.050473615527153015
-0.004202517215162516
-0.02092191018164158
-0.09850010275840759
0.06657536327838898
-0.06991757452487946
-0.009636808186769485
-0.029544230550527573
0.01580745168030262
0.03751186653971672
0.10942409187555313
0.031189605593681335
0.0012832313077524304
-0.026291627436876297
0.018023280426859856
-0.04210451617836952
0.05980801582336426
-0.042357563972473145
0.07085508853197098
0.01701555959880352
-0.05035083740949631
0.03385526314377785
0.09307441860437393
-0.03342767059803009
0.04956596717238426
0.028362901881337166
0.1143469512462616
0.06893935054540634
-0.0006320489337667823
0.12267431616783142
-0.010407846421003342
-0.01886771060526371
0.07605990767478943
0.00639444449916482
0.01016145944595337
0.0454871840775013
-0.003274313174188137
0.035634320229291916
0.010959134437143803
-0.005622535012662411
-0.0277777798473835
0.005595379043370485
0.018037306144833565
0.02084772288799286
0.004641653969883919
-0.0533406063914299
-0.07070441544055939
0.01625882275402546
0.010618254542350769
-0.046554818749427795
-0.01787952333688736
0.02101239562034607
0.15033429861068726
-0.013076906092464924
-0.05068418011069298
0.02932664379477501
0.06441300362348557
-0.07102890312671661
0.023434298112988472
-0.06262347847223282
0.021388117223978043
0.08360216021537781
0.059807468205690384
0.006186687853187323
-0.08494564890861511
0.005413369741290808
-0.007393436972051859
-0.09202210605144501
-0.05922188609838486
-0.04436729848384857
0.11852575838565826
0.04429355263710022
-0.07797061651945114
-0.007390003651380539
0.047109395265579224
-0.0941290557384491
-0.06909174472093582
0.0017596242250874639
0.03899074345827103
0.0057754297740757465
0.011942918412387371
-0.038501664996147156
0.0028907584492117167
0.01817093975841999
-0.005866716615855694
0.0726609155535698
0.04292907193303108
0.043287016451358795
-0.03877551481127739
-0.10526476800441742
0.09303367882966995
-0.04450404271483421
-0.008360208943486214
0.14483600854873657
0.028959957882761955
0.020869629457592964
0.0036601938772946596
0.01824510097503662
0.035240329802036285
0.11192168295383453
0.09710545092821121
0.018545562401413918
0.09709444642066956
0.059936631470918655
-0.06706876307725906
-0.07576847076416016
-0.09917201846837997
-0.07560326159000397
0.03859755024313927
0.033956848084926605
0.03354117274284363
0.020571431145071983
-0.05876616761088371
0.019632834941148758
0.05829688161611557
-0.017309965565800667
-0.070818230509758
0.049309611320495605
-0.052206315100193024
-0.056778453290462494
-0.005132793914526701
-0.010329170152544975
0.0765698254108429
-0.050928931683301926
0.0146115617826581
-0.005179695785045624
0.1108608990907669
-0.007352269254624844
-0.07458563894033432
-0.00613651005551219
0.019554870203137398
0.03399839997291565
-0.028968801721930504
-0.09772410243749619
0.02752366103231907
0.04413480684161186
-0.004028618335723877
-0.020244592800736427
0.0062230611220002174
-0.008589248172938824
0.025813112035393715
-0.03750493749976158
-0.016091294586658478
0.04662857577204704
-0.011517507955431938
0.051050372421741486
0.08334452658891678
0.04496176913380623
0.06915777921676636
0.03793340176343918
-0.007085168734192848
-0.02634187787771225
-0.06539016216993332
-0.06005149707198143
0.07225824147462845
-0.06336236000061035
0.06764533370733261
0.0018513313261792064
0.03484228253364563
-0.1082625761628151
-0.031210390850901604
-0.04290615767240524
0.06624407321214676
0.0005635822308249772
-0.042731255292892456
0.029372381046414375
-0.008534627966582775
-0.06502848863601685
0.02538122609257698
-0.11276768147945404
-0.009479867294430733
0.009127773344516754
0.09878362715244293
-0.0687737837433815
0.03081735409796238
0.010452010668814182
-0.09903736412525177
0.0026420338544994593
-0.0666319951415062
0.018904434517025948
0.08765841275453568
-0.022376159206032753
-0.09443292766809464
0.06828396022319794
-0.04340234026312828
-0.08988332003355026
0.08101890236139297
-0.08400949090719223
-0.007739901542663574
-0.05240511894226074
-0.04678678512573242
0.05486896634101868
0.04589628800749779
0.10813458263874054
-0.027416683733463287
0.04164070263504982
0.05255264788866043
-0.03717757761478424
0.0775495320558548
0.10281354933977127
-0.057710327208042145
0.04965270310640335
-0.044127799570560455
-0.09135517477989197
-0.06857235729694366
